,0,1,2,3,4,5,6,7,8,9,10,11,12,13,14,15,16,17,18,19,20,21,22,23,24,25,26,27,28,29,30,31,32,33,34,35,36,37,38,39,40,41,42,43,44,45,46,47,48,49,50,51,52,53,54,55,56,57,58,59,60,61,62,63,64,65,66,67,68,69,70,71,72,73,74,75,76,77,78,79,80,81,82,83,84,85,86,87,88,89,90,91,92,93,94,95,96,97,98,99
demor,0.025277147,0.18602102,0.054299064,0.08887888,-0.012960278,-0.17289256,0.10000877,0.26257524,-0.00096715864,0.0027214354,-0.017349014,0.12417063,0.23210253,0.1422295,0.090480216,-0.27293223,0.25071204,-0.1396891,-0.015549244,-0.19371788,0.3133265,-0.08224007,0.3115199,-0.10375206,0.26114708,-0.1293803,-0.1526093,0.17041606,-0.27237573,0.008153553,0.13125996,-0.02995703,0.051418353,-0.43444535,-0.02788246,0.112892255,0.02151145,-0.12879492,-0.07529392,-0.12728058,-0.20316704,0.07323941,-0.09343477,-0.06617879,-0.06205495,-0.07541518,-0.18311547,-0.005053493,0.025059538,0.16504829,0.1131414,-0.009872358,-0.32468167,-0.017112417,0.23688546,-0.14027296,0.1824103,0.0675196,-0.23596805,0.04281742,-0.15818918,-0.043633103,-0.04185809,-0.13957913,0.13101774,0.28158304,0.018979723,-0.017025542,-0.07903913,-0.015927885,0.11181676,0.27373767,0.035007086,-0.018744087,0.2722692,-0.10956657,0.14568369,0.12225372,-0.013834361,0.09120305,-0.28322053,0.18125004,0.010503099,0.038050376,-0.15808617,-0.05281045,0.3931831,-0.025684312,-0.12199615,0.10357685,0.18175222,0.1057626,0.10341448,-0.1694483,0.3080723,0.0018375805,-0.08936406,-0.074660815,-0.030105505,-0.06712572
erro,-0.25993574,0.11518903,-0.17749767,-0.26624277,0.18804576,-0.1787101,-0.28654882,0.12968697,0.17886682,-0.096837826,-0.22521393,0.047336973,0.037452895,0.24983086,0.3388481,0.29101792,0.47985438,0.34628525,0.2065321,0.110176794,0.23876181,-0.049991477,0.44053522,-0.52534133,0.5911709,0.1485305,-0.04953625,0.11542174,-0.09470251,0.21945392,0.4921269,-0.22216542,0.045846105,-0.6085242,0.09190404,0.10975073,-0.15078945,0.19705878,-0.11777541,0.3513326,-0.07210131,0.14873579,-0.280193,-0.30056652,-0.040250186,-0.014618242,0.25771806,-0.1301078,-0.13505392,-0.09865379,0.47929928,-0.12897073,-0.55225813,0.19831498,0.027723521,0.30309668,0.31581247,0.031064028,0.039750855,-0.018129852,-0.4193403,-0.17486455,0.1602745,0.35788947,0.031936936,0.5824358,0.00971595,-0.33356106,-0.0789771,0.57664424,0.21490714,-0.086760215,0.13685755,0.30236775,0.12964666,-0.14913438,0.0968729,-0.25740007,-0.08382632,0.06448146,-0.7107915,-0.027788384,0.0917848,-0.18506938,0.0811383,-0.11986783,0.17700419,-0.24312012,0.119177386,-0.11331145,0.070483364,-0.009425848,0.102041684,-0.44371584,-0.13578714,0.067745805,0.095693894,0.027273653,-0.37670925,0.09742053
tent,-0.2615672,0.19666621,-0.27446285,-0.4714868,0.1772588,-0.08125016,-0.370336,0.45654327,0.13350035,-0.015741112,-0.48035723,-0.2989446,-0.13944587,0.24982272,0.116680846,0.25410956,0.26437005,0.49512374,0.16927654,-0.036189932,0.27011728,0.22482729,0.30224332,-0.2764501,0.24678487,0.19616508,0.24794959,0.003938307,-0.13012235,0.108617,0.19657081,-0.33123875,0.045785576,-0.76163954,-0.19866408,0.09021636,0.07131331,0.08771014,-0.501461,0.4513949,-0.0039749574,0.24539565,-0.19811524,-0.19103,0.3460187,0.13624062,0.07816847,-0.4626401,-0.018955912,-0.15980187,0.3531017,-0.17857568,-0.3432311,0.081074685,-0.03369908,0.04963861,0.3152523,-0.055716254,0.009322952,0.0074000643,-0.27379304,-0.3566983,0.23586045,0.50062543,0.13394548,0.35946518,-0.09382043,-0.22449443,-0.08631769,0.5978435,0.1736737,-0.072488554,0.3347647,0.035941932,0.012932807,0.032914773,0.5012244,-0.3236874,-0.113410935,0.11886166,-0.5295391,-0.21473368,-0.10942616,-0.26447824,-0.104314886,-0.090879224,-0.12120074,-0.13622215,0.18622257,-0.017779987,0.038646437,0.18184997,0.25368017,-0.58000094,-0.11185603,0.20162642,0.24212691,0.23106901,-0.054095335,0.3198652
relatori,-0.08091414,0.22125758,-0.14738026,-0.0067993463,0.12800904,-0.27131462,0.06355233,0.41589975,0.019002533,-0.21865337,-0.076903805,0.16072541,0.16488485,0.026620727,0.278285,-0.07394679,0.30470023,-0.10407713,-0.12791103,0.08649969,0.36168435,-0.04894764,0.34071898,0.09293651,-0.07035116,0.11737236,-0.0262344,0.17804971,-0.11732504,0.052303415,0.15800962,0.019654924,-0.17446,-0.3551107,0.11679065,0.10183581,0.10020354,-0.00066181296,-0.28553426,0.28105932,0.06418588,0.19062006,0.07544315,-0.17812814,0.13923573,0.017360635,0.0105770985,-0.09825534,0.053428918,-0.080126606,0.19189097,-0.07507492,-0.4286389,-0.23244797,0.009563185,-0.010993249,0.0590565,0.18136102,0.03916617,-0.01884632,0.0102763185,-0.031973336,0.20345828,0.115412004,0.16609007,0.11469153,-0.08276455,0.1438564,-0.14640808,-0.06384766,0.074302986,-0.07063942,0.056319613,0.16254005,0.08583227,-0.28335974,0.06306817,0.15456562,-0.041673362,0.05224717,-0.4331285,0.20183097,-0.13980354,0.14130056,-0.30972546,-0.22455631,0.4124486,0.22778,-0.054209307,-0.31452322,0.0076476694,-0.010420827,0.1080578,-0.122360334,0.2516407,-0.1223404,0.037242793,-0.08953402,-0.16007772,-0.092618294
notificaco,-0.08415875,0.11699511,-0.17113033,-0.07763833,-0.00050805364,0.011090903,0.1673565,0.107975334,-0.15534483,-0.047273934,0.014157241,0.24722648,0.005337852,0.049863514,0.10101484,-0.2048389,0.2733759,0.1903512,-0.02080779,-0.24525441,0.14984111,-0.30257908,0.46130264,0.055627026,-0.020046916,0.11487309,-0.12844697,0.09469563,-0.046958636,0.21258478,0.42854267,-0.05025059,-0.011938647,-0.44819877,0.16214767,-0.013194623,-0.11195409,0.28316963,-0.009005058,-0.061775364,0.22847685,-0.16897902,-0.06743193,-0.024691703,0.040287666,-0.3337527,0.0558604,0.016871406,0.11211699,-0.19033284,0.21242954,-0.08900108,-0.020651625,-0.105171315,-0.1988885,-0.15814056,-0.040024508,-0.14775528,0.07951787,-0.31915388,0.06736357,-0.26341966,0.5363284,0.10804953,-0.22083658,0.24270225,0.21031384,0.19506013,-0.46886024,0.107489504,-0.005480408,0.24283317,-0.0100065535,0.33849597,0.10812356,0.20250785,-0.116816334,0.45672736,-0.03636351,0.00074767385,-0.285841,-0.14744897,0.21522646,-0.04776518,-0.10222871,-0.34151497,0.343369,0.020411452,-0.22361301,-0.1157966,0.14135896,-0.035980985,0.061984476,-0.18958926,0.33834362,-0.24514194,0.21140699,-0.07303776,-0.092268206,0.033984274
atras,-0.14008106,0.18157998,-0.13057855,-0.090221405,-0.16491608,-0.09366404,0.21773869,0.26990637,-0.24433693,-0.3243521,-0.07111469,0.121068284,0.015335159,0.074191876,0.10193116,-0.30845845,0.30085674,0.074855484,5.7937996e-05,-0.32453,-0.01166919,-0.21834625,0.33732894,0.10917115,-0.064545184,0.064988256,-0.15279344,-0.062206876,0.05321117,0.34296757,0.48470226,-0.21538672,-0.13289778,-0.4944723,0.052116223,0.16428055,0.016934467,0.23461762,0.08728141,-0.08436086,0.32904434,-0.21421893,-0.073200576,-0.014245627,-0.015838979,-0.37556317,-0.028376007,0.012313225,0.14735094,-0.1338251,0.19886115,-0.16354138,0.013183662,0.10682732,-0.2747575,0.021430869,0.17500931,-0.18520108,-0.03331169,-0.31659594,0.06767072,-0.2278657,0.5680547,0.091415726,-0.07616864,0.3006654,0.087279774,0.037582308,-0.42809507,-0.14086172,0.12011412,0.23528999,0.13515197,0.27470917,0.06780683,0.2888171,-0.1418635,0.5414387,-0.016386298,0.11869378,-0.19335888,-0.23992679,0.31800345,-0.112803794,0.015083782,-0.2534501,0.26035073,0.10996337,-0.0960281,0.013004325,0.2703864,0.14509793,-0.13098727,-0.17377016,0.36027944,-0.15804335,0.06970424,-0.21571052,0.044270568,0.064122126
cheg,0.10355554,0.025175683,-0.07079318,-0.016672324,-0.092753224,0.05891116,0.28541216,-0.050885305,-0.21675913,-0.07627716,0.15651527,0.2600496,-0.06639318,0.29128924,-0.0556314,-0.2661668,0.47919717,0.21145947,-0.027607339,-0.20622468,0.08163152,-0.18305135,0.47206223,0.11537744,0.030272849,0.1292202,-0.106175005,0.12476129,0.014145857,0.11386452,0.40509897,0.011793941,-0.17126879,-0.12527306,-0.11345756,0.013211897,-0.097904146,0.041751478,-0.08661777,-0.1114641,0.21421318,-0.10547125,0.09353043,-0.19645135,-0.031255703,-0.02828582,-0.18054795,-0.17285295,0.016672535,-0.049624268,-0.0028954993,-0.26743138,-0.29365999,-0.037181694,-0.272829,-0.16243932,-0.0019370462,-0.22967376,-0.017407486,-0.3859107,-0.015018484,-0.3145447,0.5336444,0.11783842,-0.26672572,0.37387517,-0.058739305,0.04084476,-0.5019548,0.041308545,0.06768122,0.37975842,-0.0027562887,0.20835628,0.18824515,-0.055861242,-0.031560816,0.52503484,-0.20551135,0.06913555,-0.1999809,-0.2522164,0.025248863,0.20770971,0.008428572,-0.3792354,0.45008463,-0.13901909,-0.24692358,-0.07876886,-0.016845517,-0.06884679,-0.09590956,-0.26499113,0.20906624,-0.055980094,0.340703,-0.2833042,-0.0639508,0.15781857
respond,0.01943956,-0.03866924,-0.0570965,0.006345589,0.19605352,-0.05338049,-0.022956716,0.19761522,-0.123888634,-0.15535371,-0.13774674,-0.075055435,0.19093491,0.09144571,0.14427727,-0.14444779,0.2861591,-0.11541543,-0.08341803,-0.16329083,-0.04377939,0.035615522,0.122025,-0.08730966,0.09975102,0.05849343,-0.1682553,0.111597575,-0.11502845,0.17092435,0.15183276,0.035716288,-0.1045917,-0.2751487,-0.049980104,0.010745291,-0.15266371,-0.13730812,-0.029489238,-0.01965977,0.018742086,-0.08245432,0.053787153,0.10118041,0.050437354,-0.09167615,-0.051913906,-0.15350285,-0.02492203,0.033429764,0.102554105,-0.1708741,-0.136586,-0.03754325,-0.12915786,0.061398182,0.02392897,0.20533241,-0.076539144,0.10250591,0.094556205,-0.1086059,0.17942849,0.26719242,0.0218282,0.22163521,-0.13092767,0.061926283,-0.2109596,0.0014662293,0.061174948,0.06973201,0.19453701,0.007897504,0.07264477,-0.3048102,0.055609826,0.09811279,-0.044761457,-0.0061706337,-0.30368406,-0.033830505,-0.3323156,0.16967893,-0.0961219,-0.061937876,0.28259182,0.18291295,0.13395838,-0.0469856,0.12633877,0.013970908,-0.010748952,-0.0011810464,0.12695163,-0.020580266,0.06816496,-0.06083605,0.06037662,-0.14997567
solicitaca,-0.13487232,0.34369725,0.09698232,0.3489168,0.1159415,-0.36671174,0.13621567,0.28441963,-0.40583363,-0.1915447,0.37990007,-0.26998264,0.5379192,-0.17570804,0.4266805,0.14446707,0.09142099,-0.39552784,-0.12724242,-0.6107311,-0.024718447,0.17649864,0.59303623,-0.77653515,0.13302831,0.019345595,-0.45743212,-0.21339986,0.2192167,-0.120431654,0.37537485,-0.1606583,0.500193,0.36030304,-0.038569525,0.46778157,-0.10991392,0.2906383,-0.16270478,-0.50923145,-0.090793565,0.10581135,-0.14941047,0.049584664,-0.24208811,-0.28255877,0.06118253,0.019633858,-0.18693642,0.15160847,0.014888282,-0.02635303,-0.106006846,0.17131647,0.10700324,-0.2660507,0.03413055,0.06135707,0.34044585,-0.053309448,-0.37582588,-0.17934754,0.74291694,0.017066782,-0.64438015,0.24908622,-0.2929704,-0.07859949,-0.45577577,0.12140193,-0.08858666,0.44459814,0.12849101,0.5125881,-0.1356699,0.0062272353,-0.11090058,-0.4100595,-0.2535663,0.010969478,0.111016504,0.09767354,0.3090463,0.06757204,0.13400722,-0.034678522,-0.16721317,-0.24964048,0.28127867,0.47436652,-0.029748078,0.27513644,-0.05600517,0.11330657,0.3848576,-0.007826955,-0.03803079,0.14090486,0.3940669,-0.31891036
rap,-0.1629022,0.18327644,-0.17075153,0.35214123,0.049790736,-0.47579822,0.0031264883,0.43166026,-0.29330721,-0.24805784,0.41710463,-0.13849165,0.28307563,-0.26824036,0.27003425,0.29392478,0.20428836,-0.4323379,0.111555845,-0.65560746,0.09135062,0.074061625,0.39490482,-0.724785,0.18836573,-0.11966889,-0.4376861,-0.012628588,0.11571206,-0.1359713,0.4200706,-0.10989044,0.52115923,0.4588304,-0.09153417,0.5043839,-0.11599326,0.36769843,-0.1408826,-0.24499208,0.08481832,0.19454537,-0.2876188,0.07545497,-0.18824814,-0.24489328,0.09848814,0.06691966,0.012980128,0.36894965,0.11755386,0.13884951,-0.10316609,0.33703744,0.12910628,-0.30803698,0.040034723,0.0077874204,0.36432642,-0.035775132,-0.37445536,0.010083442,0.8109365,-0.06595436,-0.67342585,0.3175741,-0.35979852,-0.21702293,-0.28797844,-0.069896325,0.088087946,0.49754786,0.016985787,0.35759312,0.036040254,0.03158762,0.14371392,-0.31427434,-0.016059823,0.033600688,-0.0077481284,0.15373252,0.1700081,0.17061195,0.053503085,-0.17541565,-0.17989229,-0.27295026,0.38744026,0.43819427,-0.15892062,0.4422484,0.0054266984,0.3130156,0.5569614,-0.23654367,-0.2453153,0.17693388,0.38605037,-0.23689431
resolv,0.09584401,0.24643537,0.08515051,0.10486867,-0.029883143,-0.49416238,0.035819843,0.30374253,-0.34371158,-0.28022447,0.49616328,-0.24042898,0.4920402,-0.24439718,0.31569037,0.2926775,0.36820948,-0.42324,0.047688868,-0.7020071,-0.04460924,-0.00045436036,0.607866,-0.79092383,0.0010171782,0.09025427,-0.5551364,-0.07921094,0.32986552,-0.07251765,0.41248137,-0.0922123,0.49558857,0.3608005,0.07689287,0.3139133,0.07076102,0.26075697,-0.23020752,-0.29796878,-0.13547388,0.045597814,-0.2968858,0.063064925,-0.41462108,-0.41194072,0.02922378,-0.009487943,-0.21889155,0.24193428,-0.092010155,-0.053732004,-0.291427,0.3687739,0.191665,-0.1501133,0.053025812,0.08695365,0.35648328,0.14003499,-0.52937645,-0.21713966,0.7266172,0.09638193,-0.6718604,0.329429,-0.36956635,-0.3168037,-0.264109,0.006833036,0.026631443,0.49407354,0.0043338314,0.522212,-0.11052489,0.11082136,-0.084760174,-0.37990823,-0.25853065,0.057930112,0.09189456,0.3265528,0.41962573,0.28522843,-0.0003033561,-0.006619789,-0.21821968,-0.062158898,0.3902582,0.39051023,0.055556014,0.29306263,-0.041574646,0.18947026,0.24625263,-0.14215124,0.1758937,0.011670824,0.28277528,-0.3063513
atend,-0.052147646,0.3712016,-0.0022878002,0.1778076,0.22914791,-0.46343744,-0.012100854,0.4108244,-0.3451112,-0.14986831,0.26841334,-0.18696977,0.43657777,-0.2635404,0.38205495,0.18176867,0.22070824,-0.42455658,-0.00891309,-0.6801778,-0.05863644,-0.023243798,0.5243728,-0.85506266,0.10646607,-0.09566829,-0.5061105,-0.0113048805,0.14705881,-0.11169896,0.37503478,-0.1584828,0.3554053,0.3103883,-0.05100961,0.37705985,-0.070206426,0.30426702,-0.2488034,-0.31024262,-0.20809966,0.14547388,-0.25149316,0.00945114,-0.34304187,-0.38320628,0.29048416,0.014240512,-0.23622563,0.33493704,0.17288338,-0.017548509,-0.09524298,0.45969892,0.03917348,-0.24107644,0.108246356,0.17953779,0.20639749,-0.020339921,-0.41108653,-0.19201458,0.67857987,0.040359598,-0.59807163,0.3234745,-0.23886992,-0.29992485,-0.35194853,0.0940806,-0.003653828,0.5438781,0.0641572,0.48032302,-0.09713855,0.03573139,-0.06867907,-0.347833,-0.19620197,0.07787815,0.06041451,0.35535726,0.22163114,-0.0061881864,0.117433675,-0.020575702,-0.3068992,-0.20640542,0.41287467,0.44453132,-0.019228747,0.32663363,-0.08173305,0.07317779,0.46679196,-0.16319656,-0.09845111,0.074423485,0.26563132,-0.2969786
aparec,-0.16225186,0.0064240275,-0.1069587,-0.44693148,0.11298423,-0.01618518,-0.26619932,0.33845752,0.23800646,-0.2229265,-0.4156022,-0.13391213,0.052998938,0.18208005,0.2075615,-0.25622404,0.38477114,0.18462501,0.3408848,0.1236458,0.15555522,0.08026301,0.2606624,-0.11593224,0.53673905,0.17279595,-0.14925419,0.21136564,-0.19536531,0.3175692,0.06722226,-0.089618124,0.029920047,-0.6967526,-0.16591604,0.0057820887,-0.39093387,-0.11519346,-0.1951675,0.19793852,-0.19268619,0.26738852,-0.12246404,-0.27367708,-0.13120468,-0.3628948,0.30737317,-0.38551262,-0.26518208,-0.012402607,0.51185936,-0.16685124,-0.3992155,0.06318784,0.070001274,0.058274996,0.13772492,0.12002189,-0.0017102148,0.067219004,-0.40826082,-0.36177295,0.22876142,0.44420964,0.08814057,0.2796868,0.027287414,-0.3971497,-0.25857934,0.3517269,0.28575173,0.17394546,0.1685741,-0.09478317,0.14082325,-0.059082396,0.24781436,-0.2375221,-0.27741963,0.19966686,-0.5268227,0.005065709,0.045035638,-0.056684777,-0.08943224,0.021982994,0.2260016,-0.15633464,0.045199573,0.11483303,0.03572429,-0.049671862,0.13507967,-0.55422765,0.06523254,0.021882998,0.16449761,0.14394957,0.108179875,0.17791606
consegu,-0.25647992,0.15354013,-0.18526356,-0.31705964,0.033206604,-0.1613226,-0.4170974,0.29309094,0.21594444,-0.06461432,-0.38030624,-0.015809072,0.056379545,0.12553093,0.41043857,0.13011973,0.29038888,0.23388757,0.23559107,0.04443963,0.4031539,0.07320036,0.45163915,-0.27564797,0.48816022,0.14917016,-0.08176767,0.020124046,-0.2595287,0.19510008,0.2502778,-0.106096275,0.21110027,-0.75383705,0.065765835,0.01786895,-0.22142164,0.085597344,-0.31921288,0.34528556,-0.18872347,0.24083182,-0.12831585,-0.25250793,0.10590067,-0.03612972,0.21917473,-0.1506696,-0.072863825,-0.17433959,0.45336926,-0.11706688,-0.48839,0.03758558,0.11889853,0.060415037,0.25106326,0.14617793,-0.008104613,0.090777956,-0.2748041,-0.1480531,0.10998416,0.39485365,0.24799864,0.33335152,0.04071698,-0.18280779,-0.08374088,0.42152783,0.20837632,-0.015454524,0.067218654,0.09441635,0.18563753,0.06789253,0.33458248,-0.34780085,0.007923427,0.1714193,-0.54668784,-0.13184363,-0.020478481,-0.2168928,-0.16914268,-0.06894386,0.15924262,-0.091001086,0.1442504,0.041401435,0.116823554,0.11682076,0.10420008,-0.3763014,-0.048540663,0.090387255,0.18867078,0.18196797,-0.20380646,0.039439846
vez,-0.031535536,-0.077828296,-0.13613202,-0.34938303,0.12436535,-0.17746516,-0.17893663,0.36614618,0.3494822,-0.23001087,-0.04200791,-0.5077539,-0.4013681,0.15422404,-0.3010447,0.29602298,-0.14972937,0.13504466,0.21819979,0.039491855,0.4307041,0.32214114,0.105915904,-0.14496884,-0.106036596,0.04762219,0.40447688,-0.31803265,0.044313326,-0.23593532,-0.23215798,-0.11037803,0.33550578,-0.64518744,-0.112104304,0.013171205,0.13500331,-0.03940158,-0.47615156,0.11262707,0.14570764,0.057017528,0.06956101,-0.007934226,0.5721672,0.39804545,-0.2865767,-0.47801793,0.28377956,0.06262907,0.08594986,-0.024239205,0.028889447,-0.20023306,0.15331621,-0.04099354,0.32718042,-0.031473313,-0.08925688,0.28118184,-0.027135521,-0.1337111,0.028932225,0.37640876,0.08598638,0.23191369,-0.4017324,0.13076824,0.025732478,0.48404053,0.104940265,-0.28621578,0.5570581,-0.07440316,0.22074825,-0.34392112,0.66773623,-0.39218915,0.092836924,-0.02681491,-0.46776375,-0.13548082,-0.5534184,-0.19916113,-0.17815532,-0.07990002,0.07524508,0.05228735,0.1736583,0.008529715,0.3408087,0.061846327,0.19410627,0.05297468,-0.2535121,0.32103014,-0.17347066,0.18764473,-0.23622943,0.18296574
duas,-0.19563207,0.0124589475,-0.16920301,-0.27655655,-0.08446843,-0.29934546,-0.33256736,0.4241991,0.10870963,-0.041468788,-0.315728,-0.43758735,-0.34015164,0.50907785,-0.23101814,0.056361813,-0.16788879,0.35548905,0.13235648,0.02675411,0.24291772,0.4094465,0.02797902,-0.15286192,-0.0015083463,-0.004034438,0.28720334,0.06632456,-0.0870205,-0.24303958,-0.15527368,-0.2383061,0.2931312,-0.4871288,-0.31175646,0.3184631,0.1282648,-0.29340252,-0.6749274,0.32077396,0.16971035,0.0071807196,-0.066782326,0.042848717,0.6214966,0.38052243,-0.42695275,-0.60846376,0.20501581,-0.14396149,-0.016734263,-0.087008774,-0.039126445,0.068510436,0.061479453,0.10509427,0.4794718,-0.19571853,0.09424642,0.29100832,0.14082217,-0.2467938,-0.03444471,0.2986131,0.22496721,0.064172976,-0.38791206,0.24096863,0.0185432,0.5923961,0.033835646,-0.25461912,0.54224086,-0.15474911,0.34854496,-0.004259415,0.52825665,-0.2943876,-0.088146046,-0.078407586,-0.45879182,-0.19280344,-0.63090414,0.11322253,-0.21067502,0.094539605,-0.08050962,-0.08537814,0.25082856,0.24184394,0.1384974,0.20671646,0.067648344,-0.48295975,-0.33614707,0.46947774,0.049168244,0.2046016,0.13880889,0.17546168
trav,-0.032161787,-0.33181402,0.028649924,-0.24562746,0.09185489,-0.033604972,-0.25061923,0.37545866,0.32053256,-0.10755956,-0.18067065,-0.4182502,-0.46265817,0.43154263,-0.45720783,0.30887896,-0.2970339,0.17793038,0.09187235,0.0043968926,0.46008545,0.4358989,0.21445042,-0.026087178,-0.06552058,0.20297517,0.52051616,-0.42053884,-0.013943311,-0.15294571,-0.1384671,-0.26415873,0.28973472,-0.6465154,-0.105773434,0.22870223,0.102496974,-0.25071743,-0.61855483,-0.11073224,0.094191566,-0.037010238,-0.105220616,0.07132566,0.656162,0.37840533,-0.45019144,-0.5908372,0.30409855,0.05533498,-0.018060945,-0.19999285,-0.057665374,-0.049148716,0.10978668,0.15799393,0.14479826,-0.3197441,-0.19520757,0.09391164,0.033826705,-0.07490795,0.04510548,0.41571206,0.04597774,0.3913886,-0.5399388,0.25731367,0.07550732,0.5882008,0.30392918,0.033993144,0.44755435,-0.1340237,0.25045726,-0.4191088,0.7640038,-0.43118888,0.15254322,-0.10062145,-0.42841107,-0.33941507,-0.57785255,-0.26929387,-0.24046929,-0.00015540264,-0.08152118,-0.1931223,-0.0070515876,0.022521438,0.31989515,0.03639938,0.21567713,-0.016799621,-0.38267994,0.44683102,-0.38037735,0.070765585,-0.31625044,0.23055273
informaco,0.5464655,0.45457944,0.042339947,0.1664219,0.093094744,0.197803,0.427496,0.27852866,-0.12456417,-0.057360504,-0.13117488,0.13276412,0.9597323,0.3412064,0.31853205,-0.70220315,0.24471125,0.38221514,0.095516175,0.072857946,0.2746528,-0.44436216,-0.7659551,-0.2016887,-0.02713724,-0.30318624,-0.019026184,-0.40471148,0.17919533,0.001891241,0.20266895,-0.37590313,-0.30631202,-0.31729013,0.0042032306,0.13495699,-0.5471506,0.20867944,0.33038267,-0.501141,0.16919936,-0.26132563,0.40888947,0.692657,-0.22369835,-0.41751286,-0.19366756,-0.5337756,0.24359071,0.011444291,0.33198282,0.08805112,-0.3028943,-0.30158898,0.285319,0.24444574,0.35991734,0.09098738,-0.031107992,-0.37415695,-0.2502549,0.08178839,-0.08551458,0.13748303,-0.0022309432,0.6278142,0.17513934,-0.021388652,0.2191524,-0.46922532,0.45282045,-0.24845217,0.19220638,0.25497824,0.47513148,0.4054814,0.57314056,0.73296505,-0.08194931,0.38880625,-0.68674093,0.13366595,0.1790005,-0.26975992,0.4761929,0.3039776,0.46255454,-0.18598169,0.039255254,0.15731443,0.37325326,-0.05084485,0.15809718,0.19955663,0.1914698,-0.062339764,-0.1961869,0.21045059,0.057559863,-0.13431202
mesm,0.68285114,0.15627965,0.038361695,0.25438538,0.10737812,0.20765772,0.3340327,0.23446947,-0.1652986,-0.15945897,-0.091098346,0.06618851,0.8516801,0.45138618,0.35266963,-0.5236175,0.2232322,0.4946922,0.12389542,0.30174676,0.28652248,-0.45056385,-0.7261917,-0.32497382,0.10724472,-0.14981705,-0.14863099,-0.25272554,0.36855683,-0.017041331,0.20687945,-0.3195148,-0.22565243,-0.19633542,-0.063876875,-0.01512403,-0.4362305,0.18204884,0.29677227,-0.5607909,0.10880351,-0.29107195,0.48499396,0.83951616,-0.32563695,-0.32569143,-0.31273177,-0.5811145,0.35716075,-0.052285895,0.09803785,-0.12601815,-0.49002045,-0.30620608,0.19053094,0.42669567,0.23202512,0.1608342,0.18607606,-0.33234543,-0.16874617,0.34693027,0.11766122,0.21497487,-0.091815956,0.7101068,0.25631925,0.076565735,0.18932213,-0.4601518,0.47892377,-0.24401571,0.1972729,0.18652794,0.45635778,0.23886602,0.49249902,0.6988348,-0.27916193,0.2365985,-0.73824656,0.028544003,0.093224734,-0.106192715,0.53101367,0.30264738,0.40704805,-0.12763685,-0.099739626,-0.058590073,0.33683267,-0.09384253,0.08982609,0.5015493,0.06000593,-0.05191732,-0.047383334,0.21719064,0.023763003,-0.036549345
nov,0.6286039,0.36761665,0.083299235,0.32037857,-0.122390755,0.28676218,0.37262642,0.19624871,-0.12044045,-0.23170465,0.016919417,0.18324588,1.0071446,0.38449863,0.4984294,-0.57463884,0.32483575,0.33470947,0.06362061,0.18138105,0.22895502,-0.34046096,-0.76518226,-0.32397887,-0.04619728,-0.07132218,-0.061418343,-0.5001492,0.34686297,0.11741813,0.20368654,-0.48700523,-0.18643616,-0.19263402,-0.13130163,0.11269156,-0.6405627,0.15361615,0.25109315,-0.57073283,0.23313954,-0.015723366,0.403536,0.88569826,-0.3302915,-0.4152593,-0.26737863,-0.64296156,0.27906704,0.035802852,0.10570623,-0.099078946,-0.5303558,-0.29021022,0.26816437,0.43866453,0.36645988,0.1717239,0.24129526,-0.45382524,-0.35318518,0.15309721,0.10484318,0.12941703,-0.1214891,0.9078005,0.051720757,-0.123417184,0.13056101,-0.5596113,0.46996728,-0.08652501,0.18559332,0.16672982,0.3829605,0.4320214,0.7060621,0.7598049,-0.20425345,0.21993212,-0.9041484,0.014384314,0.20660873,-0.17779852,0.540279,0.2880418,0.49595058,-0.29782078,-0.09388064,0.040302224,0.23258957,-0.023574322,-0.11134394,0.5254045,0.040096816,-0.16053393,-0.22075394,0.29086137,0.12222405,0.042576835
ped,0.62083083,0.23369938,-0.0016589334,0.3570332,0.015078912,0.35479432,0.29623842,0.17692906,0.032394797,-0.06517543,-0.04265061,0.21321122,1.0151255,0.39830315,0.2867193,-0.6405492,0.25956723,0.41359597,-0.030602617,0.10831839,0.2955078,-0.36085537,-0.7749007,-0.119527556,-0.014126176,-0.25150576,-0.027476635,-0.35886928,0.112304956,0.09141437,0.20250466,-0.39257517,-0.23478986,-0.28863984,-0.1163176,0.05955625,-0.5008859,0.27557632,0.33417624,-0.4623995,0.20047523,-0.21711595,0.29294336,0.7913612,-0.25496182,-0.5471706,-0.22663265,-0.5965591,0.3525592,0.040049344,0.28112847,-0.12482263,-0.42964026,-0.33019817,0.16815802,0.41037244,0.29506606,0.14113231,-0.053513512,-0.44491938,-0.19813201,0.21251483,0.15968342,0.04964002,-0.21278632,0.795462,0.14764608,-0.10628041,0.24261981,-0.5528806,0.5555468,-0.19517177,0.0779897,0.19088413,0.4721326,0.41497728,0.60190076,0.8320261,-0.18303187,0.3604118,-0.78124696,0.075051576,0.062441435,-0.20728497,0.32531404,0.31889278,0.51724076,-0.15425217,-0.0860049,0.1820187,0.19853254,-0.006082897,0.10588899,0.43153378,0.2748476,-0.23183353,-0.16489828,0.20591764,-0.12883528,-0.08452977
suport,0.62540406,0.3134772,0.19420928,0.30529988,-0.10974211,0.3379615,0.2711644,0.14011416,-0.11769256,0.051258333,-0.04690117,0.19892286,0.97138447,0.37955105,0.21726388,-0.6253073,0.3422142,0.3158492,0.12103134,0.19661264,0.26201975,-0.45474494,-0.68941027,-0.25120577,0.06665575,-0.07944852,-0.110645026,-0.26663068,0.33325994,0.035526328,0.18151419,-0.3947938,-0.15370905,-0.29825714,-0.038402587,-0.05522581,-0.5384055,0.0550932,0.21035437,-0.5436031,0.021340601,-0.17679143,0.4275978,0.7047942,-0.32951736,-0.4082428,-0.20283966,-0.5768974,0.12761132,-0.088103294,0.22524637,0.08464954,-0.5041342,-0.2412331,0.22642967,0.15305673,0.23488559,0.10203229,0.05684045,-0.4739345,-0.30618054,0.18199682,-0.102552034,0.23216867,-0.102640316,0.7387405,0.23144741,0.07274557,0.10040726,-0.36738732,0.49034128,-0.045872293,0.17703538,0.15038154,0.4632074,0.26990107,0.59046066,0.6781876,-0.11746103,0.4280236,-0.7791738,-0.06299882,0.23278981,-0.19185814,0.39375636,0.28011304,0.39036676,-0.2620077,-0.088866256,0.15698887,0.38224044,-0.11477404,0.07652677,0.2526984,0.074040234,-0.059720013,-0.19637738,0.39089718,0.008419807,-0.029321501
enquant,-0.26152074,0.21151523,-0.21927826,-0.27115571,0.16988741,-0.2769039,-0.14338468,0.39750108,0.08503583,-0.4212679,-0.30974275,-0.13577755,0.047159802,0.380172,0.30654594,0.16629432,0.2826581,0.48712522,0.24836211,0.14957714,0.27969262,0.15141013,0.1779393,-0.08888617,0.4802267,0.2806341,0.06922564,0.08330766,0.023332892,0.12920979,0.18588907,-0.17562805,-0.11499223,-0.75166684,0.022377374,0.272791,-0.049346186,0.105456844,-0.33922502,0.3801277,0.11402059,0.12837622,-0.22956148,-0.41130993,0.056252133,-0.17238913,0.15993664,-0.32203194,-0.06114395,-0.2203632,0.553589,-0.13568513,-0.60003567,0.09589102,0.0053856643,0.28174302,0.20462511,-0.21316065,0.09320834,-0.17614563,-0.44964856,-0.2647967,0.37307045,0.5154866,0.07128787,0.3870661,-0.16918829,-0.32029837,-0.2380303,0.5205566,0.21988542,-0.04745056,0.0976377,0.12924877,-0.018570822,0.032024883,0.10191591,-0.1696867,-0.16332884,0.20978549,-0.5857906,-0.013426483,0.30524775,-0.2809907,0.025307545,0.013997205,0.13845731,-0.115182206,0.103441976,-0.10707086,0.043132868,-0.08819325,0.0969772,-0.40031585,-0.12899409,-0.03923834,0.10586201,-0.029042527,-0.20331514,0.337372
receb,-0.28330767,0.06410719,-0.2638214,-0.5830702,0.030339876,-0.124403864,-0.25687155,0.25452763,0.15316832,-0.21242699,-0.38471076,-0.02365154,-0.14105578,0.35846654,0.24074158,0.10643399,0.4238412,0.43885696,0.20150709,0.12818405,0.24695364,0.077269405,0.23619828,-0.26405978,0.27843267,0.2992293,0.21807013,0.037647106,-0.031972285,0.13344625,0.34265915,-0.23988846,-0.19086452,-0.6883057,-0.09174423,0.0058539542,-0.09849321,0.2532245,-0.3243755,0.40737697,0.122815005,0.3398364,-0.064052954,-0.46990782,0.09269197,-0.30085593,0.18413386,-0.33756104,-0.016041046,-0.056183316,0.40203756,-0.12986358,-0.39288703,0.14849849,-0.16980138,0.26059067,0.31858885,-0.02442904,0.119148195,-0.22254175,-0.26747695,-0.3147988,0.30990472,0.54379886,-0.05754186,0.41621673,-0.087582186,-0.35321832,-0.10443582,0.63787186,0.26777554,0.0343216,0.06613906,0.099045254,0.17091878,0.001256627,0.27099425,-0.0716969,-0.23494147,0.12097259,-0.54062533,-0.105611674,0.016456764,-0.083501704,0.04082923,-0.1147326,-0.03308176,-0.0774153,-0.14199384,-0.08109876,-0.047752783,-0.0912989,0.18160662,-0.6039674,-0.18793213,0.17601548,0.29004627,-0.015881207,-0.25096604,0.37843877
conclu,0.2066657,0.21065871,-0.36078623,0.270087,-0.064733125,0.14345121,0.59014934,0.069615565,-0.15006591,0.32060096,-0.28866333,0.3147132,0.41776928,0.36452124,-0.827823,0.111212984,0.8430385,-0.06908014,-0.38407013,-0.36279276,-0.009131493,0.07400149,0.039354723,0.19378348,-0.32748756,-0.5455276,-0.4508021,0.052539863,0.013659146,0.21455283,0.7913146,0.17421044,-0.10224986,-0.288238,-0.17164962,-0.049016494,0.2531458,0.011127794,0.23860197,-0.05435548,-0.34622878,-0.18586957,0.16297066,-0.4316068,0.14722356,-0.15190434,-0.012980172,-0.40490577,0.4152533,-0.022445094,0.04711303,0.0098136,-0.37147364,-0.15829189,0.18796878,0.119617924,0.17111123,0.072260685,-0.3559285,0.17476876,0.21128608,-0.62266123,0.14729013,0.17660148,-0.30465063,-0.09195415,-0.23530923,-0.512665,-0.13787137,0.2616536,-0.042263627,-0.57302624,0.18159413,-0.10849701,-0.18935537,-0.63974243,-0.1607235,0.3471165,-0.08782149,0.2788904,0.2868889,0.051970012,-0.08763536,0.41854432,0.04802354,-0.3362985,-0.18163894,0.44136167,0.19841388,0.08088709,0.087430775,-0.2169158,0.11156219,-0.56939423,-0.10702605,-0.7301217,0.16952792,0.0562798,0.0011321403,0.11756796
etap,0.32161403,0.28204012,-0.37858292,0.27355084,0.039253294,0.19261757,0.41317916,0.09950768,0.0037203257,0.42324975,-0.4076608,0.37240082,0.44409463,0.32488307,-0.8840637,0.23523396,0.9630965,-0.024971465,-0.3664863,-0.3925572,0.048877846,0.1729783,0.04554841,-0.07200628,-0.21549055,-0.34312144,-0.59275097,0.08608009,-0.0067914496,0.39851573,0.7751934,0.02906746,-0.21588057,-0.48395157,-0.2581532,0.17690863,0.22208506,0.024180258,0.113208845,-0.26115206,-0.31261644,-0.1842824,0.14214775,-0.5255954,0.040022578,-0.22244066,-0.12326405,-0.5361571,0.31698,-0.113783136,-0.041210305,-0.1139768,-0.5318918,-0.14192042,0.12459133,0.057484087,-0.020015376,-0.13655259,-0.49049303,0.08919624,0.1807663,-0.66408837,0.19429025,0.22855312,-0.15447037,-0.028608715,-0.12251616,-0.606859,-0.2117537,0.17722456,-0.13035545,-0.6012166,0.003307891,-0.15644267,-0.21943754,-0.700379,-0.31330034,0.22252725,-0.14433725,0.26438174,0.3571688,0.15759309,0.013465042,0.31915796,-0.091519706,-0.31956297,-0.24854922,0.4770001,-0.049067784,-0.07085631,-0.0053856396,-0.16992053,0.2518254,-0.6772692,-0.30440933,-0.810215,-0.06585036,0.28076538,-0.08634215,0.31072375
algum,0.08972306,0.13724147,-0.5645493,0.40555143,0.22666322,0.35864162,0.67918396,0.026617672,-0.13529356,0.52209646,-0.4476728,0.36812449,0.44774517,0.3322985,-0.9969126,0.18577513,0.9388623,-0.09851776,-0.22594899,-0.34825507,0.20637003,0.03878525,0.12907222,-0.049303133,-0.21016453,-0.60957295,-0.47719765,0.17760742,-0.05920952,0.34981218,0.77251256,0.09855173,-0.12075837,-0.30113333,-0.3133089,0.14440106,0.057544693,0.1692723,0.23290314,-0.106145605,-0.23890497,-0.16961321,-0.019617176,-0.5022583,0.037041504,-0.24304095,0.067174874,-0.56147784,0.51926345,0.0024388083,0.081388764,-0.04225296,-0.5170769,-0.05638346,0.10134561,0.20991902,0.13597217,-0.1286907,-0.5279979,-0.09857713,0.06989976,-0.66006076,0.15028131,0.07784264,-0.4294827,-0.008179796,-0.1382453,-0.6011713,-0.20578988,0.25814483,0.021354502,-0.5776027,0.11694673,-0.17115186,-0.2642992,-0.95317125,-0.084901586,0.22553636,-0.18258035,0.3518237,0.21680962,0.12902324,0.019016983,0.31317672,0.04857171,-0.46465534,-0.35846424,0.47190925,0.006670455,-0.113770045,0.032711167,-0.21794763,0.20599085,-0.6343283,-0.24598397,-0.804685,0.06916705,0.24787264,-0.023788651,0.31495896
repet,0.23562202,0.24210471,-0.43061277,0.27766433,0.12086795,0.27686244,0.58440095,-0.2180387,0.010495168,0.50369924,-0.21091756,0.2599788,0.44467896,0.3774787,-0.96385276,0.11829403,1.0613371,-0.04268838,-0.40862647,-0.22123899,-0.0296232,0.23019286,0.115748964,0.03933792,-0.18453303,-0.44045836,-0.5116341,0.058645956,0.019998293,0.28207213,0.8879155,0.043235563,-0.1945294,-0.32381144,-0.26479185,-0.09770661,0.11509296,0.13313735,0.3126113,-0.23278344,-0.37981927,-0.20562533,0.020247383,-0.5576148,-0.076467,-0.1379596,-0.13506319,-0.49688765,0.3844483,-0.052528564,-0.068346664,-0.15663138,-0.43214977,-0.131958,0.14510892,0.19570155,0.18290636,-0.049708128,-0.41012993,0.18447618,0.062520936,-0.7700116,0.2296551,0.19085099,-0.36725855,-0.056827433,-0.3920119,-0.6153477,-0.21990444,0.30087373,-0.017945757,-0.49182424,0.14946277,-0.17911777,-0.3554101,-0.78708935,-0.25627023,0.22709526,-0.21300054,0.1379749,0.14450665,0.049400244,0.009359989,0.4130105,0.07341184,-0.4725556,-0.23988982,0.3833859,0.13845512,-0.045594946,0.10803554,-0.22499079,0.1678487,-0.7314006,-0.310871,-0.71913886,0.19353995,0.14686856,-0.14904182,0.18629467
precis,0.23714377,0.2140046,-0.46500215,0.26458865,-0.087987594,0.26299423,0.5068504,0.061279673,-0.02133334,0.4745824,-0.4167418,0.36353683,0.43084127,0.4682398,-0.9587849,0.25701216,0.9331084,-0.032006335,-0.2078521,-0.3473138,0.17415883,0.05064654,0.13803627,0.093286544,-0.19691047,-0.56201863,-0.4305954,0.08101294,0.023661917,0.31269714,0.83565074,0.09954633,-0.02079414,-0.4570435,-0.26896897,0.087319784,0.19747429,0.023673803,0.09478324,-0.08477737,-0.38360798,-0.024087923,0.1099604,-0.5656871,0.16126828,-0.14027959,-0.022003863,-0.5451407,0.35411516,-0.0016000721,-0.020252936,0.035464168,-0.48352253,-0.05034406,0.27298132,0.06706928,0.13277534,-0.028383724,-0.4167628,0.15860619,0.1040582,-0.76523364,0.06513482,0.19240649,-0.29378155,-0.13239379,-0.23115212,-0.65571696,-0.032026414,0.3353895,0.017784065,-0.6641661,0.17811671,-0.064231396,-0.16891451,-0.740403,-0.100449264,0.21187153,-0.15447415,0.3138293,0.2702948,0.022464573,-0.016038755,0.28006414,-0.032037422,-0.33520606,-0.23094475,0.31840828,0.05054715,0.025259199,-0.04024414,-0.14924002,0.09208802,-0.7454002,-0.2711327,-0.7431482,-0.024739938,0.12902135,0.10991691,0.34396008
carreg,0.083268024,-0.05868142,-0.028860232,0.030766388,0.17493777,-0.11464521,0.0014058804,0.14330097,-0.20375898,-0.13154748,-0.107216,0.09266805,0.19278063,0.2426647,0.21269219,-0.25964674,0.19364157,-0.1790357,-0.111612186,-0.1301267,0.050406948,-0.12956375,0.13556282,-0.029519605,0.12012717,0.08154861,-0.13279808,0.29940385,-0.08721598,0.12452584,0.14190796,0.032704603,-0.21705264,-0.23298836,0.087765895,-0.13485791,-0.028171647,0.014451646,0.081354275,0.060641598,-0.11150901,0.008952264,0.03289672,0.04023621,-0.09847727,-0.15265983,-0.14177305,0.10112475,0.02343057,0.03171762,0.108217135,-0.14880975,-0.2369382,-0.06673222,0.01665441,0.039464742,0.060829807,0.21451177,-0.012251249,-0.047515143,-0.05835295,-0.15187305,0.15463486,0.17867334,-0.06227764,0.2750744,-0.012270179,0.08265719,-0.1965534,0.04479416,0.013026423,0.2215,0.0680676,-0.008503908,0.0042711603,-0.29401335,-0.0064207893,0.25465915,0.028633984,0.037285008,-0.41042575,0.05896658,-0.2246786,0.21380454,-0.08242754,-0.0619139,0.27876472,0.15596837,0.060007416,-0.040684912,0.15242805,0.019539457,0.063690126,0.010484345,0.19492766,-0.015405154,0.093181066,-0.14517938,-0.12125956,-0.108882114
simpl,0.2736059,-0.24881463,0.08974952,0.13293432,-0.1275417,-0.04482573,0.13553654,0.36312327,0.42399576,0.050339367,-0.07790137,0.059429117,0.3584526,-0.2171521,0.085686885,-0.32322028,0.100800626,-0.35489646,0.13224706,-0.25972423,0.44501477,-0.36205178,0.19456607,-0.16381177,-0.01560839,-0.11895824,-0.24087499,0.082079336,-0.41958815,0.04502653,0.22974692,-0.049937647,0.40163478,-0.5970274,0.022793999,-0.25895947,-0.21597004,-0.109428994,-0.10062828,0.13734633,-0.027488397,-0.24975406,0.18406302,-0.0031626257,0.21820138,-0.1991352,0.1609025,-0.03358487,-0.03318881,0.06530845,0.04440438,-0.09576311,-0.10492444,-0.029848272,-0.021339267,-0.13352184,0.14682443,0.10842332,-0.18541707,0.28654706,0.2768911,-0.115638696,0.106392756,0.077510215,-0.018373804,0.0921241,0.0249455,0.34251642,-0.11713075,-0.23971789,0.10749744,-0.022450924,0.21991675,-0.058468156,0.42876956,0.008576347,0.082580596,0.1285137,0.046809584,0.12806413,-0.029766195,-0.058206875,-0.3680538,0.09516933,-0.4063721,-0.09549875,0.123291805,-0.109137185,0.0042226105,-0.13988917,0.026258882,0.07080599,0.15364297,-0.019905832,0.4328771,0.0664516,-0.24918613,0.12108234,-0.18201302,-0.41038114
fic,0.18887535,-0.34696507,0.25769824,0.17824358,-0.18866012,-0.16726202,-0.17912902,0.091349915,0.51567024,0.06679202,0.07671936,0.1779534,0.67637086,-0.076762274,0.062407583,-0.3954853,0.22930422,-0.3944064,-0.011379331,-0.08532917,0.27869484,-0.068843,0.38593173,-0.40844533,0.3722374,-0.07430338,-0.40861118,0.1826537,-0.2421385,0.39841792,0.10614002,0.07315958,0.32432723,-0.496969,-0.08126308,0.16218935,-0.39915317,-0.38121143,0.071767256,-0.26434508,-0.05876928,-0.311026,0.25698018,0.007861719,0.3243805,-0.072197154,-0.087060586,0.055477303,-0.17649323,-0.22791316,0.33562106,0.13262777,0.08785855,-0.12435541,-0.14952895,-0.08906992,-0.1688368,0.2822758,-0.0020421217,0.22932668,0.29611683,-0.099764645,0.018751575,-0.07389173,0.2778871,-0.043488435,-0.031774774,0.15470435,-0.061991934,-0.03404228,-0.02601634,0.25305513,0.096233375,0.081419714,0.5518204,-0.055405337,0.020047596,-0.047421318,0.15467332,0.42121947,0.007921088,-0.031123348,-0.3684783,-0.030178716,-0.37736523,-0.08252314,0.03172094,-0.28934452,0.0776885,0.363795,0.46791998,0.058779567,-0.09808849,-0.34264654,0.48248595,-0.3258012,-0.4507004,0.27706274,-0.19972236,-0.6189412
atualizaca,0.23636873,-0.28465432,0.030238194,0.123411275,-0.110086575,0.012959077,-0.0960054,0.12479736,0.4281182,0.13917178,0.0391795,0.23880664,0.28119966,-0.17070132,-0.0068511525,-0.21923299,0.21814145,-0.44156262,0.09107365,-0.29259214,0.24512649,-0.12827538,0.4373416,-0.22268501,0.19876067,-0.12683085,-0.29839033,0.30405927,-0.36323363,0.27885956,0.2136487,-0.07362145,0.42985186,-0.52065647,0.021844521,-0.22116345,-0.2851459,-0.28021953,0.07467527,-0.017696794,-0.14289603,-0.25412598,0.041918565,-0.09080486,0.25976536,-0.09665748,0.020095097,0.013216616,-0.043571673,0.042502414,0.003078067,-0.14243296,-0.053621653,-0.0010710728,0.14292838,-0.20996378,0.0411493,0.22182351,-0.23663057,0.3811644,0.12764739,-0.17080913,0.046478406,0.08331477,0.044289682,0.038283203,0.0388612,0.26419392,-0.18589197,-0.047946326,0.063958615,0.07117206,0.3050201,-0.11821434,0.26296863,-0.16209857,0.03518253,-0.0045745317,0.051550668,0.080586925,0.056438018,-0.117207944,-0.395054,0.20947458,-0.32326344,-0.089926586,0.09269699,-0.10634627,0.025464866,0.09736827,0.12340813,0.13912709,0.10273897,-0.23499706,0.3333244,-0.07716147,-0.08558271,0.21455468,0.020400187,-0.4626883
consult,0.35168523,-0.3046815,0.085616946,-0.22065537,-0.07175074,-0.3472196,-0.18550815,0.6853683,0.019359484,-0.5185508,-0.4479092,0.441969,-0.32294104,0.6071935,0.3216237,0.17062975,-0.24928045,-0.24874197,0.58921087,0.64009625,0.18214187,0.4014857,0.48050395,-0.06134161,0.4869222,-0.04652859,0.2835711,0.16229966,-0.301423,0.43889245,0.23104754,-0.55883896,0.098619804,-0.65996397,-0.06758775,0.23307827,-0.5286374,0.02136026,-0.39664438,0.2386903,-0.63547754,0.38126114,-0.3853895,0.093305364,0.3594312,0.42618814,-0.0630891,-0.035706617,-0.3621926,-0.22818838,0.34257105,-0.038974933,-0.7715528,-0.574086,0.4623112,0.29265875,-0.28150493,-0.13819586,0.04886241,-0.3012312,-0.77849054,-0.30040035,0.036318514,0.56511253,-0.025840154,0.64766014,-0.10660551,-0.3044377,0.09441654,0.38941517,0.3090399,0.20495981,-0.023707325,-0.22483642,0.4076081,-0.37998846,0.37430567,-0.8612723,0.08957871,0.13976038,-0.35006592,-0.5202603,-0.088412315,-0.30632034,0.16195063,0.03738028,0.10324989,-0.584964,0.42742446,0.2972483,0.076744184,-0.21358049,0.306443,-0.39414456,-0.49751836,0.193509,-0.2102231,0.27478006,0.1566909,-0.20994176
cadastr,-0.12957174,-0.27522653,0.042728025,-0.4161251,-0.033192623,-0.23852488,-0.27024305,0.39648217,0.47038147,-0.11983993,-0.2544693,-0.2800193,0.19773015,0.055134386,0.13937289,0.08072801,0.1260791,0.3973043,-0.05054072,0.13889316,0.3396332,0.33059192,0.07105213,-0.256675,0.2570644,0.18404636,0.11705807,-0.36492673,-0.36266273,0.11027167,-0.14896803,-0.06828812,0.12251559,-0.73025495,-0.48368934,0.16164772,-0.3465981,-0.40211293,-0.17989871,0.2451313,0.54180837,-0.06666958,0.15970905,-0.23845653,0.5580632,0.17267342,0.24733566,-0.6135181,-0.04938028,-0.06331058,0.056049347,-0.441878,-0.064535215,0.04263573,-0.14783879,-0.020361677,0.18708089,0.2230499,0.1019069,-0.25126445,0.25622842,-0.002057629,0.082990885,0.22149283,0.039571445,0.5739335,-0.36256275,-0.15147254,-0.06584242,0.3148047,0.035420448,0.022608215,0.41636127,-0.20285724,0.4135623,0.34872055,-0.10067843,-0.0646637,-0.3151482,0.62080073,-0.041309442,0.06275836,-0.469409,-0.010550034,0.0007428997,0.020857336,0.14140373,-0.013396928,-0.2717199,-0.33938313,0.01469611,0.039051138,0.2661739,-0.4727663,0.08656442,0.26923776,-0.0816649,0.1074109,-0.5564957,0.10317042
limit,0.2591851,-0.08226977,0.017719286,-0.14471038,-0.11297306,-0.3574217,-0.22378562,0.47520864,-0.012909212,-0.36002687,-0.21430764,0.28836843,-0.23994155,0.4731306,0.3407539,0.17962904,-0.2888263,-0.1264799,0.3332956,0.44226435,0.26654735,0.33884558,0.35250822,0.03463454,0.12919888,-0.07804741,0.18240732,0.26833865,-0.2346671,0.17469247,0.13894437,-0.33838227,0.1747273,-0.46387038,0.10539405,0.13140492,-0.12136813,0.06628014,-0.4710708,0.33364105,-0.46735758,0.33520767,-0.23114292,0.047138058,0.30890697,0.48022982,-0.14870162,0.10590161,-0.038206503,-0.18968223,0.21780594,-0.07169292,-0.5789167,-0.60033375,0.45533785,0.14631943,-0.12790361,-0.02229533,0.04605948,-0.21745239,-0.47751072,-0.08991157,-0.0032708652,0.32527894,-0.02956606,0.42785537,0.05082286,-0.06198704,0.069471374,0.37800217,0.094572686,-0.012262879,0.046689447,-0.1592379,0.25207537,-0.17494072,0.32153285,-0.64632463,0.10082311,0.107091144,-0.40065116,-0.30673453,-0.28058273,-0.01618923,-0.01744672,-0.09134309,0.050070543,-0.23838997,0.40601423,0.29217318,0.18022479,-0.046979837,0.25874043,-0.23807195,-0.37831023,0.11240148,0.03991218,0.31591284,-0.054352716,-0.23374353
pagament,-0.017046722,0.10661654,-0.34213042,-0.24196786,-0.1316178,-0.07713115,-0.012557678,0.44325855,0.42901438,-0.054918516,0.025749533,-0.54264516,0.015379685,0.14052689,-0.06955908,0.55660266,-0.009507082,0.43794474,0.28673762,-0.31392893,0.11283194,-0.40646362,-0.27425215,-0.28036898,-0.20887667,-0.0024491793,-0.06719757,-0.053016514,0.05761051,-0.3988948,-0.2592415,-0.02363311,0.65108484,-0.69351894,-0.09124794,-0.0014859113,0.3235713,0.22293879,-0.63387966,0.46505657,-0.118020535,0.4200348,-0.14332467,-0.19818379,0.47120255,-0.41267624,0.20504382,-0.016940422,0.14074948,0.14035913,0.24986854,0.086513095,-0.31399378,-0.01873684,0.35884246,-0.18451974,0.427132,-0.07175781,0.61394614,0.077883415,-0.40909526,-0.26639014,0.065142915,0.33818865,-0.19304197,0.028533729,0.089302026,0.35805193,0.12055927,0.1771412,0.44598612,-0.29370788,0.39661482,0.45553783,0.36380854,-0.19469237,0.4811346,-0.49007657,0.054054264,0.23578623,-0.76749825,0.049553115,-0.031715862,-0.024903277,-0.004029592,-0.19065386,-0.09205962,0.0762809,0.37147486,0.35261232,-0.012323735,0.2681012,0.27954248,0.06679471,0.48395723,0.41740593,0.09189746,0.5157327,-0.20199299,0.25709188
atualiz,-0.18392655,-0.4267984,0.10592672,-0.4925454,-0.012121784,-0.13957249,-0.10960164,0.2516968,0.5046539,-0.23743066,-0.30442595,-0.23209713,0.082231805,0.10696217,-0.0050911293,0.08895571,0.29477188,0.5304269,0.14868738,0.1793198,0.2205122,0.3518548,0.15977956,-0.39525425,0.4991555,0.3364747,0.07955646,-0.32226783,-0.348404,0.22764103,-0.07487127,-0.06720605,0.04216489,-0.8405753,-0.6650998,0.120364666,-0.5138526,-0.40288618,-0.14731693,0.22935012,0.5932186,-0.10012407,0.05331236,-0.22279759,0.52334595,-0.11466274,0.39149243,-0.8524584,-0.063719444,-0.034727734,0.18115455,-0.4103266,-0.09427784,0.19474217,-0.34481043,0.11603907,0.1703832,0.17979628,0.047402464,-0.41831878,0.14690904,-0.06640978,0.21211323,0.35704833,-0.09872124,0.749557,-0.49205056,-0.3271472,-0.07017309,0.35133433,0.10689753,0.15621887,0.47956884,-0.21715152,0.3982816,0.2933769,-0.20856716,0.086252846,-0.44013056,0.7052691,-0.080415115,-0.04504753,-0.2996423,-0.12252947,0.2442517,0.06334628,0.275661,-0.10665331,-0.46226668,-0.5009555,-0.033268467,0.00812568,0.19051437,-0.556777,0.1308538,0.28052345,-0.028475123,0.07302274,-0.6568568,0.2679152
transferenc,-0.776416,-0.1131347,-0.18243921,0.31088,-0.34753075,0.21796747,-0.43096077,-0.166614,-0.41503158,-0.4514476,0.00040786873,-0.9670534,-0.58548635,0.51965857,-0.015944587,-0.5535565,-0.0059477245,0.13921134,0.54065055,0.30477715,1.1038028,-0.017329728,0.7562286,-0.17626707,0.17403036,0.42488235,-0.28942674,-0.5546299,0.8447255,0.16077495,0.021347912,0.093528345,0.47430235,-0.25209805,0.337614,0.33715445,-0.12961428,0.58765477,-0.17168747,-0.28802064,0.38745803,-0.049237363,0.28210852,-0.113870904,-0.1818041,-0.05362873,0.25026152,-1.0742365,0.4885426,-0.12642965,0.30220303,0.063279144,0.48433882,0.20194949,0.122479215,0.059395134,0.022675963,0.07692249,-0.2299845,-0.053216536,-0.2640989,0.013499993,0.21156068,0.48615715,-0.25668657,0.148845,0.06219164,0.421853,-0.47905627,1.1693048,0.18542264,-0.21536428,0.5349222,0.19261809,-0.20850734,0.30529654,0.35144976,0.52021384,0.14762582,0.02017673,-0.95265174,-0.65391684,0.41771844,-0.21275882,0.009430708,-0.2220188,0.58020186,-0.3792489,0.19709505,0.19949791,0.09501367,-0.47295037,-0.5330523,-0.014992281,-0.30081287,0.7602085,-0.33298597,-0.078785755,-0.41122994,0.9245149
faz,-0.613142,0.16283382,-0.29704458,-0.07857521,-0.41898608,0.097036004,-0.55940044,-0.23718275,-0.58723646,-0.35203984,0.07290725,-0.936671,-0.5818666,0.44824558,0.13086805,-0.5405736,0.23799519,-0.14359325,0.48084196,0.47761405,0.9650432,0.2432094,0.81802255,-0.17790781,-0.040946733,0.53686774,-0.5133453,-0.49310628,0.760087,-0.0983342,-0.17339003,-0.116833165,0.4475684,-0.13164109,0.2156071,0.39947274,-0.22619702,0.4900759,-0.4086638,-0.20600918,0.05872162,0.041701958,0.24650338,0.10215947,-0.20471771,-0.010409016,0.37596256,-1.0467987,0.15994993,-0.124989755,0.12734,0.22391912,0.4371833,0.3890769,0.4224115,-0.18687455,0.10729841,-0.13571914,-0.17444494,-0.2119201,-0.1780856,-0.046126477,-0.090574,0.6019798,-0.13362557,0.2336208,-0.042181484,0.2311137,-0.3796654,1.168229,0.12171852,-0.22892433,0.6290841,0.12065129,-0.08865056,0.3588605,0.22767329,0.39785287,-0.05550569,-0.21265574,-0.9652481,-0.5319808,0.15976864,-0.12344776,0.0911281,-0.019841606,0.3391699,-0.25230935,0.091612406,0.20614746,0.09778426,-0.3553115,-0.38274562,-0.31294775,-0.1703186,0.64384955,-0.45080835,0.3094801,-0.27864727,0.59735256
baix,-0.2678907,-0.11630559,-0.05946095,-0.18890275,0.14099547,-0.32965183,-0.09764938,0.15140498,0.13170657,-0.26855668,-0.123858005,0.064127564,-0.16488269,0.3308604,0.0056335325,-0.1600241,0.18249172,-0.1035183,0.1373304,0.0835688,0.36852425,0.034661647,0.44240037,-0.15531257,0.37264812,0.24118914,0.07209751,0.3291268,-0.08388438,0.0048223515,0.08946575,0.0136949625,-0.2280848,-0.40191314,0.0127159925,0.014542566,0.09221771,-0.0071477047,-0.11318356,0.23177265,0.012049676,0.20968994,-0.1464312,-0.37919095,0.012746889,-0.11224531,-0.15210259,-0.10708226,0.07979985,0.026267044,0.23995806,-0.026365558,-0.26958796,0.14544697,0.08987842,0.15121186,0.20885272,0.006614878,-0.016656077,-0.032105494,-0.23000012,-0.16575769,0.1163867,0.13861534,0.053953025,0.25933656,-0.309534,-0.02973496,-0.04330663,0.3686049,0.10987535,0.25092182,0.16292606,0.027124316,0.018765174,-0.4108512,0.025811136,0.0979744,0.014163979,0.01896292,-0.53908664,0.18025856,-0.080779456,0.09291922,-0.09528611,-0.08616077,0.3124053,0.025365314,-0.20854113,-0.22130655,0.15024297,0.017261822,0.096481815,-0.28443927,0.07739715,0.17394802,-0.123282455,-0.24991632,-0.39498657,0.17046364
bolet,-0.62007785,0.30603135,-0.29286057,-0.96436185,0.73247844,-0.79052055,-0.14414869,0.24193074,0.52047306,-0.29920986,0.049428303,-0.116347924,0.109555386,-0.023848841,0.04120825,-0.035902288,0.37588048,0.3549107,-0.3828217,-0.44123495,-0.06435254,0.092956856,0.08413397,-0.97632605,0.78393555,-0.07048235,0.7706336,-0.0070095947,-0.383758,-0.5633639,0.3279449,0.042712484,-0.1705982,-0.62894714,0.034749515,0.32439595,-0.15227433,-0.045777075,-0.19809583,-0.26265997,0.44311976,-0.10322911,0.027467344,-0.9746267,-0.1350548,-0.4406589,-0.3055006,0.036614683,-0.04431305,0.3403357,0.48972416,0.13129732,-0.2109566,0.6610175,-0.83817744,0.20697951,0.97234863,-0.4500557,-0.2835447,0.7280175,0.67188704,-0.14386639,0.41999924,0.03209556,0.2096639,-0.049310014,-0.9725276,-0.41082114,-0.5602606,0.8153584,0.14492257,0.1934514,-0.0074974415,0.47548792,0.4648392,-0.5359003,0.36313805,-0.47264978,-0.33360633,-0.6757237,0.0432251,0.77078474,-0.82234955,-0.1639327,-0.55083466,-0.041818805,-0.43786573,0.16963269,-0.46783018,-0.11397489,0.46310356,0.013122955,0.18254942,-0.27837345,-0.5221247,-0.02843172,-0.07363206,-0.806534,-0.025020573,-0.6072182
emit,-0.36232018,0.036462538,-0.48263398,-1.0194752,0.74219173,-0.7036867,0.024097329,0.18727556,0.67423856,-0.017256312,0.13239703,0.17973179,-0.15260065,-0.31344926,-0.21984406,0.14618754,0.5891693,0.43130034,-0.30595958,-0.29563,0.004566105,-0.15771265,0.3435002,-1.0807785,0.61523604,-0.036603138,0.7209633,-0.15651384,-0.2370973,-0.47847334,0.6107913,-0.14044017,-0.11994409,-0.5759277,0.2366509,0.08408641,-0.22605985,-0.18805197,-0.038394414,-0.22547817,0.5902205,-0.12183455,0.1248419,-0.9879032,-0.024090031,-0.38832614,-0.50068676,0.07773516,-0.033418626,0.42660436,0.38580468,0.13276494,-0.2232077,0.85354257,-0.9177459,0.4438427,0.9862567,-0.37898985,-0.15769115,0.63722146,0.6311434,-0.26320133,0.4630306,0.12666994,0.3246965,0.3520203,-0.97990865,-0.4207718,-0.5611983,0.59255356,-0.11984545,0.25893027,-0.09247337,0.31307903,0.5159381,-0.65484643,0.35901344,-0.39910126,-0.3240653,-0.6239338,-0.262313,0.81926644,-0.7653756,-0.039066005,-0.63577276,-0.14979097,-0.2579688,-0.07730086,-0.63014096,-0.5429696,0.13308157,-0.08442678,0.051682644,-0.2535957,-0.40447745,-0.28311974,-0.16396254,-0.73520434,-0.42081717,-0.43226957
acompanh,-0.050386,-0.14891773,-0.31684038,-0.2810114,-0.07140976,-0.024003495,-0.01087592,0.3758226,0.6501512,-0.14641944,0.07288461,-0.57126176,-0.011425456,0.32518867,-0.40631205,0.7439513,0.10013865,0.5809393,0.4133781,-0.44288886,-0.06563445,-0.3159897,-0.33543938,-0.36774716,-0.08117664,-0.078250326,-0.059028156,-0.023597721,0.19203332,-0.39924148,-0.22722626,-0.011771727,0.6656732,-0.7660999,-0.25803152,-0.10240506,0.31278875,0.0053115305,-0.5873539,0.40648818,-0.08303103,0.37110615,-0.38506126,-0.16292661,0.5069744,-0.51420176,0.1457619,-0.18231764,0.11655812,0.11513449,0.28794557,0.04223348,-0.3023963,0.16345906,0.38754737,0.06693565,0.53713804,-0.25595766,0.6659581,0.14181332,-0.554794,-0.38958186,0.26595458,0.4819595,-0.46812084,0.15637825,-0.06280551,0.19463094,0.28338996,0.14690255,0.67604285,-0.43241626,0.5827401,0.50893587,0.21432157,-0.4278286,0.4935569,-0.5183777,-0.16137533,0.24365559,-0.8380816,0.091886744,0.17713423,0.0013725965,0.2837909,0.016421603,-0.020125128,0.07038071,0.3733653,0.38784623,0.10288904,0.31624725,0.18073317,0.10600844,0.4995906,0.48364523,-0.0669884,0.40382364,-0.2779256,0.51947355
integr,-0.18271972,-0.093812816,-0.14650112,-0.17843598,-0.006729764,-0.19141626,-0.012844144,0.20363112,0.16803356,-0.20574611,-0.101563364,-0.08780176,-0.14599891,0.15283687,-0.18464689,0.15610372,0.1858413,0.021960085,0.22899494,0.0119325835,0.22552185,0.12830232,0.28877544,-0.26034018,0.17732109,0.05064446,-0.024973353,0.0077615576,-0.016153714,-0.038408615,0.14684276,-0.025404165,0.10962622,-0.40927026,-0.10189459,0.114494875,-0.0525235,0.026585838,-0.22150402,0.07391472,0.058602795,0.11412977,-0.1279696,-0.3628657,0.20002022,-0.106706806,0.048512768,-0.3252347,0.06926945,0.0015016171,0.179919,-0.029474234,-0.19569303,0.06926011,0.05897591,0.053959474,0.1655725,-0.12296908,0.037306044,0.0061738654,-0.121995874,-0.23713244,0.22793612,0.2441225,-0.17272973,0.20611076,-0.28710547,-0.10748083,-0.07861679,0.41186804,0.117782585,-0.0007173148,0.24565822,0.083434716,0.16515474,-0.2838882,0.07549468,-0.23812477,-0.112643644,0.08221505,-0.24641433,-0.028225506,-0.09980032,0.051311705,-0.0633931,-0.1941101,0.03693541,-0.05744539,-0.026215333,-0.023954466,0.0725812,-0.0062062987,0.09173061,-0.24782197,-0.010414143,0.10611775,-0.10998152,0.08416575,-0.22406954,0.13990748
sald,0.30172697,-0.031041335,-0.028461402,-0.21368161,0.0074756364,-0.28681317,-0.2757845,0.5037196,0.006267871,-0.26969692,-0.39169136,0.47397453,-0.08413273,0.510951,0.5107044,-0.021696206,-0.1537135,-0.14108895,0.5137839,0.64024967,0.29831454,0.2826124,0.42027864,-0.014153926,0.38872573,-0.16152787,0.15017195,0.29861152,-0.37742934,0.30972508,0.2928917,-0.42357573,0.0378728,-0.57880026,0.1224016,0.115301326,-0.36226642,0.06897288,-0.34500703,0.35160396,-0.5787636,0.34846276,-0.252778,0.08511114,0.13451996,0.51076794,-0.049530946,0.10601358,-0.18226385,-0.28660834,0.3752815,-0.11414393,-0.69525576,-0.5791288,0.4872445,0.21885182,-0.14249401,0.06579036,-0.09312844,-0.3013666,-0.5778047,-0.1472479,-0.071882196,0.40628237,0.13683626,0.5831127,0.11995654,-0.27678603,0.07094064,0.33620507,0.16145083,0.036431678,-0.0052133254,-0.21158828,0.307502,-0.17564394,0.3394105,-0.6222547,0.09921347,0.1698224,-0.5216572,-0.36809927,-0.21396044,-0.21397802,0.039328706,-0.041699056,0.19687091,-0.3340493,0.3915717,0.25509402,0.2130788,-0.11051621,0.20482226,-0.34365326,-0.4251873,0.042059194,0.040634297,0.36029318,-0.03500802,-0.34262848
virtual,-0.5892144,0.19059105,-0.537657,-0.14927459,0.42669138,0.22014557,-0.66375226,0.22443245,-0.24277924,0.65911627,-0.666019,-0.42116907,0.103545606,-0.24424869,0.15702851,-0.27698815,0.30528918,-0.8369767,0.5914776,0.14414145,0.29011935,0.206061,0.6755745,-0.34503627,0.34756386,-0.55538315,-0.48921713,-0.5046957,-0.68222237,-0.24314834,0.30836642,0.29287302,-0.07871595,-0.6319026,0.1277348,0.16149692,-0.33791065,-0.42288667,-0.10273337,-0.38262382,-0.5267693,0.4164793,-0.25853214,-0.18683903,-0.053558346,0.6531229,0.26275644,-0.35264754,-0.13102926,0.16129507,0.29204988,-0.25569466,0.09133616,0.41190025,0.6696778,-0.31086048,0.037712213,0.7328701,-0.8715717,0.2986996,-0.2001116,-0.070542686,-0.6689742,0.15740374,0.8573125,0.0852296,-0.5776583,-0.61113036,-0.023660572,0.22921711,-0.08926327,0.17577118,0.5215565,-0.2686794,0.055576228,-0.81644154,0.252484,-0.78445417,0.30235136,-0.03671374,-0.56245464,-0.009818459,-0.7580351,-0.41762754,-0.7089483,-0.4007615,0.40071276,0.38193506,0.37513357,0.34902823,0.28936285,0.012429649,-0.35787255,0.10224291,-0.036517978,0.38974422,-0.13376294,0.48956338,0.23699257,-0.46451917
carta,-0.5216501,-0.041031342,-0.17026065,-0.5321271,0.46690595,0.21981719,-0.4642311,-0.020087415,-0.4056466,0.664703,-0.8320119,-0.5624071,0.05161368,-0.4628533,-0.1064684,-0.2318614,0.032048617,-0.7554068,0.65811956,0.30248836,0.47478554,0.083600126,0.92978984,-0.56781834,0.6117853,-0.39171168,-0.26642087,-0.40769655,-0.4587337,-0.27675676,-0.044178996,0.6286021,0.2105844,-0.30017093,-0.12792006,0.21698532,-0.57152593,-0.3736517,-0.36240053,-0.2844937,-0.3412683,0.10862816,-0.057421047,-0.022545122,-0.3587093,0.37411407,0.17423305,-0.66123027,-0.5848802,-0.011120886,0.38273364,-0.13167913,-0.1659841,0.3647891,0.50904256,-0.53669703,0.23178278,0.7607947,-0.7350448,0.29287544,0.09290373,-0.28997704,-0.44114304,-0.017579427,0.67109656,0.38465115,-0.1679613,-0.46250683,-0.23373674,0.33691525,-0.572485,0.441709,0.36023572,-0.2789988,0.34156588,-1.0240036,0.37451926,-0.8874949,-0.042168036,0.21531996,-0.6041005,-0.17017543,-0.7318889,-0.30759728,-0.61729276,-0.47078386,0.66309506,0.46196237,0.27156544,0.10198441,0.028335264,0.19214594,-0.33126274,0.058886766,0.27050593,0.45997152,-0.04262756,0.55043113,0.29844636,-0.3879995
performanc,0.073126234,-0.041362807,0.020957977,-0.030932622,-0.06015571,-0.2611065,-0.072930865,0.28724733,0.11274947,-0.18603711,-0.027099863,0.085850075,0.042348824,0.11513776,0.18285342,-0.07038896,0.04590874,-0.11881957,-0.00056941085,0.0378667,0.32350397,0.03092871,0.33470824,-0.10836746,0.08991781,-0.00047728798,-0.09087645,0.07320979,-0.1788921,0.098750375,0.13520372,-0.07275658,0.21443437,-0.37379894,0.05425007,0.04973139,-0.14742135,0.008803359,-0.17303857,0.040707156,-0.08181986,0.027062204,0.07086259,-0.15487161,0.16992408,0.08740188,0.021320118,-0.015664864,-0.010789675,-0.019340115,0.11281493,-0.06841824,-0.22127154,-0.2225787,0.06840671,-0.055479582,-0.016732797,0.03789614,-0.058670107,0.011060843,0.035109084,-0.04164184,0.09765865,0.14825173,-0.005815038,0.16380624,-0.017732274,0.102350146,-0.17991145,0.23977596,0.021049066,0.025604485,0.07006789,-0.015674848,0.25184515,-0.028765857,0.057616923,-0.14305085,0.0047623212,0.08280925,-0.07535997,-0.039742373,-0.24571897,0.081053235,-0.20424415,-0.114876434,0.08935254,-0.123205476,0.035472535,0.01721903,0.14125639,-0.08545775,0.124054074,-0.17860763,-0.02314653,0.012439176,-0.11148402,0.06327078,-0.18005206,-0.21125087
integraca,0.107010394,-0.06202307,-0.07407844,-0.12736394,-0.03970219,-0.16331466,-0.11875619,0.3035408,0.29374143,-0.071882665,-0.11175651,-0.05976436,0.06527701,0.16155037,0.043221574,-0.08729904,-0.018544717,0.0075698714,0.050843794,0.1401581,0.39635995,0.0040953327,0.061432518,-0.17262435,0.037862822,-0.05067455,0.07291782,-0.07420148,-0.113768004,-0.06872584,-0.024087176,-0.09504962,0.21144795,-0.5136345,0.02512359,0.021759361,-0.13860689,-0.10451566,-0.2532125,0.06166076,-0.013182454,-0.002320945,0.17681937,-0.038283393,0.3077135,0.12619947,-0.14416833,-0.2125489,0.11809651,-0.026959186,0.13043198,-0.013792878,-0.17798667,-0.18286857,0.130297,0.027605705,0.20209104,0.024555521,-0.037885815,0.16781871,0.11792833,-0.020932995,-0.09330328,0.1612753,0.18465735,0.13903064,-0.09849619,0.191004,0.011860196,0.21867189,0.10908815,-0.20226522,0.21196572,-0.055923752,0.33770707,-0.10825127,0.36233482,-0.14664088,0.057385255,0.04989624,-0.32073542,0.008018864,-0.44035348,-0.023911044,-0.21448363,-0.037054893,0.065606155,-0.043245494,0.019616518,0.02499041,0.20689048,-0.042685393,0.1216778,-0.113152534,-0.09449015,0.12654065,-0.17295714,0.17376237,-0.20217082,-0.16965856
dashboard,-0.06528915,-0.024782676,-0.1170794,-0.09249036,-0.072883315,-0.24676856,-0.11685882,0.29706508,0.075278774,-0.18432125,-0.005539666,-0.0931533,-0.0932801,0.17434748,0.08952628,0.0021926723,0.055832636,-0.029096311,0.030295227,0.02998243,0.3567395,0.07331586,0.29392734,-0.10766297,0.045838404,0.08387821,-0.009159104,-0.003025939,-0.020299075,0.011623317,0.07837429,-0.07395764,0.22585888,-0.38174498,0.040387455,0.10671782,-0.022298248,0.07594156,-0.2648466,0.09328025,0.027915204,0.08290751,0.03961993,-0.14308125,0.2049012,0.053805567,-0.011317119,-0.13783681,0.09106843,-0.035342585,0.10212658,-0.056217827,-0.12773292,-0.11143507,0.09814916,-0.046128366,0.095910445,-0.0041695484,0.07119984,0.05044362,-0.0050332528,-0.1101823,0.17107062,0.19635904,-0.051257826,0.13835262,-0.0985538,0.15002768,-0.1718002,0.34202263,0.07240585,-0.028757455,0.17817126,0.056943074,0.18515396,-0.056804013,0.15983233,-0.117493905,0.000488946,0.037007816,-0.25923884,-0.042410456,-0.21938471,0.03508383,-0.18104747,-0.1357717,0.07000706,-0.09035469,0.06078059,0.05005954,0.11263112,-0.011250853,0.12331127,-0.1752798,0.0041169175,0.09696805,-0.08121204,0.083789654,-0.16247703,-0.014706406
onboarding,0.05953367,-0.05706855,-0.051837247,-0.074942425,-0.038717773,-0.13785103,-0.12498339,0.2541773,0.13994744,-0.069563374,-0.037356243,-0.115239024,0.03266944,0.11588899,0.034984846,-0.12980984,-0.029573735,-0.08260724,0.006297877,0.04788502,0.37711525,-0.04178331,0.16404736,-0.10052361,-0.02897444,-0.055053882,-0.022763183,-0.050825514,-0.084490605,-0.05513047,-0.078317545,-0.019886822,0.24647556,-0.43598944,0.061931785,0.039331444,-0.09482421,-0.06069829,-0.2075473,0.025994234,-0.010360831,-0.020906603,0.19334172,-0.034562364,0.2733227,0.090409346,-0.07515876,-0.16567977,0.081840456,-0.00029201308,0.096416354,0.008037832,-0.078290574,-0.1495628,0.1026724,-0.09303584,0.13642536,0.09402116,-0.04316264,0.13227226,0.1481524,-0.020764789,-0.08871702,0.14435399,0.10596603,0.08685535,-0.058875993,0.26490676,-0.07912664,0.22867899,0.01994879,-0.11508964,0.2254058,-0.029507156,0.28879055,-0.15752704,0.23407438,-0.06701484,0.08938651,0.06901001,-0.30028003,-0.02531962,-0.43309915,0.061788566,-0.27159396,-0.086601384,0.10194405,-0.0068457793,0.07734253,0.0641166,0.1619289,-0.06145865,0.090172164,-0.09481314,0.048548702,0.15773132,-0.16249776,0.13387232,-0.19916981,-0.15756916
usabil,0.0002170591,-0.015978618,-0.116910994,-0.115118496,-0.06740665,-0.13501556,-0.065651,0.25164953,0.15642755,-0.112321794,-0.12215742,-0.02157294,0.06958879,0.12592413,0.07860754,-0.11678226,0.101930626,0.047902107,0.060671575,0.064562745,0.32484433,0.01771433,0.22372845,-0.09976258,0.114239946,0.021143317,-0.006198418,0.024807578,-0.102106586,0.057156768,0.0916488,-0.117326885,0.18641917,-0.5000493,0.03390351,0.053961888,-0.1554951,0.020634059,-0.17071158,0.0941478,-0.010762009,0.007070655,0.07828557,-0.12673995,0.19456069,-0.026894022,0.020668497,-0.16167739,0.025597556,-0.09628414,0.21438108,-0.045006257,-0.18104443,-0.12576048,0.06139794,-0.0043168333,0.13371572,-0.020077746,0.007810569,0.018657418,0.016044945,-0.14350413,0.087933145,0.20829083,0.0032325976,0.13851203,-0.052131128,0.09493989,-0.1377077,0.2732793,0.09363184,-0.08472683,0.17190579,0.04686968,0.23155913,-0.0049459636,0.17271896,-0.077134944,-0.03290392,0.09976935,-0.26858622,-0.032148838,-0.18948475,-0.039627086,-0.1724455,-0.10924315,0.053639434,-0.0978151,0.010463981,0.02456441,0.1205285,-0.051683124,0.11743107,-0.233045,0.046832126,0.027201524,-0.061423767,0.115991525,-0.17187709,-0.103137664
extrat,-0.015578615,-0.02356407,-0.049445376,-0.10728671,0.01573707,-0.24097335,-0.036837462,0.27594164,0.1939687,-0.14711882,-0.06472849,0.027987266,0.08636099,0.110581756,0.16959512,-0.08430759,0.105242945,0.029204551,-0.007954222,0.048733726,0.29167995,-0.035640404,0.18660353,-0.17816177,0.13574405,0.003406841,0.0011828587,0.04817619,-0.15378779,0.01464188,0.12380109,-0.055476964,0.13924967,-0.43580475,0.027911084,0.053502172,-0.11118593,-0.008180317,-0.14613098,0.09283929,0.051716585,0.029631883,0.095447145,-0.19821624,0.17493564,-0.0077397972,-0.03793165,-0.055317845,0.041879777,-0.023835076,0.17509821,-0.03957499,-0.19930783,-0.08355978,-0.02107133,0.020897776,0.16372128,0.024992812,0.016973598,0.052277602,0.07186624,-0.054097053,0.057009112,0.11229836,0.05859486,0.17290238,-0.071037546,0.08906415,-0.1638989,0.21553162,0.0748756,-0.0052552377,0.124965444,0.049598563,0.29869694,-0.06570805,0.16739804,-0.045183484,-0.019269317,0.08646461,-0.2490926,0.05705363,-0.24989393,0.052983724,-0.21440002,-0.08492666,0.11221055,-0.060008474,-0.041726034,-0.061111946,0.13577017,-0.029120684,0.12657702,-0.17312735,0.02449976,0.048035976,-0.08754583,0.018747214,-0.18853842,-0.14546184
login,0.02744014,-0.073713906,-0.07101432,-0.08077779,-0.051672127,-0.22691916,-0.07581681,0.2899894,0.18104984,-0.11842375,-0.05833355,0.01609926,0.050400317,0.07189697,0.08796298,-0.057093736,0.054823074,-0.113075696,-0.029339314,0.0060830703,0.30834314,0.03502825,0.24984838,-0.14402972,0.034444075,-0.047339536,-0.00066110055,-0.01114514,-0.15679246,0.037020065,0.101919666,-0.08436854,0.23558615,-0.43149298,0.0813227,0.0609457,-0.12138682,-0.025510004,-0.17639348,0.05610758,-0.015867611,-0.008431566,0.10291837,-0.17291512,0.26610315,0.07239731,-0.03859657,-0.06528205,0.06419775,-0.03238898,0.13457996,-0.045619693,-0.13835073,-0.13614357,0.012131425,-0.011432602,0.07318475,0.003258725,-0.05482903,0.13193712,0.11779782,-0.062772594,0.035973743,0.16760996,0.061600987,0.10559169,-0.107381575,0.1389183,-0.15948185,0.27825898,0.026228322,-0.044825565,0.1541735,-0.02549987,0.2987394,-0.12516505,0.15036933,-0.15998682,0.02220155,0.029391473,-0.13983974,-0.01610612,-0.3590528,0.067035146,-0.2712552,-0.12980421,-0.022289028,-0.063302316,0.07028517,0.037520964,0.17680216,-0.077658355,0.14506952,-0.17784272,-0.017704112,0.016897663,-0.12685405,0.07689377,-0.19291875,-0.20194487
api,-0.06986741,-0.01982613,-0.10316313,-0.13650441,-0.07618995,-0.18183865,-0.11433587,0.26848346,0.22465363,-0.12236861,-0.09610664,-0.1290099,-0.0123719135,0.16300155,0.009871663,-0.052753728,0.089704074,0.09609661,0.073850095,0.08693353,0.44408357,-0.024691425,0.188712,-0.12759282,0.011845599,0.0784996,0.020021947,-0.046979096,-0.05185603,-0.023708714,0.0025503645,-0.03751697,0.19542392,-0.49464744,0.012089686,0.017517678,-0.030431388,-0.0061342283,-0.25779834,0.14052,0.091681115,0.07115846,0.15750235,-0.20944712,0.26399845,0.023088088,-0.0049453983,-0.26971573,0.16373272,-0.05801954,0.12219615,-0.02693166,-0.1384952,-0.09307187,0.08138876,-0.028986985,0.19672021,0.017847221,0.014678347,0.10115182,0.08528962,-0.077468835,0.02825807,0.21748859,0.089332476,0.12714523,-0.10183202,0.14362957,-0.084184855,0.32335418,0.09887885,-0.15209353,0.25419596,0.0031977352,0.2671007,-0.056767106,0.24382758,-0.032976564,0.013876693,0.08900963,-0.3304879,0.009786274,-0.2804232,0.022118239,-0.2345806,-0.12839583,0.087696224,-0.023297386,-0.015821435,-0.060409084,0.14001015,-0.039932877,0.100282624,-0.23002325,-0.0045576417,0.10824228,-0.1264434,0.09563008,-0.2629875,0.036222953
chat,-0.011569643,0.025111906,-0.09774156,-0.08486459,-0.00333036,-0.29494068,-0.055147715,0.30306432,0.13731651,-0.09953425,-0.022267133,0.0015009544,0.064141154,0.011546323,0.12244667,0.012259668,0.09183088,-0.12537885,-0.01947194,-0.06814726,0.29078043,0.03291623,0.33443552,-0.21579199,0.07005042,-0.013281081,-0.09808002,0.030317083,-0.15208352,-0.0077955485,0.17813583,-0.050912645,0.23925546,-0.32375443,0.07712064,0.0949525,-0.07181252,0.01519167,-0.22866663,0.050376005,-0.092126876,0.054307263,0.046762187,-0.26468256,0.1836354,0.029425032,-0.019643208,-0.020235684,0.0064779804,-0.021072373,0.13387407,-0.0040530055,-0.14900908,-0.076220736,0.04032514,-0.117438585,0.11163788,0.018073196,-0.0021905573,0.15220062,0.0710799,-0.13636369,0.1351395,0.107977256,0.0007387757,0.037656125,-0.12735626,0.045745414,-0.21133256,0.25394326,-0.021388456,0.03125156,0.06849303,0.052397117,0.21491788,-0.11680253,0.11031672,-0.21503206,-0.01208873,0.039156053,-0.0942805,0.051786058,-0.24688236,0.083470866,-0.28802767,-0.15418755,-0.062332347,-0.06903975,0.062064074,0.053759452,0.12763098,0.008821364,0.09443588,-0.21913153,0.03730005,-0.027703507,-0.08879252,0.052456293,-0.11871281,-0.21200193
bug,0.24686572,0.024316508,0.03396761,0.3549097,-0.064202055,-0.27623418,0.34447303,0.2589349,-0.5136702,-0.5128353,0.31101334,-0.41589493,-0.10993205,0.19394352,0.1322254,-0.19735052,-0.013612334,-0.35944784,-0.3140578,-0.5197971,-0.19409889,0.01664336,-0.058334664,0.15270706,-0.34678096,-0.13548419,-0.42810607,0.07297081,0.042706404,-0.010899965,0.099746704,0.027513383,0.1484785,-0.057179265,-0.002089174,0.18307824,0.21260428,-0.037064284,0.0074981395,-0.38504207,0.062188808,-0.33940935,0.1522657,0.32529894,0.13168986,0.028069988,-0.4773486,0.06975786,0.17789762,0.39215007,-0.22397101,-0.2231886,0.15290284,-0.370813,-0.021194218,-0.084770516,-0.11048642,-0.0528971,-0.18384519,0.094341494,0.18915811,0.15877344,0.08733475,-0.011094546,-0.30054408,0.1751064,0.16189776,0.5486164,-0.29523006,0.039372053,-0.20863244,0.12972412,0.21564463,-0.12400638,0.29197004,-0.17596178,-0.21374811,0.24306794,0.08864537,-0.15516418,0.04552424,-0.03037153,-0.45624363,0.6107987,0.040014327,-0.1799222,0.26483014,0.21255256,0.27430445,0.27391642,0.3004166,-0.09047342,0.077392675,0.26692817,0.19177477,0.12150863,0.08935364,-0.16453105,0.1317894,-0.16647102
travan,0.20883001,-0.036123414,-0.0133382855,0.27280042,-0.0206083,-0.25406298,0.24960831,0.27807653,-0.36724836,-0.3860541,0.22168678,-0.37769663,-0.14223646,0.14323068,0.040818665,-0.15158936,-0.022533894,-0.35908362,-0.3307972,-0.49580443,-0.13711533,0.06278185,0.0346083,0.12466545,-0.33800355,-0.13227132,-0.3740013,0.07664797,-0.06914491,-0.011850329,0.033788394,0.049185116,0.18710646,-0.17096595,-0.03990523,0.1369741,0.2227725,-0.11935706,-0.062405977,-0.27818626,0.028612174,-0.28977805,0.14916314,0.22389124,0.25508833,0.09569801,-0.44739482,0.05232676,0.15953994,0.33789656,-0.2012504,-0.20979807,0.16451274,-0.34470826,-0.029960465,-0.14240472,-0.07511195,-0.01575983,-0.2262263,0.18360727,0.28220677,0.107375436,0.022077784,0.0026584244,-0.17872187,0.09230247,0.09183151,0.54451114,-0.27390745,0.08046512,-0.2371886,0.0783762,0.2511149,-0.16832156,0.27539524,-0.27315322,-0.1897386,0.15443651,0.09949496,-0.15908915,0.061904747,-0.019248342,-0.5685569,0.57003504,-0.09781225,-0.17279755,0.23000383,0.25515532,0.22970313,0.21278958,0.28829885,-0.04332241,0.12889044,0.18154383,0.19274183,0.11219418,0.044156205,-0.09297111,0.06319689,-0.19056831
sitem,0.21804579,-0.051478755,0.026770707,0.28658697,-0.07643884,-0.23231448,0.26611102,0.2794691,-0.4035173,-0.46788603,0.23414515,-0.4633185,-0.18761043,0.21672419,0.07174503,-0.17558405,-0.09852043,-0.31094342,-0.3003286,-0.4650089,-0.13604577,0.07784736,-0.0689329,0.20101629,-0.3807695,-0.10147908,-0.349262,0.044380445,-0.010115108,-0.030296162,-0.017344378,0.017384654,0.20198412,-0.18784381,-0.04239594,0.16605698,0.22205687,-0.09130132,-0.085967384,-0.290389,0.07845407,-0.31079265,0.15676367,0.3013404,0.27138823,0.10913481,-0.47455493,0.006682587,0.18433034,0.33921823,-0.24150372,-0.22261842,0.17763239,-0.4004574,0.007099234,-0.111617014,-0.101941675,-0.061849922,-0.16901891,0.13576065,0.23706792,0.15236887,0.010925331,0.026390996,-0.22487384,0.11298502,0.15522273,0.63200593,-0.26028183,0.111181095,-0.17266397,0.05470246,0.28048924,-0.17638506,0.30892077,-0.2132149,-0.15652333,0.1909963,0.116072975,-0.16468935,-0.007639366,-0.06956301,-0.5483136,0.5834719,-0.028140241,-0.15427199,0.24029942,0.23704927,0.26187363,0.22778088,0.3059509,-0.09702198,0.13383698,0.22614872,0.13581444,0.21002446,0.04752669,-0.100849956,0.06354139,-0.12567525
vcs,0.2421605,-0.018081676,0.010100572,0.30065006,-0.03126309,-0.289082,0.22343071,0.31706738,-0.4030721,-0.42051917,0.2239374,-0.38318068,-0.12658326,0.19469117,0.1252746,-0.14783299,-0.07753009,-0.39503896,-0.26764137,-0.48508194,-0.13034207,0.07859994,-0.02047968,0.1355068,-0.33613497,-0.14109616,-0.36355692,0.10776554,-0.06728397,-0.00060869916,0.06357443,0.006875837,0.19720417,-0.15267272,-0.00077990466,0.18159802,0.20240675,-0.07675491,-0.07812596,-0.2899906,-0.019472815,-0.28453866,0.11510211,0.312084,0.22788921,0.12146172,-0.48050895,0.094403125,0.14435169,0.33342224,-0.17388041,-0.1781337,0.11540682,-0.39274994,0.048139602,-0.100215375,-0.07440451,-0.037565988,-0.19837941,0.17341359,0.19634183,0.13663317,0.0028243246,0.016058488,-0.1903119,0.1457514,0.15376778,0.56452715,-0.23801251,0.078224845,-0.20277566,0.059440188,0.2251289,-0.15713899,0.31730652,-0.24886186,-0.13704887,0.12542327,0.1364326,-0.18418512,-0.013670293,-0.032427814,-0.5600891,0.5704583,-0.04647914,-0.14907326,0.24217083,0.2364581,0.32060432,0.2689226,0.32050076,-0.050653726,0.12791531,0.23079889,0.15318377,0.1542278,0.031007936,-0.06651732,0.09498502,-0.20505992
atendimnt,0.24479862,-0.044734627,0.018193845,0.3008937,-0.09639332,-0.22544865,0.3038482,0.24692142,-0.42498603,-0.42663968,0.2468739,-0.35465243,-0.17454676,0.18070634,0.033097662,-0.22276682,-0.029639507,-0.37451634,-0.32681885,-0.5065258,-0.12860577,0.05814931,0.017453779,0.22013713,-0.37684172,-0.08971222,-0.37909403,0.08891883,-0.02304608,0.03622086,0.071978584,0.04585682,0.15898901,-0.13867505,-0.0018256647,0.15379898,0.23977108,-0.07381071,-0.05105274,-0.3132171,0.062167812,-0.35374358,0.1356217,0.28279355,0.21983239,0.06700481,-0.48480207,0.06267168,0.20720848,0.33033434,-0.25151598,-0.2367945,0.16952768,-0.38246498,-0.05769132,-0.11920346,-0.11979345,-0.0806238,-0.21685436,0.1267509,0.28382722,0.12376013,0.087750696,0.0042741736,-0.22154412,0.1193535,0.14365324,0.6097568,-0.3162026,0.05370715,-0.19042599,0.122878015,0.22571157,-0.16340715,0.27964893,-0.21824141,-0.19185704,0.25683656,0.115947135,-0.15279265,0.05754003,-0.091499135,-0.525091,0.59423894,-0.0680759,-0.21974906,0.27210972,0.26241043,0.21074122,0.22623424,0.32131135,-0.06780871,0.11932581,0.1915882,0.16462101,0.11947392,0.099415675,-0.14221263,0.08938333,-0.1689821
probelm,0.22503021,-0.038784068,-0.0013672222,0.29405874,-0.07470894,-0.25990438,0.25501364,0.2609814,-0.3851017,-0.4320494,0.23537414,-0.39348665,-0.1211087,0.19093932,0.06190791,-0.14537972,0.0011543717,-0.3282354,-0.29503775,-0.46714866,-0.10678301,0.085474476,0.019759728,0.11603876,-0.3385207,-0.07845623,-0.39657086,0.08251794,0.01439343,0.018268287,0.08671648,0.028667888,0.20725887,-0.14404902,-0.03775352,0.15338178,0.20138408,-0.05574999,-0.06462276,-0.2897158,0.05906328,-0.2982382,0.15493138,0.25727195,0.23162432,0.06829001,-0.4195246,-0.012078437,0.17117712,0.30592033,-0.21406345,-0.19478436,0.14145395,-0.36244413,-0.03297457,-0.10753444,-0.091654375,-0.0445262,-0.15843788,0.13832714,0.24150108,0.113455236,0.074611396,0.03624808,-0.24270485,0.12331177,0.1261832,0.5371142,-0.29078045,0.11172497,-0.204493,0.051174678,0.25059113,-0.12918612,0.28051236,-0.19908725,-0.17809188,0.19086632,0.063485175,-0.1418359,0.018547552,-0.060918532,-0.503547,0.5750868,-0.03668002,-0.18483518,0.2286006,0.20464522,0.23098129,0.20722671,0.2723335,-0.07597311,0.11887476,0.16679084,0.16041824,0.112534456,0.07054943,-0.076623574,0.051866498,-0.13645406
ploblem,0.16049638,0.0025895087,-0.034993023,0.25616783,-0.03641362,-0.2460111,0.22535479,0.23748228,-0.39129174,-0.41232112,0.2326661,-0.3997745,-0.1364014,0.17635778,0.054812524,-0.1551662,-0.00084111135,-0.32275674,-0.265344,-0.45239064,-0.1345301,0.064495236,0.009108399,0.115960844,-0.30862543,-0.11320941,-0.3637909,0.05285917,-0.009662453,-0.012694372,0.05896333,0.038680222,0.16709514,-0.14943102,-0.018898588,0.15970993,0.19037613,-0.06602504,-0.048733953,-0.2846317,0.05116048,-0.2764311,0.111609675,0.21568671,0.19591267,0.07705963,-0.40026575,0.008741311,0.16509151,0.3162125,-0.18616095,-0.18435875,0.14906114,-0.29207996,-0.0017035133,-0.09685656,-0.07052768,-0.044560265,-0.16405015,0.14457066,0.22016254,0.10672545,0.037846223,0.022854008,-0.19472708,0.10324487,0.10216575,0.48900145,-0.26915032,0.11807316,-0.18383269,0.05335985,0.24629796,-0.110023744,0.2394248,-0.23327617,-0.18222271,0.16804683,0.08650048,-0.14530881,-0.01584456,-0.024339931,-0.48235065,0.5308241,-0.042741187,-0.18792783,0.23185493,0.2309561,0.25675398,0.22496614,0.27404937,-0.075582825,0.07387349,0.18105981,0.14224261,0.13716649,0.045367923,-0.10925248,0.055839453,-0.12453239
qdo,0.23412883,-0.0116454335,-0.010203185,0.31543365,-0.013675394,-0.2459573,0.30508274,0.25667945,-0.46649238,-0.41455656,0.24415214,-0.3862199,-0.071718834,0.14656103,0.087390736,-0.23217496,0.019251337,-0.37385735,-0.35518903,-0.5181977,-0.17093416,0.0049889055,-0.04968913,0.14528331,-0.34544286,-0.14504416,-0.4235163,0.06168552,-0.041976318,-0.0006441945,0.07653177,0.08154194,0.11114157,-0.12322474,-0.025661638,0.15029806,0.18768856,-0.09383168,0.009334266,-0.37208346,0.06463095,-0.33644456,0.1879292,0.28956538,0.14410181,0.0410106,-0.46266085,0.05083979,0.16606744,0.37137786,-0.21360241,-0.22966978,0.17677666,-0.35458267,-0.051810935,-0.13877538,-0.06748379,-0.00011422575,-0.22701561,0.15862228,0.30339295,0.13610438,0.0404859,-0.04258091,-0.20789197,0.15030605,0.13283889,0.5483928,-0.29432553,-0.0032113215,-0.23581792,0.090232074,0.21883385,-0.14432748,0.29619572,-0.26010498,-0.21385631,0.2821689,0.0929217,-0.17159556,0.02229079,0.010784873,-0.5428623,0.6003843,-0.059296403,-0.19002883,0.30851763,0.30158773,0.22528788,0.19861968,0.31139472,-0.06929156,0.09727431,0.26298246,0.21809636,0.11122196,0.074783646,-0.1591693,0.09873259,-0.20570867
naum,0.13397406,-0.046174765,0.018660389,0.2040123,-0.011848137,-0.32500294,0.20310372,0.28943592,-0.34060478,-0.4654855,0.26916215,-0.45251405,-0.20205961,0.12656845,0.10026812,-0.123456374,-0.105766155,-0.3330997,-0.28745756,-0.48334068,-0.15459129,0.063152865,0.006882086,0.103091925,-0.28664672,-0.06956278,-0.29022717,0.0826666,-0.07252227,-0.09118827,-0.028376015,0.054663252,0.20327103,-0.13756843,-0.01918222,0.16392472,0.22423051,-0.116186574,-0.11182244,-0.26942083,0.082511574,-0.25416777,0.10080286,0.22038542,0.22737044,0.07088105,-0.44884932,0.09051849,0.14495717,0.3860185,-0.20058133,-0.19936064,0.17358868,-0.30549595,-0.05429857,-0.13760003,-0.028552257,-0.058607873,-0.1663123,0.17784497,0.2566672,0.1555664,0.0637979,-0.0023910666,-0.19903204,0.12390774,0.086904705,0.57334155,-0.2670017,0.114096284,-0.19468522,0.13443112,0.23896632,-0.121292345,0.32350445,-0.21665196,-0.15116456,0.08356994,0.09521028,-0.19564629,0.0041722264,0.023368267,-0.56003475,0.5349049,-0.09085952,-0.1771938,0.25191197,0.23118372,0.21408081,0.21160991,0.28529277,-0.013674948,0.13212934,0.23929922,0.18999742,0.22104542,0.0639741,-0.15153505,0.04972321,-0.18299493
msg,0.22082013,-0.050921377,0.023043726,0.25777054,-0.08601491,-0.21421829,0.21185854,0.2528294,-0.36324432,-0.4485714,0.21237706,-0.34744045,-0.10498745,0.21966782,0.13028681,-0.21124676,-0.026786549,-0.27490255,-0.25069273,-0.36865428,-0.08911194,0.051509503,-0.04464754,0.15238403,-0.30185145,-0.054373454,-0.33800957,0.0577819,-0.015653182,0.059308354,0.026790163,0.0013744442,0.14312162,-0.22239882,-0.021829983,0.1554611,0.10926665,-0.07957078,-0.0382102,-0.2746982,0.08411516,-0.27900174,0.1627428,0.29580456,0.23850511,0.08104594,-0.4146323,-0.0027387633,0.15345302,0.26028177,-0.17636546,-0.20277448,0.12425272,-0.3941692,-0.0069635287,-0.07123955,-0.104940854,-0.025354292,-0.15601026,0.0696183,0.2157634,0.1435076,0.024117446,0.043860916,-0.19594732,0.1948675,0.18671569,0.5568666,-0.24093147,0.086285025,-0.15388992,0.054885793,0.22465642,-0.15435511,0.3088527,-0.13355047,-0.1467182,0.24278136,0.09879801,-0.10698887,-0.072524995,-0.08654769,-0.48783556,0.52602375,0.0033521375,-0.15300068,0.30748162,0.19119419,0.20783634,0.20048548,0.28468594,-0.104600556,0.13119605,0.17224823,0.14194253,0.15713991,0.04336548,-0.07337224,0.027810784,-0.123920664
platafrom,0.25443807,-0.038429692,0.0029711216,0.26782012,-0.012228841,-0.26744264,0.24093515,0.30532342,-0.4183763,-0.39555666,0.22384636,-0.43827233,-0.14158733,0.17099874,0.07862359,-0.15821145,-0.097891815,-0.3921528,-0.28493857,-0.4714083,-0.15234065,0.08395892,-0.04735475,0.13530688,-0.36735168,-0.13814923,-0.33195797,0.053851824,-0.06558618,-0.056944534,0.020656886,0.030839259,0.19289857,-0.17015372,-0.013554622,0.18483523,0.21386164,-0.1336618,-0.10559517,-0.3351239,0.027394598,-0.295967,0.123184875,0.33371833,0.24734181,0.15412372,-0.52463126,0.05248119,0.1642683,0.346562,-0.21890508,-0.23198375,0.15681717,-0.3816501,0.026906608,-0.1164125,-0.06974726,-0.00039197484,-0.21529004,0.1755708,0.23032728,0.14494084,-0.0168688,0.0097056385,-0.15449734,0.15535766,0.1053697,0.58591765,-0.23254478,0.058732245,-0.22295666,0.08870742,0.26822805,-0.16875224,0.3347209,-0.29814446,-0.1042561,0.11048911,0.13712597,-0.16994804,-0.03859941,-0.039374486,-0.6360711,0.5599556,-0.102072865,-0.17986798,0.27467433,0.26448485,0.3020299,0.27990267,0.31776297,-0.02561886,0.1279202,0.26085114,0.16087626,0.19061643,0.05079525,-0.076521054,0.12632558,-0.2196688
