,0,1,2,3,4,5,6,7,8,9,10,11,12,13,14,15,16,17,18,19,20,21,22,23,24,25,26,27,28,29,30,31,32,33,34,35,36,37,38,39,40,41,42,43,44,45,46,47,48,49,50,51,52,53,54,55,56,57,58,59,60,61,62,63,64,65,66,67,68,69,70,71,72,73,74,75,76,77,78,79,80,81,82,83,84,85,86,87,88,89,90,91,92,93,94,95,96,97,98,99
demor,-0.004370776,0.13138653,-0.011214235,0.124240145,-0.02458246,-0.16825783,0.084846206,0.352308,-0.13421398,-0.084216096,-0.11242982,0.15501767,0.12891072,0.2814582,-0.0106476825,-0.20774017,0.4138656,-0.13596943,-0.13685727,-0.30464694,0.27045232,0.05625358,0.3405081,0.015299899,0.18436062,-0.11448753,-0.20618002,0.20366302,-0.2691234,0.07379767,0.20673399,-0.013688689,-0.08130182,-0.34479937,-0.06279773,-0.036078766,0.0559906,-0.17423265,-0.036804564,-0.05934924,-0.22971559,0.11551229,-0.20362952,-0.093223214,-0.044328213,-0.032812744,-0.18927498,-0.061533656,0.06657308,0.1447369,0.046505973,-0.09314822,-0.40486178,-0.015418271,0.19253047,-0.05845189,0.08611658,-0.041122742,-0.30064887,0.055521723,-0.13805822,-0.04975568,0.021279627,-0.045040883,0.07613762,0.2254036,-0.0035067783,-0.12762642,-0.035423793,-0.02947715,0.15884833,0.20862186,-0.049882717,-0.16872834,0.109831385,-0.21042867,0.15440768,0.12977593,-0.06670894,0.013358135,-0.21635288,0.119639486,-0.00026070522,0.20486751,-0.21042752,-0.022333816,0.32661286,0.062309314,-0.13501284,0.07309456,0.16987757,0.024606382,0.15440808,-0.20430548,0.20285335,-0.038729236,-0.02743222,-0.13587867,-0.04791032,0.08083293
erro,-0.29003188,0.1426621,-0.26222533,-0.4024743,0.20726243,-0.14867459,-0.35369283,0.11037817,0.07378188,-0.20039697,-0.14636716,-0.12695058,-0.071121216,0.35802165,0.36204642,0.18114762,0.4596307,0.49676022,0.121121965,0.18116297,0.24477443,-0.061483685,0.49715182,-0.46311668,0.6661832,0.24267046,0.0144108,0.20656082,0.028300742,0.19044794,0.26582602,-0.15810995,0.13148756,-0.6806941,0.050226092,0.17375791,-0.107492454,0.24471858,-0.23252803,0.3438894,-0.122910865,0.19280079,-0.106289044,-0.28538254,0.0083863195,-0.083903685,0.27142304,-0.23821063,-0.116615154,-0.024904365,0.45494628,-0.15804675,-0.5075449,0.099910915,-0.03655563,0.1056257,0.28197145,0.15921332,0.123002686,-0.09727548,-0.3633983,-0.20567814,0.29755712,0.4730549,-0.041907404,0.4139175,0.10661809,-0.22851893,-0.16151035,0.69416666,0.26695758,-0.050552547,0.16047674,0.36737332,0.05157645,-0.066953406,0.14475767,-0.22887063,-0.18111664,0.113387756,-0.65257543,-0.10528169,0.095637836,-0.253792,0.16981043,-0.08293687,0.13646902,-0.27484173,0.08055843,-0.039815526,-0.043251764,0.013797579,0.15728931,-0.4887931,-0.06151237,0.19265734,0.29757378,0.0042927675,-0.3116085,0.12051816
tent,-0.13858058,0.12290476,-0.2747743,-0.48884037,0.18214227,-0.11378179,-0.4674749,0.4137323,0.10170407,-0.06287207,-0.23470949,-0.22271074,-0.07790281,0.3968751,0.16427049,0.15011851,0.30158263,0.52386624,-0.012457061,0.02285509,0.2355599,0.1793659,0.2789646,-0.2442272,0.40088183,0.20382625,0.33645204,0.19597317,-0.048408918,0.17808095,0.19726813,-0.36924976,0.08257586,-0.62428594,-0.17574319,0.047648318,0.090908475,0.110994056,-0.3725735,0.39305672,-0.0734688,0.22074082,-0.13059802,-0.066096485,0.19162746,0.13659243,0.047615543,-0.2826677,-0.02779489,-0.087255724,0.23769867,-0.22733498,-0.4532359,-0.044623893,-0.09913783,0.03295436,0.2856595,0.008584787,0.15988861,-0.062110163,-0.23371784,-0.27514648,0.3954242,0.4643634,-0.10124758,0.4488547,-0.008985554,-0.10417601,-0.22458237,0.6938926,0.3127201,0.095903255,0.20527975,0.08808825,-0.0093913665,0.13771243,0.49760398,-0.30126235,-0.1813171,0.12909648,-0.44697872,-0.20553382,-0.114159875,-0.2333365,0.0055522537,-0.040887043,-0.20108774,-0.2728665,0.12156236,0.03616682,0.005083574,0.17898832,0.3781551,-0.475678,-0.19120494,0.13943163,0.4069076,0.15330495,-0.05444257,0.22202997
relatori,-0.13647842,0.22701587,-0.17176087,-0.020180054,0.025294814,-0.17237736,0.037576634,0.24662642,0.04351722,-0.12303428,-0.049910292,0.17144436,0.14158317,0.19497347,0.21016116,0.06517599,0.49443263,0.03810921,-0.27890357,0.052542336,0.35497665,0.056486145,0.2818954,0.11631449,-0.034990814,0.116444536,-0.034191586,0.20321275,-0.033014424,0.021045381,0.12861867,0.019740863,-0.16013967,-0.49611905,0.012826984,0.08740496,0.17922479,-0.052558165,-0.34194356,0.31213686,0.0445188,0.30314615,0.03925637,-0.3354533,0.21713622,-0.022958936,-0.0718951,-0.19758543,0.08557114,-0.037363105,0.111945994,-0.118039206,-0.5173988,-0.21419106,0.054959316,0.028199032,0.09140044,0.1709696,0.1924606,-0.063990094,-0.095846005,-0.021160135,0.1175279,0.13434823,0.109013826,0.08954157,-0.116259634,0.07639533,-0.1364728,0.11534528,0.16033883,-0.06577304,0.035744656,0.06334945,0.019433476,-0.2860331,0.059841514,0.13826852,-0.19279788,0.08950237,-0.49552837,0.18317908,-0.07970805,0.28137168,-0.21059261,-0.17139679,0.34096968,0.22178662,-0.10353093,-0.23083581,-0.024772462,-0.09450852,0.082192555,-0.23344101,0.110471964,-0.06485815,0.18116291,-0.12156743,-0.16828269,0.17559995
notificaco,-0.079609215,0.10890533,-0.17764042,-0.12309235,0.02149371,-0.009056632,0.23405267,0.20013092,-0.21093252,-0.098143876,-0.030421732,0.20785747,-0.08050585,0.18711641,-0.040629093,-0.27564314,0.2594551,0.1685904,-0.0056210435,-0.26019615,0.060647592,-0.3719114,0.4382084,0.0621642,-0.032588053,0.0818787,-0.20442571,0.014803435,-0.058706798,0.13538627,0.469132,0.038627304,-0.006827116,-0.31944853,0.12167182,0.028702836,-0.12698026,0.25170574,0.04901766,-0.102851324,0.2718834,-0.22064209,-0.006662534,-0.12960203,0.004474143,-0.2587043,0.07377903,0.04304463,0.07995825,-0.16566397,0.22287351,-0.08075681,0.008960357,0.0056998385,-0.27896953,-0.3156508,-0.051796865,-0.3165473,0.050782524,-0.4376671,0.18089367,-0.25856262,0.44830146,0.08559497,-0.20116556,0.25228575,0.17978881,0.11581411,-0.5983403,0.17766032,-0.036450833,0.3219935,0.0016316059,0.35061812,0.22462897,9.91412e-05,-0.12630558,0.4398127,0.07115272,0.028205696,-0.18748909,-0.24419545,0.086132824,-0.017370744,-0.15206501,-0.43149403,0.2921173,0.05323017,-0.3662189,-0.087646015,0.21775699,-0.07714983,0.09491129,-0.22220652,0.21796685,-0.22088858,0.15532501,-0.0038944494,-0.07368475,0.008665915
atras,-0.11148419,0.04803248,-0.018589815,-0.1815921,-0.18577896,0.022982769,0.19878314,0.23924348,-0.18311249,-0.19136183,-0.1380402,0.16884482,-0.05307264,0.084144115,-0.1302211,-0.30391094,0.21340746,0.003330393,-0.0902518,-0.2801429,-0.13485755,-0.23199981,0.486819,0.20384166,-0.10388753,-0.0022575273,-0.1915375,-0.081335716,0.006538225,0.4058956,0.44596666,-0.11463113,-0.060025662,-0.35478568,0.025024412,0.1527179,0.063639134,0.17778438,0.13206096,-0.10185049,0.17912275,-0.27434984,-0.14080814,-0.18684584,-0.043063372,-0.34346974,0.055204574,0.06045289,0.05109819,-0.092402734,0.1810803,-0.2634048,-0.0012874512,0.13499552,-0.3291729,-0.1495844,0.09869367,-0.24668063,-0.11232961,-0.34473807,0.13574603,-0.3365398,0.5574942,0.017489543,-0.19607958,0.3030829,0.10885485,-0.042276923,-0.5706647,0.003912137,0.15083149,0.3392409,0.15897477,0.31334805,0.11011603,0.046627585,-0.20278385,0.39637166,-0.022086233,0.27288666,-0.0038804107,-0.29695687,0.18742774,0.014952394,-0.17655513,-0.36818823,0.15032695,0.18019235,-0.16142686,0.13847186,0.3701245,0.12045778,-0.04023965,-0.40526402,0.30341154,-0.10437438,0.13588092,-0.21095072,0.031261537,-0.075277336
cheg,0.25398186,-0.026056986,-0.0247889,0.07193935,-0.0024873326,-0.040501412,0.3311619,0.13263594,-0.2040408,-0.19939613,0.29058036,0.18130665,0.094514064,0.48666912,-0.07559428,-0.108917974,0.45127428,0.32210964,-0.032684606,-0.395343,-0.014266953,-0.18131231,0.47240287,0.1531577,0.09951392,0.13999498,-0.19960749,-0.029693889,0.06513169,0.014066485,0.37083408,0.21324098,-0.056336533,0.10979273,-0.14889376,0.10589666,-0.125158,-0.15905236,-0.14408104,-0.22681922,0.24877788,-0.19365697,0.11890884,-0.25684783,0.010676692,0.07421175,-0.1850677,-0.14836964,-0.07843714,-0.075849004,0.006444024,-0.35869414,-0.36678612,0.093253955,-0.29115915,-0.329008,-0.14719522,-0.41543847,-0.057291426,-0.47233504,-0.04494424,-0.32390422,0.57745427,0.1518807,-0.30913654,0.34897318,-0.2153661,-0.09134679,-0.46245188,-0.07970145,0.08113771,0.42419356,-0.07733132,0.35424268,0.1921027,-0.16079645,-0.00044826162,0.38880712,-0.15040243,0.21358669,0.06198212,-0.29296994,0.021724584,0.13404223,0.009871272,-0.230225,0.4453046,-0.1949424,-0.3439885,-0.004660492,0.037589863,0.013530377,-0.06484386,-0.13980037,0.17192583,-0.11601119,0.34140447,-0.25487712,-0.055067778,0.13320103
respond,-0.04375285,-0.08267404,-0.017726874,-0.045389883,0.13876735,0.015358237,-0.06666449,0.060173884,-0.03700801,-0.0401115,-0.08237195,-0.008086035,0.14570244,0.00058382837,0.099575035,-0.10962645,0.31762362,-0.15786965,-0.017879087,-0.25155523,0.02579653,-0.06622334,0.22564687,-0.21124448,0.10253863,0.03387631,-0.18234718,0.17110215,-0.10484184,0.18412583,0.14250731,0.05855794,-0.015746327,-0.36668298,0.0050903508,0.068041235,-0.1626077,-0.13139862,-0.121442415,0.016064974,0.046093233,-0.08302684,0.010317745,0.021740623,0.09965767,-0.15961602,-0.088581845,-0.1492617,-0.015410185,0.050499637,0.16190322,-0.13715434,-0.09611307,0.046462506,-0.11271479,0.021990925,0.07093463,0.232124,-0.023809368,0.077484466,-0.011371264,-0.14674102,0.16947553,0.19616131,0.01637917,0.2504379,-0.08013495,0.07911444,-0.21295685,0.029208498,0.093280286,0.16471164,0.17987196,0.07117185,0.08667319,-0.2617703,0.13101484,0.034210745,-0.034214877,0.061208393,-0.3992623,-0.030882616,-0.30066708,0.18171926,-0.100225836,-0.10342056,0.25373727,0.14491041,0.16383435,0.05278,0.12051412,0.096574716,-0.0954314,-0.026310321,0.14062406,0.030900868,0.090234995,-0.058629073,0.032700337,-0.08885071
solicitaca,-0.082107216,0.41846085,0.10115395,0.42586425,0.21830386,-0.2493908,0.2189984,0.09198687,-0.48705056,-0.055645544,0.4704565,-0.09165769,0.43896112,-0.228208,0.38195798,0.21399109,0.12184976,-0.36076173,-0.30101836,-0.5592736,-0.13605599,0.10657067,0.532808,-0.62527156,0.1385341,-0.06108412,-0.43163672,-0.11359315,0.21129826,-0.18830664,0.43042448,-0.21302034,0.37004703,0.44558072,-0.0282342,0.49887392,-0.0084819915,0.3856336,-0.057822537,-0.52405953,-0.25034314,0.14996074,-0.06934644,0.12187121,-0.21115851,-0.1523535,0.0383175,0.14114061,-0.17012785,0.26210645,0.047354262,-0.047522377,-0.22156881,-0.10875143,0.09438281,-0.38427085,-0.015676774,0.09271595,0.31889284,-0.19039787,-0.38631856,-0.18634126,0.8551437,0.025726374,-0.767177,0.27127805,-0.23669246,0.03845265,-0.4285001,0.06621113,-0.12074431,0.4442857,0.10088492,0.5705276,-0.11670325,-0.08594618,-0.18900396,-0.32515872,-0.19392376,0.0075780726,0.06630737,0.08766887,0.19242899,0.1284904,0.23996818,-0.15993914,-0.08298859,-0.36057514,0.3828808,0.4444758,-0.0445761,0.25470346,0.114071384,0.13646333,0.5727594,-0.030184105,0.04419456,0.11274331,0.29679608,-0.47344923
rap,-0.17457671,0.18344414,-0.27811846,0.3446106,0.16631648,-0.4178449,-0.08184882,0.3679121,-0.42049795,-0.30137476,0.46015424,-0.2702851,0.24911149,-0.20711252,0.29296505,0.24982941,0.24972521,-0.4076992,0.08400569,-0.5366098,-0.07742525,0.07421293,0.30520636,-0.62533754,0.28199002,-0.068308,-0.37926474,0.1440728,0.13563628,-0.23283026,0.42835593,-0.14267063,0.43529403,0.55941516,-0.1259233,0.40603507,-0.018054597,0.41607937,-0.05617697,-0.19248752,-0.086171165,0.2766663,-0.19107312,0.13516213,-0.28759032,-0.11623247,0.01864833,0.12876135,0.02164461,0.38440558,0.20275728,0.14863561,-0.23956959,0.13304442,0.13834976,-0.45161465,-0.008181242,0.021123832,0.38131443,-0.07350485,-0.42054725,0.043917187,0.9256663,0.08601113,-0.7453056,0.2502637,-0.3728485,-0.19008744,-0.37645417,0.052299976,0.10295253,0.5505219,0.03318851,0.29867133,-0.02377709,-0.076411396,0.17332602,-0.3386401,0.045669775,-0.08830589,-0.083267376,0.08198563,0.12608457,0.20022276,0.10620603,-0.2757442,-0.26640552,-0.24213514,0.5016769,0.40712252,-0.17815265,0.4176472,0.13523835,0.463828,0.55489236,-0.24703741,-0.069008745,0.2553923,0.41172925,-0.31753862
resolv,-0.052485082,0.20018272,0.059649296,0.107031666,0.02996,-0.43180147,-0.05123505,0.2610131,-0.51082444,-0.28323895,0.45581284,-0.27530354,0.4877574,-0.25128603,0.34481347,0.26869962,0.23122759,-0.3934324,0.020703018,-0.58265835,-0.17961855,0.027377533,0.5562626,-0.63843966,0.05146657,0.020215763,-0.47536635,-0.029178448,0.27596125,-0.06504626,0.27765244,-0.047058098,0.42010465,0.62877595,-0.021197863,0.5048448,0.08111523,0.24194351,-0.22025512,-0.22751708,-0.19761169,0.20461407,-0.26199418,0.15908046,-0.38322848,-0.2807526,0.052489452,0.014568204,-0.2699563,0.25773746,0.03779653,-0.026895938,-0.36726096,0.18546973,0.18505289,-0.32874858,-0.044174843,0.13295579,0.4180301,-0.06488593,-0.5522433,-0.2011786,0.8287354,0.09659925,-0.77776116,0.3262122,-0.4139652,-0.371675,-0.27255467,-0.029246854,0.04936715,0.61595637,0.0048751603,0.5320692,-0.07632357,0.08709497,-0.010796103,-0.41749674,-0.1916038,0.22938526,0.04342795,0.31355876,0.29049852,0.34523374,-0.012294814,-0.095707044,-0.182347,-0.07929637,0.6007121,0.48263845,0.008443614,0.37808615,-0.029662617,0.24625756,0.4731434,-0.09443246,0.1546661,-0.009449261,0.33149812,-0.4199087
atend,-0.05743681,0.43464968,-0.07170107,0.2862308,0.24398607,-0.41850066,0.0050209677,0.38532105,-0.5116197,-0.20224147,0.41724482,-0.19275297,0.31232652,-0.16468608,0.3698802,0.23461579,0.0606859,-0.3360291,-0.23562567,-0.54695827,-0.22255296,-0.000769121,0.4315871,-0.66494805,0.090050906,-0.14466766,-0.3190582,-0.04269586,0.26448783,-0.15290278,0.20010465,-0.1942455,0.38121113,0.50660264,-0.10719409,0.56072897,0.04117264,0.30507126,-0.22256646,-0.36662987,-0.2778756,0.26234695,-0.11747719,0.15494166,-0.2787508,-0.13996173,0.2623402,0.082613125,-0.20729192,0.3706086,0.11434841,-0.09697647,-0.18181376,0.12256619,0.01710097,-0.39287567,0.055485114,0.1891545,0.2933954,-0.15030916,-0.30946162,-0.16047114,0.79819876,0.024561603,-0.71790487,0.31614497,-0.19994894,-0.053096153,-0.46147898,0.15434839,-0.065188654,0.54306746,0.08187181,0.52588314,-0.114382416,-0.032218914,-0.10240093,-0.31189618,-0.15473124,-0.016619278,0.03900119,0.24356128,0.06542141,0.007366414,0.25781715,-0.12983237,-0.2353449,-0.3086775,0.49531975,0.46206266,-0.06590701,0.2830452,-0.040407788,0.22442368,0.514137,-0.13900548,-0.08168097,0.07588258,0.28993937,-0.3544345
aparec,-0.26904655,-0.07786645,-0.06275088,-0.52526945,0.12187664,-0.048953652,-0.44996706,0.2658687,0.12020443,-0.2945565,-0.25479013,-0.24114987,-0.20248358,0.12182116,0.31810322,-0.25131458,0.23777103,0.11438516,0.34831956,0.065789,0.20484771,0.07284473,0.42073256,-0.207641,0.50336725,0.28803682,-0.08857435,0.16467665,-0.149476,0.17657915,-0.08468047,-0.10728556,0.0703167,-0.59086144,-0.0024299284,-0.017837504,-0.37493876,-0.12267315,-0.24659573,0.2370148,-0.15555866,0.23111597,-0.14087972,-0.10231353,-0.033512287,-0.19323054,0.21599549,-0.25848594,-0.25455812,0.024381679,0.4453716,-0.083939284,-0.25714612,0.15177053,0.051781178,-0.063186385,0.16302128,0.065828115,0.10293734,-0.013627403,-0.40345183,-0.19173825,0.20442836,0.40817583,0.08166542,0.38298544,0.014477875,-0.18110932,-0.2657803,0.39826718,0.31352264,0.31026232,0.17627466,-0.01519391,0.14433293,0.03372626,0.376235,-0.27104348,-0.13578904,0.07632328,-0.71868384,-0.0782467,-0.081854016,-0.061828043,-0.09835852,0.03798345,0.26187387,-0.1761214,0.038163178,0.14103782,0.0027670907,0.043771487,0.1023607,-0.3607339,0.10035842,0.28804773,0.1419507,0.063891634,-0.007317933,0.11018129
consegu,-0.3362257,0.13592795,-0.19928865,-0.45193642,0.16580199,-0.11904535,-0.5061292,0.17926088,0.052054577,-0.13794115,-0.24336499,-0.108980134,0.018963113,0.11742672,0.4559999,-0.06421389,0.2971023,0.27160785,0.13504685,0.010261353,0.33344442,-0.036571663,0.5687508,-0.3161607,0.5619439,0.1604668,-0.037897255,0.06737806,-0.11423095,0.19218728,0.15331031,-0.04844598,0.18816371,-0.6335702,0.11014104,0.13839877,-0.2795281,0.13376166,-0.28496483,0.23400615,-0.082285166,0.1311881,-0.07885592,-0.22283606,-0.06165872,-0.13482016,0.21880738,-0.21471444,-0.16766655,-0.069572955,0.5190347,-0.17390233,-0.40824762,0.16668007,-0.057933606,-0.08073749,0.2658873,0.16798462,-0.030419715,-0.013615136,-0.21417898,-0.10264746,0.28924784,0.32817298,0.1360102,0.3097139,0.112714104,-0.22143455,-0.26252925,0.42714384,0.2216118,0.13978356,0.03535065,0.23771793,0.1037617,0.087917045,0.3130001,-0.21621127,-0.12282216,0.15635371,-0.525565,-0.093223095,0.0043068393,-0.2347609,-0.14710493,-0.020090701,0.15255113,-0.089288615,0.087057225,0.1001522,0.033769622,0.13147734,0.022248022,-0.3420418,0.046532232,0.14007333,0.25825047,-0.029051531,-0.13936117,-0.002392809
vez,0.016764276,0.06227871,-0.21435313,-0.6206411,0.16487053,-0.3874923,-0.22062565,0.5367667,0.24057144,-0.26091856,-0.052777898,-0.52128273,-0.40874517,0.22438253,-0.24470703,0.21415353,-0.14015014,0.16813543,0.19831508,0.018243605,0.40242276,0.34983084,0.20649882,-0.056716785,-0.0066558234,0.12109209,0.51459485,-0.1397527,-0.08241114,-0.24292055,-0.18226898,-0.10306521,0.25375745,-0.6568499,-0.15527695,0.049830947,0.24357082,-0.031600907,-0.618564,0.2321123,0.13326664,0.11804672,-0.021250803,0.057883646,0.45027015,0.4407508,-0.26500157,-0.29482448,0.14360353,-0.004086054,0.06640696,-0.103191294,-0.06719525,-0.28449228,0.14917006,-0.15879725,0.29291493,-0.012504007,-0.039584387,0.21377732,0.001923477,-0.2637163,0.15278286,0.36799034,0.1942186,0.2470937,-0.41606173,0.13175431,-0.07315832,0.4538452,-0.023337511,-0.0468559,0.4269642,-0.050151702,0.18195486,-0.24510099,0.55348593,-0.50610733,0.040851273,-0.039779242,-0.34937802,-0.14647333,-0.49503186,-0.3528623,-0.16217722,-0.10302894,0.058862258,0.052902676,0.10351636,-0.03697716,0.23807739,0.20223287,0.28626323,-0.004388281,-0.21807723,0.18539661,0.027757451,0.22387381,-0.11043948,0.14700694
duas,-0.17010626,0.057759896,-0.21008664,-0.36163226,-0.07164009,-0.36827645,-0.37063122,0.43971753,0.0016961438,0.0025103567,-0.16016944,-0.45744652,-0.41096112,0.45868266,-0.21067227,-0.06390665,-0.16866744,0.16531456,0.14219214,0.15075642,0.28582475,0.43359673,0.1998035,-0.06886597,-0.068657316,0.008448822,0.36334026,0.06591612,-0.18606678,-0.2981,-0.13980095,-0.28034335,0.2787494,-0.46648145,-0.16299552,0.27445123,0.212244,-0.20492812,-0.7374512,0.34847647,-0.00071545364,0.06493848,-0.19371359,0.20169021,0.4679692,0.46957988,-0.26499873,-0.42772135,0.18911186,-0.1471736,-0.06542363,-0.086592294,-0.01683259,-0.017949596,0.1933833,0.106712826,0.35415903,-0.06746447,0.08097906,0.2316299,0.028593952,-0.24944884,-0.04874065,0.28355166,0.23310567,0.16664244,-0.47814283,0.26388133,-0.022893056,0.6169652,0.049102552,-0.03516601,0.49052677,-0.120472506,0.3101144,-0.0063559874,0.45334113,-0.4383203,-0.026857855,-0.16735414,-0.5681482,-0.15440802,-0.6269948,-0.06319678,-0.24556817,-0.0050662225,-0.0910241,-0.13024196,0.3803323,0.28821984,0.12643112,0.17075434,0.16120933,-0.36577794,-0.2896772,0.39270878,0.11694538,0.26896486,0.009582462,0.05348807
trav,-0.010922818,-0.20766291,-0.11023995,-0.5350878,0.11942719,-0.23513056,-0.3730554,0.46564603,0.20000377,-0.012033478,-0.18072265,-0.36547643,-0.5242273,0.46329343,-0.35081482,0.26363364,-0.31034324,0.13199413,0.19556902,0.08492419,0.4267042,0.49723467,0.37571353,0.0027166798,0.08037109,0.2386373,0.6265828,-0.2343921,-0.16202053,-0.18659481,0.04687378,-0.25857976,0.23188145,-0.5942739,-0.062888175,0.15877216,0.1593874,-0.16198486,-0.7207127,0.011110847,-0.07484617,0.09022097,-0.22085108,0.11655916,0.48423967,0.4583684,-0.3895395,-0.33866715,0.19066155,0.006586002,-0.038740862,-0.16166902,-0.16311231,-0.11715053,0.23878656,0.02766357,0.14196992,-0.2447143,-0.13311155,0.056209993,-0.026135413,-0.25116405,0.21505286,0.51421046,0.09321654,0.36864358,-0.5804433,0.18979964,0.009522607,0.61945087,0.23161145,0.19357444,0.38151965,-0.056060813,0.20587708,-0.36427736,0.68688023,-0.6312077,0.14650728,-0.09834856,-0.39039814,-0.32289582,-0.6133536,-0.35461524,-0.2521545,-0.10278581,-0.09885201,-0.1656328,0.04905619,0.07054039,0.3143933,0.193988,0.36755836,-0.14895691,-0.42020866,0.41188765,-0.11037219,0.16921385,-0.15628499,0.07083031
informaco,0.5768334,0.2924353,0.105378404,0.4010142,0.05357472,0.18657535,0.55681163,0.22699627,-0.09571476,-0.17852299,-0.105665125,0.10154346,0.9387776,0.32737887,0.31272042,-0.69150555,0.39009506,0.31703246,0.10065987,-0.049723953,0.3257337,-0.38321406,-0.6270403,-0.20895433,0.03757055,-0.20292732,-0.22790736,-0.2925357,0.1904411,0.17601772,0.2298584,-0.32237184,-0.13743785,-0.2566681,-0.12895198,0.14454207,-0.59079045,0.29445553,0.30948156,-0.52527857,0.15178624,-0.21719053,0.41918093,0.7562743,-0.2886093,-0.42787454,-0.27168846,-0.55049866,0.30604324,0.008235753,0.25717664,0.013906795,-0.2696585,-0.3604784,0.13852115,0.3122459,0.17869675,0.048816632,0.049747325,-0.30472997,-0.301082,0.07766473,0.040527795,0.0736567,-0.23766445,0.7534859,0.08636073,0.05356954,0.11148601,-0.5041238,0.46329448,-0.1423073,0.18871337,0.19897375,0.43873677,0.38556904,0.57027686,0.8224219,-0.102548726,0.3588956,-0.6690202,0.091136314,0.29443628,-0.123518154,0.45315647,0.28220192,0.50474536,-0.30019143,0.028968869,-0.0077972654,0.35125485,-0.0065892884,0.106940225,0.26631853,0.20676017,-0.15885761,-0.24111922,0.13011995,0.05805283,-0.028675614
mesm,0.71039826,0.012743814,0.015798843,0.37995547,-0.008555217,0.13820407,0.4428733,0.3431565,-0.07880248,-0.22604749,-0.1183397,0.15397349,0.79912126,0.414813,0.35868073,-0.63391274,0.42472556,0.4434132,0.12335799,0.27866057,0.26305613,-0.43485287,-0.67977685,-0.143213,0.22591057,-0.15676892,-0.13139313,-0.039103203,0.23261274,0.11011439,0.33285588,-0.36335912,-0.17694664,-0.23306274,-0.13302608,-0.18092711,-0.39444533,0.19321382,0.41566473,-0.46122086,0.01906005,-0.17711763,0.48587245,0.7105265,-0.3645648,-0.2426125,-0.29721177,-0.36563295,0.39877322,-0.035865083,0.085123174,-0.19948573,-0.43878132,-0.31667346,0.02317397,0.46618548,0.13848941,0.15960604,0.20346,-0.24190132,-0.14422017,0.37618637,0.1753241,0.15354386,-0.22858934,0.8501332,0.17391527,0.13945532,0.010138996,-0.39729345,0.58050656,-0.068831414,0.23197179,0.051145084,0.55784124,0.31430537,0.4784347,0.76181716,-0.30517042,0.15744454,-0.6634502,-0.03576189,0.109574385,-0.03835824,0.4001705,0.15370329,0.43896842,-0.26376343,-0.12804681,-0.1637404,0.38102484,-0.08909911,0.16805395,0.4366635,0.16478117,-0.16337791,-0.009578011,0.09503865,0.046755753,-0.08539475
nov,0.64476645,0.20400986,0.100699335,0.45618105,-0.13175093,0.3007338,0.49803215,0.21194619,0.0527328,-0.19763596,-0.07325433,0.27081114,0.9601089,0.30020082,0.32422352,-0.63523114,0.46849602,0.26969042,0.014945163,0.06537754,0.22804937,-0.38889074,-0.7471483,-0.23638543,0.047480926,-0.11958532,-0.12705073,-0.21867925,0.21870935,0.3190991,0.20908508,-0.4535658,-0.060805287,-0.31123513,-0.20416375,-0.007929835,-0.644914,0.1550193,0.33302718,-0.5115409,0.12359941,-0.025353605,0.37380978,0.7559734,-0.34700114,-0.4862519,-0.24696217,-0.5230306,0.3426337,0.06321497,0.14347057,-0.11402219,-0.4730699,-0.31586057,0.10889485,0.4643782,0.23892337,0.10114228,0.19343345,-0.2804363,-0.299947,0.13087034,0.04917151,0.050950706,-0.24576198,0.8655998,0.06287676,0.015773952,-0.025990987,-0.4603069,0.5494399,-0.014067507,0.21856959,0.027193835,0.3789634,0.33324844,0.6855555,0.77746487,-0.17771752,0.21917397,-0.7518714,0.0709503,0.2339577,-0.061261468,0.40561467,0.20759925,0.36989266,-0.33986667,-0.1173691,-0.10650773,0.31243017,-0.039404765,-0.006026551,0.4040714,0.025403041,-0.30296928,-0.26971102,0.21703038,0.13269131,0.064302914
ped,0.7512243,0.18411966,-0.0093031395,0.48537627,-0.030285219,0.2731693,0.40222463,0.24954975,0.08936523,-0.07409816,-0.109267,0.27555433,1.0053573,0.3963988,0.28693417,-0.67649823,0.34353834,0.39262477,-0.09065304,0.07785117,0.23253956,-0.2579198,-0.8540408,-0.041707024,0.049892303,-0.34586653,-0.06411893,-0.17523493,0.0052987672,0.15633447,0.24409859,-0.47347963,-0.10526561,-0.34307012,-0.25886986,0.009954104,-0.50049615,0.26483136,0.3201824,-0.47080648,0.073639184,-0.12626189,0.29204136,0.7624105,-0.23162127,-0.44647828,-0.42300957,-0.5138082,0.41727692,0.093517214,0.18266925,-0.1859728,-0.42750046,-0.39685446,0.08322508,0.4729106,0.21846563,0.056783497,-0.050065685,-0.31568438,-0.16254449,0.28546563,0.05887175,-0.045739874,-0.29344657,0.90707827,0.07318366,-0.017981179,0.1438143,-0.5290776,0.5818089,-0.12655242,0.103251256,-0.017334664,0.4973972,0.46033183,0.6476132,0.7868588,-0.24842015,0.28579202,-0.6524848,0.06987633,0.026930287,-0.056532994,0.2727185,0.36953086,0.3842634,-0.24048236,-0.10621877,0.061366726,0.22626609,0.037422962,0.16854705,0.38986033,0.16335902,-0.30755344,-0.15639557,0.17863595,-0.0017447134,-0.09673598
suport,0.6680734,0.24445906,0.15513842,0.48934108,-0.06867584,0.30832395,0.39220786,0.21642865,-0.0025816564,-0.03545597,-0.027327884,0.28111964,1.0377992,0.27679276,0.2629807,-0.7011408,0.5194256,0.35444993,-0.056803484,0.16301942,0.24542883,-0.4688146,-0.7146205,-0.30153537,0.20955072,-0.10931964,-0.17634761,-0.07880548,0.2929086,0.23124786,0.3541409,-0.45153734,-0.06261516,-0.34089133,-0.08952066,-0.17166477,-0.5763584,0.15344934,0.3928598,-0.62288517,0.0064609977,-0.0949815,0.4730546,0.6546887,-0.46873742,-0.5034065,-0.23587568,-0.464231,0.25143442,0.040770724,0.22567302,-0.026686683,-0.503999,-0.31250954,-0.0031897703,0.2844213,0.15731598,0.13641886,0.09890655,-0.33132073,-0.22555773,0.29304817,0.04096721,0.12118925,-0.30768365,0.8152718,0.2804291,0.13345493,-0.0521619,-0.36487594,0.5705326,0.0069675255,0.16892853,0.07387598,0.40569788,0.31408328,0.6132783,0.7727049,-0.19917916,0.32266584,-0.7235697,0.054219447,0.2549351,-0.042226095,0.3339016,0.20232399,0.33972117,-0.35515174,-0.22329243,-0.064486645,0.37736636,-0.12816961,0.176444,0.32758623,0.045495022,-0.27182803,-0.20139182,0.28440633,0.017639397,-0.031530183
enquant,-0.11383684,0.25503364,-0.26903206,-0.23096931,0.17120188,-0.321451,-0.15805332,0.32450894,0.09992521,-0.5132262,-0.14432316,-0.15900311,0.19347282,0.32388437,0.44203043,0.21697725,0.20972435,0.51386213,0.16470155,0.24213396,0.1970601,0.17313522,-0.033281043,-0.060500186,0.542251,0.31618682,0.04374423,0.06686401,0.17311506,0.01851469,-0.05157087,-0.13302708,0.019337956,-0.5726479,-0.07710211,0.4550017,-0.08773255,0.12873545,-0.42775145,0.3798366,0.087373346,0.25310436,-0.06900533,-0.3036362,0.013991327,-0.224752,0.10325148,-0.340783,-0.15676539,-0.12313055,0.51992726,-0.11252609,-0.7153817,0.0039534406,0.038651716,0.16211347,0.16583541,-0.19332606,0.3427475,-0.22371729,-0.42108622,-0.20083342,0.43962875,0.51534843,-0.07342162,0.43886182,-0.24737269,-0.2489418,-0.31064162,0.48603493,0.24303494,0.025316577,0.04915442,0.19991523,0.073391445,0.08413642,0.14162162,-0.14876933,-0.19787075,0.27493978,-0.65896654,0.105366684,0.23424481,-0.2324123,0.11829286,0.10208717,0.21073681,-0.16665712,0.15985432,-0.08962395,-0.09411336,-0.03130513,0.1267665,-0.1823829,0.015102655,-0.112766996,0.056647565,-0.022400094,-0.16105172,0.23591472
receb,-0.12632903,0.04218901,-0.19485064,-0.49571264,0.003340535,-0.105196066,-0.34711885,0.16370232,0.19325396,-0.26305363,-0.20868228,0.08111002,-0.03877234,0.29346278,0.40549138,0.21460445,0.2945557,0.31822237,0.26791164,0.20947865,0.2604737,0.08028,0.15693103,-0.3068339,0.350116,0.3381376,0.17697431,0.118904,0.10696314,0.06570187,0.25184345,-0.2881685,-0.056448463,-0.62084335,-0.08842953,0.072283134,-0.08340018,0.37389374,-0.4040569,0.37935495,-0.047575083,0.4213789,0.0034171634,-0.28604594,0.07937593,-0.36511934,0.04746046,-0.22405338,-0.04662863,0.012059932,0.34721002,-0.018540759,-0.5823229,-0.018855222,-0.041066043,0.16506444,0.23941737,0.0069441753,0.3726673,-0.33055222,-0.42312336,-0.21442515,0.49440682,0.5594178,-0.3136372,0.49288628,-0.044124108,-0.28522298,-0.06565676,0.5548409,0.39750406,0.13879742,-0.034252863,0.20191723,0.2459973,0.019512061,0.38077793,-0.14824142,-0.19510713,0.23388258,-0.5894925,-0.10633941,0.06380498,0.0036193118,0.110686354,-0.042043243,-0.058774963,-0.11126726,-0.07278085,0.07360074,-0.070330255,0.019075843,0.3277863,-0.41692868,-0.09268686,0.19056183,0.30179304,0.07700607,-0.16017224,0.19350919
conclu,0.089543864,0.22510384,-0.4095939,0.23092556,-0.09283641,0.09884413,0.5006973,-0.042703286,-0.1412167,0.3117371,-0.20165218,0.3958708,0.40584034,0.34686264,-0.7594881,0.25557682,0.8161926,-0.08868626,-0.44960517,-0.24375069,-0.040543903,0.15824232,0.10571846,0.2502915,-0.26329556,-0.65535367,-0.4674589,-0.0021005184,0.13177577,0.16048974,0.7745694,0.17422208,0.053774245,-0.051468827,-0.23557313,0.07014238,0.28049818,0.054287646,0.20311856,-0.08310356,-0.5110756,0.029973458,0.11348121,-0.5688995,0.059767637,-0.21484461,-0.011712768,-0.38758862,0.39035717,0.11180192,-0.030780964,0.050601184,-0.45691064,-0.09911473,0.34708637,0.17407532,0.23081723,0.119985424,-0.17840225,0.22066858,0.13595223,-0.687619,0.31562263,0.18396503,-0.48796237,-0.07848461,-0.3421035,-0.6851881,-0.18973707,0.4388766,0.025568008,-0.53832465,0.14176652,-0.084355,-0.28691724,-0.6666208,-0.1684485,0.23298301,-0.27473056,0.2618276,0.1889107,0.1149746,-0.04371408,0.6853206,0.0743989,-0.30737138,-0.12144878,0.40828753,0.32227898,0.21590306,0.11680288,-0.2289983,0.08915592,-0.65986824,-0.07506675,-0.75428814,0.14528184,-0.03877882,0.14082609,0.031062616
etap,0.27575552,0.3365784,-0.43374473,0.26309118,-0.001957048,0.13556005,0.3356363,0.13145892,0.08371603,0.3583058,-0.42505297,0.42163724,0.40297693,0.408981,-0.8944656,0.39016733,0.87545574,-0.047118552,-0.3591274,-0.34738737,0.084268,0.2318285,0.0864344,0.06528753,-0.21228273,-0.4459281,-0.6107875,0.018540533,0.039275564,0.38133365,0.73853546,0.04334532,-0.13082992,-0.4691437,-0.29415113,0.21964923,0.3288892,0.13517717,0.049193982,-0.22094238,-0.4109166,0.02408628,0.017025286,-0.6788192,0.0075956825,-0.29321405,-0.07332665,-0.48400503,0.33551654,0.03302107,-0.2185229,-0.13484217,-0.5827635,-0.082837224,0.28661892,0.08193562,-0.03692353,-0.13847314,-0.46769264,0.12663533,0.15047812,-0.7104035,0.29409286,0.2718434,-0.2557541,-0.14092277,-0.13852142,-0.73408264,-0.15115456,0.1832998,0.032293737,-0.66293055,-0.0339482,-0.14158963,-0.34316307,-0.7311008,-0.37089086,0.17217734,-0.19395865,0.28328604,0.2989361,0.18960172,0.06645904,0.46464816,-0.11596866,-0.32085043,-0.11511914,0.56875175,0.033839907,0.00045386225,0.007714689,-0.16470885,0.25076452,-0.74811846,-0.2728168,-0.73139906,-0.21933998,0.12803608,-0.088508174,0.33740512
algum,0.066794336,0.1461434,-0.48384497,0.27575928,0.070106104,0.27512202,0.5094742,-0.065935165,-0.08227147,0.4612402,-0.39462844,0.53849316,0.40286535,0.38263127,-0.88721246,0.24036713,0.83320516,-0.11486696,-0.3307994,-0.28095132,0.077500165,0.17685527,0.14810117,0.16799855,-0.33377013,-0.5933611,-0.4589929,0.14560728,0.010526195,0.41742346,0.66949993,0.12656613,-0.090758115,-0.07226584,-0.3139405,0.17371355,0.12218953,0.13423713,0.16585438,-0.01897075,-0.36324763,-0.0015991813,-0.0301684,-0.5516823,0.05071022,-0.28508332,0.045758847,-0.4778379,0.4954099,0.054815233,-0.087641746,0.003309937,-0.47816116,-0.09797341,0.18074396,0.25590622,0.10250178,-0.08037692,-0.35106874,-0.010059517,0.11120437,-0.73900664,0.23054306,0.14174157,-0.51775014,-0.06191329,-0.20236014,-0.68388045,-0.23362277,0.41850436,0.10232056,-0.5403405,0.037945785,-0.16232072,-0.2920994,-0.7885337,-0.10313719,0.24824028,-0.2582278,0.36185157,0.17563108,0.17953524,-0.07823485,0.682909,-0.01107356,-0.39628366,-0.23559147,0.5397707,0.15781449,0.09343887,0.2177547,-0.24622732,0.1928296,-0.85091597,-0.30905887,-0.78279287,0.15157652,0.06467153,0.06023805,0.21097115
repet,0.118000865,0.25530946,-0.48126042,0.21179815,0.03561407,0.20998505,0.5054777,-0.15096551,0.1156405,0.5450921,-0.266624,0.3495701,0.34864613,0.44869375,-0.99499434,0.32018062,0.91908777,-0.040152285,-0.45718682,-0.033516776,-0.021847919,0.32547504,0.14035669,0.23541239,-0.2539126,-0.5967822,-0.42465356,-0.024324415,0.016004674,0.25102225,0.8393203,0.037137832,-0.08565339,-0.29271752,-0.39465323,-0.030191932,0.2680871,0.18521208,0.23168077,-0.12791795,-0.55440867,0.048783157,-0.05366929,-0.7201196,0.07176597,-0.11507892,-0.088603444,-0.454761,0.47673163,0.098142326,-0.19130257,-0.12719998,-0.50459313,-0.20147774,0.4000056,0.24344492,0.2655856,0.056438275,-0.28750855,0.24329723,0.05334583,-0.8967728,0.3249429,0.23233911,-0.4361748,-0.120571524,-0.45280123,-0.7036071,-0.14318979,0.4507923,0.12464452,-0.57110703,0.1812894,-0.2206598,-0.40160924,-0.8425524,-0.23478061,0.10345749,-0.24569404,0.19838887,0.17310105,0.061721105,0.061359882,0.5384793,0.1360737,-0.4878917,-0.23476158,0.41166964,0.26700333,0.056752693,0.10266812,-0.2256636,0.2480344,-0.9431921,-0.25884998,-0.6541606,0.16958427,0.12306188,-0.065751694,0.14210998
precis,0.3099841,0.24934699,-0.45498365,0.22688878,-0.097622424,0.20472053,0.44269592,-0.060101032,0.040090747,0.35070947,-0.3401218,0.47110224,0.53821266,0.4787106,-0.8164607,0.42436007,0.9349706,-0.015366073,-0.34822062,-0.2682708,0.09261432,0.14519732,0.07813579,0.2956968,-0.14771149,-0.5305189,-0.44766325,0.048048925,0.17130141,0.27765173,0.7733704,0.17379662,-0.0031395662,-0.25730908,-0.3442631,0.13140157,0.28938818,0.0668696,0.01902745,-0.11047933,-0.48059744,0.18463114,0.15433426,-0.6712943,-0.0069160904,-0.24469602,-0.10164366,-0.49261588,0.2867938,0.17088825,-0.25635326,-0.051815495,-0.66622186,-0.035286408,0.28702718,0.10576782,0.067167625,-0.009398046,-0.2896198,0.18916601,0.1487761,-0.73103327,0.320652,0.27317137,-0.49738762,-0.1358851,-0.3305967,-0.81403834,-0.003911587,0.28307322,0.13572276,-0.6652866,0.0498235,0.0022432597,-0.29960117,-0.729227,-0.25787807,0.25449842,-0.40563247,0.29745057,0.22060114,0.13731405,-0.052004524,0.6393207,-0.060827397,-0.24503307,-0.023671705,0.4669462,0.029531986,-0.062387954,-0.010946109,-0.10502466,0.075545035,-0.70429486,-0.27073306,-0.77147573,-0.103395514,-0.17994973,0.13261224,0.32748932
carreg,0.01255233,-0.061236925,-0.10706,-0.060923517,0.10931766,0.02937635,-0.034408618,0.010829776,-0.098782055,0.035135683,-0.20906757,0.14063,0.20459996,0.18339862,0.060192313,-0.10111484,0.3532231,-0.120664105,-0.11990535,-0.25491345,0.06219878,-0.05475285,0.07092807,-0.012883773,0.08820537,0.03239763,-0.17434515,0.29607302,-0.10780546,0.15272608,0.2065376,0.08177514,-0.16806674,-0.33330306,0.011655918,-0.03504453,0.006552811,-0.03143651,-0.06942527,0.18179204,-0.14063923,0.039718434,-0.011363141,-0.0833856,0.03859019,-0.21744797,-0.18333197,-0.05407706,0.052801497,0.00398706,0.13554887,-0.12118706,-0.29340616,0.026980802,0.021588769,0.065653615,0.09805246,0.1439501,0.013998678,-0.010331709,-0.084079005,-0.25840813,0.1457333,0.19294435,-0.079844624,0.23765865,-0.07776467,-0.06443825,-0.14168848,0.10772757,0.08852209,0.14961785,0.06768624,-0.018251786,-0.0084483065,-0.3190674,0.11849133,0.16743347,-0.047571223,0.14492325,-0.43276834,0.03797433,-0.26977578,0.34490907,-0.10759039,-0.055904534,0.15322705,0.2543879,0.12291519,0.019786833,0.12177633,0.10887834,0.074252665,-0.11658287,0.10848397,-0.056069985,0.1565956,-0.13028684,-0.084364444,0.053317435
simpl,0.11855884,-0.31205276,0.19562502,0.22203214,-0.10128669,-0.20819457,0.07213466,0.41868207,0.4069949,-0.004299078,-0.12691863,-0.07315344,0.30193555,-0.17700337,0.036788516,-0.16466004,0.06308803,-0.37389073,0.24757294,-0.42429438,0.39939538,-0.23209047,0.36882052,-0.50190216,0.038683083,-0.13561183,-0.40195218,0.20939152,-0.45283407,0.03416908,0.31018794,-0.022026666,0.465755,-0.63436216,0.058482386,-0.3114233,-0.10424214,-0.09162377,-0.09829839,0.12628433,-0.10623765,-0.22893581,-0.1056196,-0.16670312,0.19296533,-0.23133127,0.22444253,0.091262676,0.013089833,0.039607834,-0.021434745,0.027310336,0.07203272,0.28558797,-0.010566661,0.019740717,0.085308306,0.04365967,-0.16688783,0.45646822,0.12377688,-0.103089966,0.0368292,-0.02358089,-0.01502178,-0.13621286,-0.01664327,0.0766281,0.05003984,-0.2316531,0.07640628,-0.05861006,0.3216769,-0.0664445,0.34473848,-0.15168689,0.063579865,-0.123521894,0.084961675,0.0588816,-0.053516664,0.043667037,-0.35044122,0.2319314,-0.54558563,-0.1981492,-0.046188507,-0.0999904,0.1813222,0.09685738,0.12347414,0.10164635,0.14911264,-0.25999972,0.45891076,0.14346908,-0.34089434,0.109148785,-0.17799833,-0.44167015
fic,0.16557753,-0.49488163,0.24860151,0.13789617,-0.097022586,-0.13837387,-0.06553981,0.12623112,0.58002055,0.04243316,-0.03271292,0.1317922,0.42924353,0.007986322,-0.12705202,-0.13086522,0.036413826,-0.19335668,0.10222097,-0.22758113,0.16328682,-0.16304332,0.32982302,-0.3846563,0.24718477,-0.17698951,-0.3184658,0.2944094,-0.34544763,0.2800172,0.08973453,0.16281398,0.46807373,-0.6481935,-0.04498252,-0.023885552,-0.2547319,-0.36057454,-0.022158947,-0.101667956,-0.016153218,-0.355366,-0.028725686,-0.20089476,0.46811825,-0.22534111,-0.06094679,0.048097774,-0.009229216,-0.05226993,0.26890635,0.055293474,0.059655458,0.062130235,-0.09377116,0.023888258,-0.035763517,0.097725525,-0.1673337,0.40021968,0.2919074,-0.12484706,-0.01610969,-0.013519517,0.19712758,-0.08124689,0.04166948,0.14560375,-0.015419944,0.020348325,0.06404961,0.04500918,0.21030809,0.012020249,0.44986925,-0.22597143,0.118309565,-0.17012712,0.1323826,0.31741673,0.042617,-0.038792487,-0.4602313,0.14023997,-0.48329592,-0.09917256,0.031375516,-0.1625364,0.11062784,0.31969076,0.34134865,0.10051358,-0.05161313,-0.39137623,0.48099223,-0.13726659,-0.33133757,0.17128627,-0.18937632,-0.5558638
atualizaca,0.15496829,-0.38935512,0.01869465,0.15552069,-0.0061805574,-0.03509283,-0.090673625,0.17392068,0.5336084,0.10564392,0.06399265,0.21960677,0.30854246,-0.107180655,-0.04899475,0.019216036,0.1495688,-0.31921777,0.027041346,-0.4389733,0.06846821,-0.096687794,0.36541134,-0.46233022,0.28132224,-0.15177917,-0.20883377,0.2782736,-0.34267068,0.24106267,0.23499985,0.0033342005,0.46224797,-0.48031858,-0.050921332,-0.21600927,-0.36210173,-0.3235016,0.0918954,-0.1240468,-0.012697687,-0.2468239,-0.12183045,-0.278229,0.36158434,-0.24881653,0.08013897,0.005388898,-0.030584231,0.18728387,0.06670805,-0.15093538,-0.048261024,0.21479611,0.056633953,-0.11239851,0.0968391,0.123596966,-0.23440503,0.39141816,0.11250103,-0.12565704,0.13655594,0.047699656,-0.030394938,0.051164955,-0.0030629386,0.13760154,-0.20767573,0.03720664,0.1576691,0.034974854,0.32925498,-0.07953932,0.163665,-0.32286546,0.1579246,-0.16281421,0.025025027,0.05680276,0.13796154,-0.06368683,-0.5039964,0.21096401,-0.25446558,-0.13354172,0.012881936,-0.12030805,-0.0137424525,0.22822078,0.022626147,0.13526022,0.006125748,-0.2720419,0.36340946,-0.019257171,-0.1099443,0.15659373,0.061410587,-0.47908404
consult,0.3795724,-0.14741674,0.028249811,-0.27258107,-0.12502134,-0.47361234,-0.29034674,0.5843937,-0.03328514,-0.45415002,-0.39000112,0.55564064,-0.47782832,0.46159938,0.21318196,0.22882378,-0.2501249,-0.22588001,0.5460027,0.5704824,0.094530724,0.4317844,0.50720155,-0.069024965,0.42074323,-0.0502554,0.34085032,0.26121867,-0.29105568,0.4465111,0.39803612,-0.6216454,0.02661062,-0.70517576,0.16066791,0.18056665,-0.29751292,0.09799104,-0.31388092,0.20541006,-0.70793504,0.19696653,-0.4083407,0.18189178,0.35524756,0.46792844,-0.25987643,0.067468084,-0.14533183,-0.22551823,0.26394847,0.0317637,-0.76133966,-0.61437625,0.48471764,0.34033456,-0.24820952,-0.12070453,-0.048693653,-0.15563963,-0.75384057,-0.2840095,0.09841865,0.5681329,0.09803964,0.59186685,-0.15151249,-0.334672,0.12198849,0.36039835,0.17770831,0.15571961,-0.010362433,-0.13598384,0.42154583,-0.28726816,0.31959754,-0.86990684,0.25903633,0.044764094,-0.28338966,-0.41863933,-0.08750454,-0.27423868,0.056343004,-0.05825684,-0.02806899,-0.45538983,0.5874185,0.35337183,0.17328681,-0.10044427,0.43121526,-0.44762006,-0.57401997,0.04769206,-0.033501033,0.24647333,0.087474674,-0.39321733
cadastr,-0.11623495,-0.25890166,0.030608006,-0.46557817,-0.016884409,-0.24959365,-0.33869392,0.52570826,0.37201428,-0.07854644,-0.34288853,-0.28634328,0.24895638,0.12306564,0.11279429,0.30575362,0.026700424,0.37863415,0.05442545,0.056307364,0.25968626,0.456037,0.15756235,-0.035531223,0.20249574,0.23942271,0.108387515,-0.13848837,-0.3144725,0.15684761,-0.35416648,0.1365378,0.21263523,-0.7870153,-0.51576746,0.1640241,-0.2304413,-0.59208894,-0.43764886,0.38677418,0.3865244,0.1437742,0.03373832,-0.24887322,0.6409972,0.12694892,0.300554,-0.5427497,-0.20489027,-0.13155034,0.016057035,-0.411934,-0.27176654,-0.05979652,0.06543897,-0.13776799,0.050386533,0.33555397,0.3421816,-0.30308357,0.069825426,-0.16988505,0.111745924,0.33494744,-0.027384195,0.5145926,-0.25151998,-0.13765281,-0.11647447,0.36448127,-0.0057749,0.10260679,0.37665588,-0.22261867,0.28190342,0.2541769,-0.043167744,-0.27059448,-0.37508178,0.7720075,-0.1717578,0.10550894,-0.44093952,0.110052526,-0.0317722,-0.027566267,0.36588416,0.22077519,-0.11826042,-0.16801989,-0.03106852,0.0506343,0.2900573,-0.4979028,0.21281339,0.22745143,0.2048629,0.20718785,-0.29490396,0.2244246
limit,0.37148422,-0.0037566181,-0.0056356206,-0.20511906,-0.12010406,-0.43433788,-0.2799329,0.467207,0.018643683,-0.36364004,-0.13308702,0.3425861,-0.27061293,0.32223833,0.39458105,0.16133615,-0.2807889,-0.021934288,0.3422581,0.48697963,0.29820943,0.2885192,0.31315848,-0.079128355,0.13439183,-0.010174383,0.27930802,0.32446244,-0.18593575,0.1908272,0.22839364,-0.46909073,0.1761157,-0.5979941,0.29119995,0.077750325,-0.119762056,0.13257356,-0.47985816,0.31521028,-0.4328088,0.20336202,-0.1622487,0.16278873,0.3010047,0.44772583,-0.25415626,0.11797811,0.026762215,-0.22724576,0.25335297,-0.026351005,-0.6313732,-0.68447036,0.3885158,0.2260987,-0.14295383,-0.004325266,0.06935633,-0.17893423,-0.50302035,-0.017275063,0.033246845,0.390692,0.054673154,0.45372623,0.071917206,0.018737357,0.034788445,0.30410984,0.02474365,-0.024700921,0.048234686,-0.08314136,0.34652588,-0.056035835,0.36822578,-0.6717854,0.12766394,0.076776244,-0.4402035,-0.23838079,-0.22912139,-0.071519814,-0.06738397,-0.082603015,-0.05953419,-0.29003215,0.47455102,0.24195173,0.17254907,-0.045854352,0.3599496,-0.1887928,-0.44066417,0.028207596,0.11756799,0.37271947,-0.14211807,-0.33168358
pagament,-0.06318024,0.057164136,-0.35879412,-0.045209914,-0.16345131,-0.075925834,0.059082218,0.46734,0.37461346,-0.14652748,0.0753437,-0.661174,0.08325738,0.19834888,0.107543774,0.47259566,-0.06797418,0.49432084,0.26250777,-0.2292904,0.15492636,-0.40936473,-0.19528538,-0.17991269,-0.09158776,0.19979589,-0.14568725,-0.07648363,0.025254348,-0.43258622,-0.27908388,0.027705114,0.5983842,-0.7404511,-0.09406392,0.090609275,0.36731207,0.1973192,-0.67095214,0.42739695,-0.021313012,0.35421577,-0.19126576,-0.15754153,0.50528973,-0.41168994,0.21362269,0.028397419,0.16040967,0.06270908,0.19426739,-0.09279559,-0.29826045,0.045551743,0.2558998,-0.21208686,0.27430516,-0.1579737,0.61744756,-0.088094555,-0.34919178,-0.1318877,0.16704525,0.25912008,-0.14933434,0.05229707,0.08195362,0.55928755,0.088944905,0.05213141,0.45904183,-0.10143337,0.39438102,0.4902837,0.38931352,-0.08688166,0.35278127,-0.30252713,0.09225907,0.23705493,-0.80304754,-0.109129064,0.036646444,-0.12933904,-0.0143494075,-0.2907389,0.0849987,0.021102779,0.18628466,0.24267665,-0.13169767,0.3318595,0.26115265,0.1477235,0.7477795,0.51440585,0.13993952,0.45492572,-0.26956624,0.2862842
atualiz,-0.186509,-0.38296807,0.18166406,-0.42703205,0.026841782,-0.23102714,-0.1474171,0.3372577,0.31971028,-0.12471287,-0.3420454,-0.32063666,0.14558022,0.1326231,-0.014872284,0.4127759,0.110505916,0.44422543,0.22797124,0.030946441,0.07987459,0.565404,0.26234826,-0.20038013,0.42743272,0.40515515,0.018836921,-0.07781349,-0.37542054,0.1619826,-0.366449,0.1409684,0.23277321,-0.7423677,-0.6776539,0.2575473,-0.27592137,-0.61148185,-0.47531605,0.3553518,0.26091617,0.09902011,-0.098154,0.031170024,0.69946676,-0.016354142,0.30456218,-0.6889812,-0.15099049,-0.07492953,0.041322485,-0.29726955,-0.23691648,0.0068571637,-0.046286535,-0.043556724,-0.017980278,0.37466714,0.2856277,-0.32653394,-0.037748635,-0.18869989,0.1794069,0.45776668,-0.12983187,0.58749634,-0.479368,-0.21211872,0.14191845,0.32584548,0.023612734,0.20568815,0.3952507,-0.20386109,0.30514312,0.23692732,-0.16466041,-0.2115049,-0.38020304,0.77382743,-0.1654678,0.010889084,-0.3250519,0.0022609197,0.18847561,0.07873798,0.49006763,0.082228035,-0.12722713,-0.23881876,0.025607161,0.18205187,0.31726608,-0.5382618,0.3639994,0.3058523,0.2829138,0.19683547,-0.38330048,0.18742399
transferenc,-0.72257733,0.068807304,-0.35040152,0.030563938,-0.1981389,0.24084103,-0.5105736,-0.25164825,-0.4751952,-0.4573919,0.022243865,-1.074754,-0.652246,0.44539207,0.16434982,-0.746372,0.06223663,0.04429876,0.5140678,0.46446273,1.0781487,-0.115786076,0.8598269,-0.23161294,0.15547304,0.41747946,-0.2998961,-0.6117163,0.8595814,0.074077904,0.012925524,-0.03408278,0.420851,-0.2846904,0.49879622,0.39472076,-0.09860703,0.84030306,-0.23157418,-0.20616046,0.08125468,-0.088523686,0.40930796,0.08585425,-0.35883737,-0.03776128,0.28217742,-0.9713239,0.37284723,-0.1027778,0.45441264,0.13522547,0.52666235,0.10799111,0.17150597,-0.043122154,0.1928145,0.17931888,-0.3007082,0.024694774,-0.2615962,-0.063855916,0.25689587,0.62832236,-0.23418142,0.14963229,0.038761575,0.40851736,-0.44508222,1.1729326,0.24559648,-0.40592077,0.5763219,0.40113124,-0.26077193,0.21274228,0.32913643,0.58453614,0.19359493,-0.16020498,-1.11031,-0.6282946,0.3841986,-0.38826427,0.08107577,-0.15661618,0.5621768,-0.25462276,0.33713302,0.23509409,0.0908352,-0.41278452,-0.5262783,-0.04765495,-0.26487124,0.84344953,-0.34547117,-0.13457425,-0.39169085,0.569151
faz,-0.55481666,0.29718778,-0.39925805,-0.28933254,-0.29756424,0.20407298,-0.5652719,-0.40725508,-0.6480533,-0.39664945,0.08227669,-1.0217175,-0.6128505,0.531819,0.29064944,-0.9128481,0.39351222,-0.194909,0.4075056,0.621021,0.97966224,0.19845654,0.88208133,-0.09248392,-0.05269826,0.5073273,-0.6578571,-0.5159762,0.742802,-0.20505485,-0.154496,-0.17940351,0.29589903,-0.14109895,0.26471922,0.38374108,-0.21258697,0.7097365,-0.4186911,-0.13993637,-0.18723369,-0.04606297,0.3766167,0.250611,-0.41375822,-0.03796872,0.39696538,-1.034226,0.116766304,-0.042948272,0.18353556,0.2744202,0.48542264,0.38018107,0.41068378,-0.26833108,0.23577403,-0.17335004,-0.28207508,-0.20464608,-0.086639784,-0.113497734,0.04675428,0.67728996,-0.14652967,0.23623838,-0.059113134,0.08692048,-0.43645638,1.1706858,0.26355568,-0.40202814,0.63566905,0.21301235,-0.20059972,0.37886634,0.15681377,0.6905643,-0.13780439,-0.37822565,-1.1341621,-0.547232,0.09902016,-0.14728126,0.13709642,0.11434395,0.40960878,-0.13708319,0.0807661,0.21395287,0.059527986,-0.3426399,-0.430923,-0.43862695,-0.12110348,0.68320596,-0.49889007,0.14355648,-0.27238196,0.35298607
baix,-0.22493534,-0.04156409,-0.21103154,-0.2863421,0.16618049,-0.18084393,-0.12225186,0.089013204,0.08401719,-0.03342137,-0.27816686,0.033364132,-0.033366557,0.34210065,-0.09731059,0.054135803,0.33195835,0.0035388202,0.045010496,-0.048241407,0.24982908,0.15548523,0.2135236,-0.07568362,0.2833561,0.17796977,0.05973492,0.2729458,-0.1686388,-0.06754607,0.112101644,0.089718476,-0.22968943,-0.47617722,-0.119286105,0.043968715,0.16613871,-0.07526124,-0.28355098,0.33187962,-0.13462274,0.2701777,-0.19519226,-0.29430133,0.14623885,-0.1368901,-0.17148764,-0.25243452,0.074582815,0.021171758,0.11937919,-0.06436133,-0.3893078,0.12973726,0.17762765,0.14281526,0.19175261,0.052285768,-0.0024413306,0.008585825,-0.19276652,-0.30766925,0.08550049,0.2674754,0.037081517,0.22051355,-0.40523425,-0.18514697,0.07553885,0.3602014,0.16259879,0.14576064,0.15524934,-0.012386089,0.009916172,-0.48247203,0.14388525,0.00053122075,-0.07996998,0.08228606,-0.56529415,0.15188532,-0.24867103,0.21368375,-0.09685845,-0.037728593,0.24700071,0.22832792,-0.07392481,-0.15545045,0.098177746,0.09043906,0.21954831,-0.304794,0.042112675,0.14206295,0.05690559,-0.1769092,-0.28631458,0.22185376
bolet,-0.50562733,0.4019049,-0.4373188,-1.2293321,0.9122837,-0.6282315,-0.15424773,0.294565,0.5953719,-0.3452998,0.08342995,-0.25277,0.060075462,-0.016867442,0.060277034,-0.2296114,0.2576498,0.52016306,-0.2971487,-0.3549887,-0.0832841,-0.10951576,-0.16201507,-0.91160685,0.8128417,0.023122014,0.93577725,-0.1343891,-0.29951128,-0.5062132,0.15419924,0.015686017,-0.13842025,-0.61333185,-0.13048448,0.30811158,-0.35711268,0.17998888,-0.15183942,-0.26920354,0.69350874,-0.0198023,0.15315086,-0.77148575,-0.3032962,-0.53564703,-0.1005915,-0.10532933,-0.13197702,0.40321782,0.47371456,0.03165437,-0.12706953,0.51354736,-0.8949464,-0.07514279,0.9806649,-0.37171826,-0.17415082,0.54698086,0.6865037,-0.21576543,0.57979864,0.043099687,0.14487681,-0.012112784,-0.7554593,-0.33352062,-0.83244044,0.70132506,0.21956815,0.30793634,0.07412492,0.59030336,0.52771264,-0.4834681,0.47629648,-0.3261758,-0.37616345,-0.57396215,-0.05496125,0.6972233,-0.8389449,-0.4396824,-0.38153425,-0.057083946,-0.31388047,0.069821015,-0.6205704,-0.23006324,0.33362898,0.09150335,0.30503324,-0.12209535,-0.51389104,-0.05362323,-0.05236794,-0.6615897,0.09779642,-0.42909935
emit,-0.3371829,0.13902673,-0.53562295,-1.0780137,0.88071626,-0.5898986,-0.033125244,0.2018232,0.639836,-0.1420912,0.38671556,-0.06234795,-0.1062566,-0.25396577,0.026282033,-0.07584661,0.3653548,0.5421452,-0.29528293,-0.14949083,-0.099358365,-0.2807567,0.09260023,-1.0953972,0.724251,-0.007489441,0.94005436,-0.18924724,-0.06014425,-0.53892744,0.41052905,-0.25765556,0.06295915,-0.3993406,0.12126888,0.20580219,-0.3827328,0.09984279,-0.01642708,-0.25858188,0.80510825,0.02316716,0.16557351,-0.68563765,-0.20936349,-0.4315589,-0.32627064,0.09636209,-0.17553926,0.5309708,0.433648,0.04142133,-0.09985453,0.61891025,-0.908916,0.21808203,0.9673207,-0.22901511,0.20048916,0.3902078,0.42199534,-0.23945881,0.69802743,0.12932006,0.06803279,0.4128965,-0.8038069,-0.13938785,-0.8573971,0.57013583,0.08390983,0.46684647,0.0758301,0.5983551,0.5718853,-0.5387622,0.5338431,-0.45026898,-0.39457974,-0.5647535,-0.483082,0.7248468,-0.6938885,-0.29650083,-0.32689264,-0.12505756,-0.15330409,-0.36566767,-0.548726,-0.37587735,0.0055346102,-0.009448022,0.20459864,0.04092375,-0.29759082,-0.11743758,-0.057549603,-0.5292057,-0.15802526,-0.4712306
acompanh,-0.18084575,-0.12681022,-0.38114414,-0.11155091,-0.082820356,-0.19154651,0.0070780506,0.42239702,0.42143625,-0.36357093,0.17408885,-0.7669819,0.003645546,0.32573462,-0.041162755,0.670661,0.04300005,0.5499237,0.44919792,-0.3736657,-0.0040832376,-0.3528737,-0.17247012,-0.3032834,0.109089285,0.15407172,-0.14538044,-0.08142008,0.22669269,-0.54860634,-0.3027771,0.15436886,0.6055036,-0.5963709,-0.17411098,0.06189749,0.38711682,-0.027041381,-0.70034486,0.38822567,0.02209397,0.37984565,-0.35514513,-0.13325591,0.4182147,-0.48746306,0.0958006,-0.07814166,0.032930553,0.12033704,0.20902298,-0.09391672,-0.2793102,0.33547664,0.2794593,-0.004620946,0.41394812,-0.27068135,0.6173544,0.07791164,-0.48653084,-0.23679358,0.36985794,0.43337974,-0.37414014,0.16626167,-0.13305391,0.3612215,0.30307415,0.03291647,0.57832307,-0.18914694,0.47547042,0.5763007,0.2843518,-0.30348673,0.36751604,-0.35161242,-0.10952775,0.16644478,-0.8585727,0.0017561931,0.23902473,-0.04561209,0.20343368,-0.004200185,0.29326305,0.02050923,0.22738773,0.2565664,-0.084451735,0.43123838,0.0556176,0.2935019,0.7622888,0.6494818,-0.01930455,0.1825006,-0.26570964,0.50602764
integr,-0.14271593,-0.020082213,-0.16344182,-0.17972827,0.051649075,-0.21131656,-0.05983436,0.17086087,0.14182033,-0.17046453,-0.09995833,-0.10850789,-0.03249456,0.17635328,-0.1087973,0.22279866,0.17050484,0.06499365,0.17745192,0.034570795,0.17145756,0.18400496,0.18691246,-0.19077933,0.17481159,0.11954937,-0.026228366,0.0045009814,-0.015469526,-0.10229588,0.060018633,0.035700142,0.05241999,-0.36769778,-0.1287964,0.17623037,0.03832219,0.004379593,-0.30338505,0.11966585,0.008879936,0.15058842,-0.110489,-0.27994743,0.20672333,-0.09992597,-0.0049301637,-0.3016813,0.047709003,0.0008522551,0.101059444,-0.02909056,-0.27125606,0.033787668,0.10680252,0.0219784,0.12289744,-0.06731805,0.082671754,0.006237949,-0.09542062,-0.24261479,0.25948587,0.30971432,-0.11958612,0.17215502,-0.35035762,-0.13083784,-0.022429803,0.3407724,0.12028058,-0.00563449,0.19939648,0.10719212,0.15317088,-0.28527504,0.060513355,-0.19404142,-0.10137245,0.110043816,-0.28942364,0.020165082,-0.13938269,0.08303556,-0.07366498,-0.13271599,0.13375445,0.054632444,0.02601921,-0.026584186,0.05812178,0.054232214,0.13441071,-0.20667462,0.054666992,0.09594811,-0.07028881,0.06006411,-0.2051852,0.09179599
sald,0.3767663,-0.014169651,-0.07297061,-0.31409672,-0.021515682,-0.3638864,-0.27555576,0.45327657,0.05919465,-0.22156985,-0.38974312,0.59697884,-0.20956217,0.3810942,0.26446083,0.17502059,-0.12675083,-0.07230933,0.43192592,0.5259869,0.2225428,0.37047157,0.39863983,0.021183813,0.25214577,-0.12973225,0.26485136,0.3819652,-0.3532931,0.33063662,0.44005027,-0.44297022,-0.00921105,-0.69032437,0.19800094,0.0982912,-0.1476839,0.058836143,-0.3984139,0.3633858,-0.5423979,0.20407547,-0.24907254,0.012734934,0.25790095,0.47219053,-0.261983,0.08024772,-0.020895109,-0.30365035,0.3000948,-0.12092216,-0.78377014,-0.63266534,0.40367928,0.30875957,-0.15545715,0.012271992,-0.1380376,-0.22442533,-0.47525886,-0.21829242,0.063743345,0.46739587,0.15005414,0.51969403,-0.0043724114,-0.32652497,0.033126354,0.33799013,0.018897902,0.021448178,-0.03162485,-0.20396689,0.3225122,-0.25187773,0.29987457,-0.68077433,0.1251363,0.1629715,-0.32957527,-0.2970916,-0.24353823,-0.1103712,-0.087767854,-0.1243106,-0.03038036,-0.1662378,0.41909418,0.19105457,0.2208558,-0.07184735,0.34166571,-0.39908043,-0.5366411,-0.15804225,0.18244772,0.33011848,-0.110228576,-0.37804675
virtual,-0.40754095,0.1831357,-0.3725807,-0.16365385,0.40544578,0.30258402,-0.6931074,0.3395589,-0.31512594,0.5844068,-0.59545135,-0.4586997,0.26448658,-0.20922293,0.2702756,-0.50162655,0.20992559,-0.7967413,0.61257154,-0.0046504135,0.16396508,0.025316527,0.35988906,-0.42339113,0.05673761,-0.537663,-0.38749427,-0.45549032,-0.6497159,-0.2609365,0.225495,0.011303175,-0.17149575,-0.6687817,0.14762038,0.10355826,-0.39685628,-0.49601683,-0.16784005,-0.4038781,-0.44177213,0.34665233,-0.4032934,0.36570543,-0.04522018,0.4946309,0.14150871,-0.43580055,-0.0937823,0.1538368,0.4029876,-0.29555878,0.08153453,0.3673449,0.75729537,-0.13763975,0.25173703,0.833997,-0.64776,0.21622287,-0.37206236,0.1236137,-0.6409696,0.15608482,0.89645207,0.31007886,-0.40367022,-0.4030356,0.1514088,-0.1445195,0.19778946,0.24306113,0.5544705,-0.16616197,0.09414617,-0.5373522,0.5474388,-0.6036085,0.24417095,-0.10926817,-0.97427016,0.05559371,-0.69790965,-0.5117363,-0.5252432,-0.14652675,0.42313233,0.38276836,0.5105253,0.52203166,0.31861812,0.13939491,-0.48649058,0.47071755,0.124522656,0.54658943,-0.12036177,0.509033,0.35609537,-0.47677368
carta,-0.35569057,0.08608083,-0.12374013,-0.68886393,0.36411008,0.2664746,-0.49232516,0.030992445,-0.31540287,0.5485858,-0.7444184,-0.5629649,0.30104446,-0.4133239,-0.08613607,-0.4444954,0.09676979,-0.6917829,0.560093,0.14715102,0.28978628,0.013404244,0.54295236,-0.59074503,0.3021154,-0.51196337,-0.120248996,-0.48395255,-0.38193497,-0.2860587,-0.020740444,0.4041493,0.051335987,-0.47648093,-0.075519636,0.2591831,-0.5383682,-0.45380184,-0.40846285,-0.36867672,-0.32430103,0.07961335,-0.09037361,0.27519536,-0.24964565,0.12215999,0.046078306,-0.78084284,-0.4280444,0.102923416,0.5364166,-0.07837039,-0.10800656,0.33281568,0.5654049,-0.3196842,0.5316521,0.9220274,-0.65525866,0.35242575,0.045040667,-0.21868813,-0.39001942,0.042971384,0.7955521,0.363153,-0.2690118,-0.5239519,0.0616169,0.016771398,-0.21789335,0.30031234,0.39867267,-0.11011042,0.2313859,-0.6767569,0.6247947,-0.6961338,-0.0937305,0.16110164,-0.7952375,-0.05110579,-0.7054074,-0.43850362,-0.42420733,-0.18690664,0.55585194,0.5815269,0.3795582,0.35471627,0.092776634,0.31057218,-0.5467878,0.2561012,0.27699205,0.43791202,-0.08430083,0.4311617,0.45575574,-0.5063225
performanc,-0.0071515944,-0.057228122,-0.0049834377,-0.09196895,0.039070398,-0.3126929,-0.11637874,0.2899921,0.091667086,-0.165067,0.0012307412,-0.014823089,0.056667954,0.026845343,0.17720756,0.038994495,0.035784572,-0.11301726,-0.027483756,-0.15019442,0.1879478,0.02830845,0.32668886,-0.22813924,0.066029765,0.013291275,-0.097299606,0.15461037,-0.1831952,0.038008776,0.13762699,-0.018655198,0.22578388,-0.34299067,0.028930774,0.045947134,-0.06249627,-0.007677368,-0.19120647,0.09285774,0.026083786,0.006096196,-0.018120613,-0.18875353,0.20292163,-0.0015623076,0.02527459,0.038205616,-0.049548466,0.03659369,0.10237728,-0.0525466,-0.14143565,-0.07715537,-0.012770801,-0.09211088,0.011236245,0.053603366,0.04509968,0.07012671,0.05670607,-0.07028363,0.18864803,0.12739223,-0.04247461,0.0816736,-0.051017005,0.05942774,-0.21139498,0.22057875,-0.059491746,0.090773396,0.12142244,0.04161485,0.21604908,-0.095620364,0.01797967,-0.21280429,-0.026512295,0.066598915,-0.06414346,0.052681714,-0.3210609,0.18567795,-0.26704156,-0.1536327,0.006774876,-0.033460006,0.10791662,0.064059705,0.105188474,0.0069966973,0.1321454,-0.18219604,0.11144662,-0.00029658267,-0.032575514,0.05393626,-0.11237538,-0.23982199
integraca,0.04725483,-0.021026887,-0.10127243,-0.07371716,-0.018796805,-0.1879114,-0.05813935,0.27096462,0.13512723,-0.06800603,-0.055364586,-0.12443271,0.048637126,0.10914632,0.047831517,-0.025647512,-0.0058368267,-0.07880139,0.00610882,-0.008560714,0.27464157,0.060246114,0.1522131,-0.1515303,-0.03765945,-0.06801592,-0.03613115,-0.037998866,-0.10694777,-0.055378553,0.05707072,-0.04378005,0.22490035,-0.4272993,0.02200625,0.05181569,-0.05451192,-0.0092602,-0.24519797,0.037455387,-0.028295182,-0.0022431088,0.04494638,-0.06711434,0.2439705,0.055742737,-0.05516126,-0.13010107,0.09344532,0.025397038,0.08705739,-0.03127024,-0.10162657,-0.12905125,0.13958368,-0.02215664,0.11812582,0.029178917,-0.020769216,0.1284734,0.05404883,-0.076165095,0.017357841,0.11969048,0.046139278,0.07611133,-0.09969622,0.121385485,-0.090686895,0.2076852,0.030117366,-0.12467146,0.22402315,-0.01760726,0.20455186,-0.1371007,0.19081911,-0.16199419,0.017760914,0.045039233,-0.22780882,0.029050648,-0.35551926,0.058029108,-0.18745527,-0.12540132,0.033018976,0.03409815,0.12876332,0.11284381,0.13549922,-0.023301402,0.107890695,-0.14178222,0.024553033,0.0864381,-0.08204822,0.1448208,-0.11379354,-0.16076136
dashboard,-0.050543737,-0.03245288,-0.06798935,-0.16079693,-0.0022200912,-0.33267713,-0.15721257,0.33410776,0.0925442,-0.17503056,0.07174882,-0.12873833,-0.031113686,0.061628968,0.16456662,0.05719318,-0.029766684,-0.087181926,0.020273287,-0.058278613,0.25879148,0.07944827,0.35101634,-0.23005222,0.09256192,0.045591887,0.024388967,0.039653674,-0.09485434,-0.04970446,0.053854343,-0.05167993,0.30685556,-0.36303815,0.04907785,0.11206634,-0.035148613,0.029901216,-0.3109707,0.09672194,0.0041489676,0.0705367,-0.04738674,-0.12547716,0.20984712,0.036817674,0.030635905,-0.019426757,-0.038113512,0.015832981,0.12434938,-0.031590693,-0.13974486,-0.08344003,0.09109503,-0.13168097,0.08267199,0.035989802,0.12552479,0.08531033,-0.04175258,-0.10255176,0.21548261,0.14552347,-0.058189776,0.09426646,-0.13663366,0.11415552,-0.19931354,0.26611146,0.017804572,0.08804139,0.1735792,0.10789117,0.20111462,-0.08789994,0.14837608,-0.30174753,-0.015703667,0.057208885,-0.17811312,0.030697025,-0.2726206,0.028801871,-0.2271178,-0.13737789,0.0077415165,-0.095195174,0.15296362,0.14761966,0.07172645,0.055490788,0.15189925,-0.14191997,0.11736118,0.1045445,-0.024431622,0.10798947,-0.080179624,-0.2080442
onboarding,-0.0041258703,-0.0077086515,-0.12310015,-0.16427512,-0.018896714,-0.12997629,-0.12939164,0.2433599,0.1301762,-0.04127145,-0.08470183,-0.12909004,-0.03986635,0.15941846,-0.02649618,-0.05999409,0.030906992,-0.028793003,0.0041730213,-0.014128511,0.32382697,0.014498813,0.2536944,-0.13132478,-0.036167808,-0.073606886,-0.030006398,-0.02631963,-0.08138369,-0.013032489,0.07360243,-0.059894357,0.23966579,-0.4935381,0.051597506,0.018763792,-0.018452797,0.041530438,-0.2136957,0.06613045,-0.048458442,-0.0068131397,0.03761156,-0.13049982,0.23500103,0.014587145,0.0256052,-0.17409146,0.100233085,0.011281549,0.09479174,-0.021428213,-0.062497415,-0.048011985,0.12285459,-0.038695637,0.17852588,0.056504615,-0.05415622,0.15302263,0.07678952,-0.12323729,-0.00015024663,0.1621625,0.038796593,0.053484187,-0.06842111,0.11398015,-0.124663405,0.32235387,0.050124794,-0.1543397,0.27580693,0.013983174,0.15243846,-0.18579581,0.1806799,-0.10013829,0.019777637,0.033727575,-0.26948068,-0.03595816,-0.35053575,0.059031155,-0.23169574,-0.13164143,0.011048283,0.03020987,0.10602381,0.115825385,0.11880398,-0.049515937,0.10483729,-0.26455364,0.0114187915,0.1320234,-0.06744354,0.11051141,-0.13388611,-0.098842055
usabil,0.024148932,-0.03786434,-0.12828343,-0.14557157,-0.072876334,-0.18922815,-0.1225631,0.24216905,0.096720055,-0.12429185,-0.10875627,-0.10956105,-0.054754026,0.16627401,0.01965741,-0.048520755,0.014509309,-0.019269397,0.09291868,0.104828954,0.34035173,0.14997585,0.3039106,-0.09821955,0.036497425,-0.012912546,-0.0043838937,0.019991405,-0.0768473,0.04194119,0.09790194,-0.115104094,0.26152897,-0.48072037,0.058058064,0.08358848,-0.07676615,0.049983792,-0.23708612,0.08398987,-0.07762138,-0.010921167,0.03603279,-0.081961416,0.2290364,0.10052339,-0.051424835,-0.18691851,0.06734783,-0.06939721,0.14349778,-0.026824573,-0.14506893,-0.18677272,0.17549093,0.009393126,0.08700221,-0.008039217,-0.033685587,0.07563827,-0.01756485,-0.14487647,0.04323292,0.23028146,-0.00514877,0.11781215,-0.08924697,0.056800317,-0.12375768,0.37700906,0.019801721,-0.1490074,0.23186725,-0.011320998,0.19565,-0.09454163,0.19007832,-0.20701468,0.00053650234,0.06574238,-0.24989513,-0.053595886,-0.27453792,0.024127789,-0.19524886,-0.14535706,0.01220645,-0.04119381,0.1398084,0.11425414,0.13131927,-0.07456764,0.13926354,-0.27477404,-0.0632957,0.06231628,-0.034013256,0.1632007,-0.14179018,-0.14134268
extrat,0.0480619,-0.036002055,-0.009301807,-0.12270936,0.009350496,-0.27859798,-0.038773675,0.32619965,0.061768766,-0.24474058,-0.0056178067,-0.050323483,-0.018571872,0.11695815,0.20424221,-0.036703773,-0.002595033,0.019851545,-0.001320938,-0.0206727,0.15069476,0.059143074,0.17432763,-0.10372068,0.04073016,0.07002551,-0.003566335,0.054799955,-0.11401958,0.03601292,0.07826548,-0.074169256,0.13053028,-0.3680647,-0.0036346281,0.08462044,-0.07559542,-0.028709838,-0.19556427,0.0662085,0.113936104,-0.020632919,0.044023044,-0.08669793,0.20114237,0.049616538,-0.09024361,-0.030834273,-0.006574373,-0.023616912,0.100680195,-0.11249194,-0.15182453,-0.13774538,-0.048444867,-0.028252808,0.052510288,-0.03578517,0.08539335,-0.03782668,0.027821515,-0.036238607,0.12844424,0.12974755,-0.013788664,0.21406338,-0.044163562,0.123738356,-0.24160428,0.18751845,-0.010820038,0.11058601,0.13786143,0.015968917,0.28697327,-0.029710708,0.10159482,-0.08631728,-0.021588448,0.08376243,-0.17195131,-0.0025637723,-0.2656828,0.10731575,-0.15863745,-0.106003426,0.09704893,-0.030953212,0.025257563,0.009880322,0.13865411,-0.021266509,0.1468545,-0.12217799,0.017587857,0.06343196,0.035210196,0.041599788,-0.09640731,-0.11625566
login,0.002586585,-0.0669237,-0.08448381,-0.16110201,-0.03377517,-0.21857664,-0.09018422,0.28217465,0.12900643,-0.15241972,-0.10116949,-0.03461466,-0.032566294,0.1387573,0.09226194,-0.019691626,0.052475173,-0.0122374175,-0.0019670606,0.030573761,0.2593257,0.073436625,0.24669506,-0.055934705,0.028416947,0.00015857036,-0.010791042,0.06764547,-0.14716895,0.053167313,0.05027586,-0.030487467,0.17366906,-0.50763315,0.04753699,0.04238465,-0.061207134,-0.054290324,-0.2313038,0.1465942,0.024944324,-0.00075902045,0.030175101,-0.18063535,0.28367323,0.068634786,-0.042173356,-0.08603319,0.040623713,-0.06361019,0.13233633,-0.07790616,-0.16780227,-0.14905798,0.036124904,-0.017961161,0.053771406,0.002276605,-0.00014054148,0.06469538,0.05640641,-0.07166072,0.028433781,0.17631847,0.09393326,0.1166836,-0.026901253,0.11470984,-0.18694434,0.28216785,-0.0013263872,-0.04322572,0.17750733,-0.055420488,0.26279166,-0.14358425,0.10350817,-0.14324978,-0.031498216,0.07771189,-0.2300274,-0.029041817,-0.32145548,0.12056232,-0.23608233,-0.15117146,0.09214268,0.043154795,0.079795465,0.036878083,0.14802259,-0.0711603,0.15040812,-0.2440368,0.018671172,0.048059687,0.009216969,0.08129906,-0.1705646,-0.08518062
api,-0.05435419,-0.04459704,-0.1009597,-0.14883065,0.016618524,-0.23803651,-0.105025426,0.2685196,0.19104443,-0.14824592,-0.004495612,-0.22117548,0.035562936,0.13585536,0.0479414,-0.03756873,0.026526107,0.05549932,0.06909379,-0.0028693131,0.3271488,0.004025999,0.17867436,-0.23218235,0.07227119,0.0834889,0.037157655,-0.04362755,-0.051301904,-0.092005365,-0.00035985495,-0.018805573,0.24222939,-0.4108588,-0.000421813,0.048148263,-0.050254945,0.011981105,-0.26242277,0.052037086,0.10633678,0.05526518,0.05788429,-0.13275477,0.19130464,-0.03885343,-0.02991028,-0.18759264,0.08830093,0.00360845,0.11231444,-0.020548621,-0.081062466,-0.021263426,0.068672076,-0.05407834,0.18761498,0.003720283,0.077962115,0.14232546,0.042316824,-0.077490196,0.12668844,0.18929672,0.018565806,0.12615015,-0.18350248,0.1189172,-0.13570702,0.26762968,0.09512463,-0.029401606,0.26597297,0.06884585,0.24717955,-0.119179346,0.25143087,-0.12678134,-0.019492311,0.030225579,-0.3253791,0.05392817,-0.29612288,0.003491696,-0.22392206,-0.1086834,0.080587886,-0.043574195,0.04464272,0.032040115,0.1143112,0.032505155,0.08843044,-0.12816772,0.087771505,0.12723657,-0.13240759,0.06824601,-0.15486865,-0.05988632
chat,-0.070064686,-0.0031550745,-0.13666114,-0.15172586,0.014796213,-0.31644046,-0.10745529,0.29510465,0.1448091,-0.16606489,0.00036536483,-0.18110217,-0.114351146,0.0327121,0.033606548,0.07117234,-0.034910057,-0.12580527,-0.008741851,-0.084232256,0.26959968,0.0788679,0.2927794,-0.19691038,-0.023627656,0.024285767,-0.038704414,0.04013125,-0.10485531,-0.06425619,0.1004934,-0.037821047,0.26980677,-0.39823475,0.089707315,0.099220574,0.081481345,0.050817236,-0.28592843,0.10283241,0.008353639,0.0005969448,-0.0052730194,-0.28213516,0.24076971,0.032820098,-0.020752007,-0.039556034,0.048980497,0.023809558,0.07608439,0.0052070366,-0.03108812,-0.04771442,0.04382321,-0.11224991,0.1370644,-0.040662393,-0.04115919,0.23626705,0.13709313,-0.11299959,0.11531187,0.12580283,0.029753117,-0.07582782,-0.10021289,0.11505875,-0.2339848,0.3456643,-0.078160435,-0.081599474,0.19103676,0.024207793,0.17679562,-0.21765542,0.06159907,-0.23918301,0.016776526,-0.05600264,-0.112198055,0.045160837,-0.35444,0.11468839,-0.3317961,-0.19341482,-0.08942645,0.044415858,0.10593647,0.06853524,0.11430933,-0.012782886,0.11441295,-0.21727227,0.004265417,0.062427323,-0.12181461,0.053827554,-0.1252817,-0.14790247
bug,0.17407864,0.05774654,-0.002717872,0.3014435,-0.07851863,-0.30801067,0.32885936,0.29605964,-0.45313135,-0.48659435,0.20975406,-0.42728296,-0.1597599,0.14258878,0.14692746,-0.23816298,0.008595723,-0.4169702,-0.25557408,-0.40954903,-0.023247894,0.0854011,-0.00930356,0.13820526,-0.38645878,-0.10902727,-0.39019057,-0.01571335,-0.028290968,0.008757408,0.099624805,-0.01615197,0.08474095,-0.20410143,0.019700872,0.17922504,0.14083199,-0.08264216,-0.013032195,-0.34477365,0.15777867,-0.36223403,0.22883411,0.25823504,0.20166038,0.13035706,-0.47654077,-0.03641079,0.18797906,0.29182097,-0.18660738,-0.21379748,0.19805443,-0.40348643,-0.009799094,-0.011118129,-0.027714351,-0.03463559,-0.31267223,0.15504533,0.27478486,0.14022943,-0.07796727,0.01342294,-0.11195641,0.19013008,0.14167663,0.59106255,-0.26486772,0.12606575,-0.3301158,-0.008051501,0.2593243,-0.23264273,0.35540193,-0.17568082,-0.25043923,0.25240088,0.10079437,-0.20509994,0.01983779,-0.021324215,-0.515208,0.5335975,-0.011556925,-0.17933135,0.28886667,0.25266325,0.19949903,0.1255424,0.34982038,-0.18033478,0.031213317,0.19517046,0.052409817,0.13366798,-0.0060967486,-0.107298,0.03074043,-0.08882129
travan,0.13468975,-0.015274072,-0.031841908,0.27621222,-0.041227397,-0.24524894,0.2971283,0.26580513,-0.32374343,-0.3852222,0.15991029,-0.40040496,-0.16126414,0.10204916,0.014823246,-0.18187307,-0.0040330812,-0.38359633,-0.24114522,-0.4321525,-0.02020499,0.06654239,0.0332479,0.1135421,-0.36751872,-0.112220496,-0.3669488,-0.055287573,-0.07386781,0.0032842818,0.08124016,0.052641567,0.1063856,-0.25633264,-0.008779703,0.134784,0.15253854,-0.11064983,-0.030665966,-0.30668157,0.17415288,-0.3503394,0.19811751,0.1448749,0.25601703,0.10879507,-0.43786263,-0.034323998,0.17942551,0.2494598,-0.15591216,-0.18792245,0.23171021,-0.32781762,-0.056791317,-0.049126763,-0.013902778,-0.049241394,-0.3359711,0.22195661,0.34193373,0.0827547,-0.059363842,0.014842278,-0.054460824,0.075004295,0.073461056,0.55543494,-0.24437755,0.09655295,-0.31817123,-0.040796816,0.25384668,-0.20835447,0.30479386,-0.27552328,-0.25269878,0.21065651,0.12523723,-0.19380575,0.056453273,-0.040192783,-0.51742315,0.4758861,-0.10734288,-0.19931291,0.28300598,0.28752297,0.16168034,0.09764503,0.33022958,-0.13510658,0.033752404,0.17656417,0.08154776,0.116069406,-0.06361243,-0.08639851,-0.017959101,-0.072612196
sitem,0.1756865,-0.021321297,0.003048219,0.3284693,-0.063391246,-0.23818003,0.33871248,0.23993899,-0.38027862,-0.38155642,0.15200756,-0.37198666,-0.12498045,0.103653476,0.057759095,-0.18938239,0.018564407,-0.45077434,-0.26492113,-0.42822215,-0.0050807763,0.10697864,0.0062087667,0.15690914,-0.41590822,-0.13995719,-0.4101867,-0.016537564,-0.07254911,0.029492317,0.10783625,0.045855805,0.09800106,-0.22684029,0.0035707296,0.12802969,0.13784887,-0.11414932,-0.0061429427,-0.29333338,0.13077986,-0.3671132,0.22265473,0.19527867,0.25301686,0.13712136,-0.44413808,-0.061836626,0.1912123,0.2657817,-0.20959121,-0.18403818,0.19784752,-0.38703352,0.021851549,-0.0033044582,-0.052353326,0.021745248,-0.3304017,0.23060529,0.3011774,0.10568627,-0.109088354,0.009987431,-0.09532251,0.09136498,0.116551355,0.5562233,-0.21581455,0.11363411,-0.3243585,-0.082702234,0.25107613,-0.27504522,0.29311624,-0.2742177,-0.27374196,0.250243,0.11907107,-0.18569204,0.059506044,-0.002914155,-0.5333261,0.5741915,-0.05743043,-0.17847276,0.27337116,0.3181971,0.22636962,0.077703804,0.32305935,-0.20077613,0.041639484,0.16810612,0.03357676,0.09602455,-0.017278003,-0.10195305,-0.0068962215,-0.09324558
vcs,0.19755355,-0.008733654,0.0020512799,0.31824195,-0.06315019,-0.31153506,0.27234966,0.31507045,-0.40546918,-0.42836794,0.18350282,-0.38291302,-0.18163876,0.16178791,0.11142336,-0.21200947,-0.030227438,-0.47332007,-0.24532156,-0.44345444,-0.00726898,0.119060904,0.034467228,0.13558029,-0.40226734,-0.12572743,-0.37026525,0.019911507,-0.10696621,0.05473358,0.1421642,-0.013345331,0.09317602,-0.2310039,0.039253514,0.15942287,0.14614502,-0.10134875,-0.021130238,-0.3356898,0.112436235,-0.38808054,0.1793045,0.24579056,0.2554207,0.20179686,-0.50978255,0.012476351,0.1768461,0.25501344,-0.16479295,-0.18535091,0.1910755,-0.42417204,0.009263633,-0.00071364833,-0.038164724,-0.06499187,-0.37066594,0.2270804,0.2952652,0.13661426,-0.11387235,0.007436106,-0.050809342,0.14500134,0.15609081,0.6040442,-0.24021114,0.13479504,-0.34063584,-0.043179937,0.22960491,-0.25974476,0.35192606,-0.24457864,-0.2344,0.20024526,0.15961526,-0.25516963,0.06169758,-0.043575585,-0.5656323,0.52755094,-0.07471373,-0.18068261,0.2550832,0.26199594,0.2411287,0.13660106,0.38051385,-0.17839728,0.047057685,0.19133094,0.0035507753,0.13164908,-0.0390142,-0.073812105,0.0032637508,-0.122951895
atendimnt,0.17934473,-0.002297877,0.016240332,0.27821472,-0.070207715,-0.2581847,0.317639,0.26296937,-0.39273068,-0.3780667,0.17258438,-0.33485425,-0.16910584,0.11219708,0.039692026,-0.23502879,-0.011979171,-0.45186898,-0.2850618,-0.4736988,-0.018222896,0.09413202,0.06709506,0.14468631,-0.37005687,-0.10447658,-0.35811964,-0.024655253,-0.091838896,0.038849756,0.11844352,0.05445227,0.083298236,-0.19089012,0.024719337,0.15108149,0.13363856,-0.13089965,-0.023754794,-0.3477166,0.1543612,-0.38235676,0.16826925,0.2055416,0.22617452,0.13721918,-0.4644609,-0.0031467923,0.16577056,0.26940233,-0.19975664,-0.21298043,0.21336553,-0.34891382,-0.049439732,-0.06309125,-0.05436507,-0.05939051,-0.35321966,0.17854494,0.34119675,0.10223735,-0.05395658,-0.023924034,-0.06204209,0.13746236,0.11616478,0.5713699,-0.27797535,0.091856934,-0.335892,0.048961736,0.2133263,-0.22773123,0.30168667,-0.25244322,-0.25067273,0.23448479,0.13103111,-0.1931801,0.08778411,-0.04735412,-0.5451963,0.49926302,-0.08668788,-0.21302205,0.3045711,0.27853343,0.1291076,0.10845374,0.3467726,-0.14135747,0.036066376,0.17043102,0.045293618,0.09604399,-0.01847765,-0.11836596,0.016995149,-0.10339829
probelm,0.19698079,-0.003254154,0.00017078224,0.33298677,-0.043384973,-0.28944406,0.29991516,0.28328088,-0.35743666,-0.38442805,0.20564425,-0.32323402,-0.057198577,0.095462196,0.0878561,-0.14371943,0.020819739,-0.40087584,-0.23798539,-0.4797966,-0.04551563,0.069900975,0.06739559,0.028439185,-0.31869122,-0.11664505,-0.4109043,0.024347248,-0.041561134,0.047557116,0.16923721,0.0027744146,0.15141018,-0.14552161,-0.008013699,0.17114908,0.11663747,-0.058168914,0.0033956112,-0.32804134,0.12739335,-0.33685666,0.15810548,0.18632403,0.21015653,0.07937949,-0.3947563,-0.0036685567,0.13381803,0.258756,-0.15746671,-0.1706535,0.1553298,-0.32209733,-0.036705643,-0.060489543,-0.05690382,-0.049613446,-0.2573353,0.15329291,0.24317549,0.08336399,0.027107948,0.00029592597,-0.16870186,0.14550859,0.11637324,0.49484617,-0.27102575,0.07528583,-0.29843956,0.02364779,0.21371983,-0.14639977,0.2929945,-0.2004154,-0.24585077,0.18232976,0.090032004,-0.13971372,0.092893034,-0.014503798,-0.4451845,0.49821776,-0.037937377,-0.19111042,0.2215176,0.18155715,0.20325011,0.13952893,0.2815693,-0.10814135,0.059396215,0.1549783,0.14073591,0.0519779,-0.023697019,-0.05875639,0.013699884,-0.14049563
ploblem,0.20168535,-0.0069587864,-0.016836077,0.32178783,-0.0920341,-0.22827166,0.3244983,0.26706082,-0.3499696,-0.38740334,0.15576525,-0.31697828,-0.0692775,0.13572223,0.070067935,-0.24583405,0.058859274,-0.38883877,-0.21185206,-0.42929423,-0.014735848,0.032087702,0.016169738,0.11034635,-0.3650542,-0.13457334,-0.42829683,-0.006773158,-0.08071775,0.06385333,0.16009691,0.0067473124,0.10708943,-0.2634817,0.0058098366,0.107422195,0.08113671,-0.098463245,0.026789831,-0.316108,0.14541386,-0.3800127,0.19379933,0.18626676,0.22577564,0.07880965,-0.4181148,-0.05156546,0.19333208,0.23286499,-0.16445489,-0.1912633,0.16527632,-0.3292181,-0.0125612,-0.0055311387,-0.042288247,-0.049040105,-0.29477718,0.16240701,0.2983868,0.09922748,-0.069693424,0.010301954,-0.091648564,0.14690995,0.16244379,0.52081734,-0.24721475,0.07641334,-0.27478346,-0.045177914,0.23931721,-0.20864476,0.32969218,-0.20941396,-0.25216964,0.2895916,0.104856394,-0.13834615,0.023514835,-0.039877698,-0.4744903,0.5281913,-0.06750652,-0.20841695,0.28534257,0.25304452,0.17032552,0.1128941,0.3278191,-0.17140144,0.02559952,0.1374181,0.08831346,0.073260136,-0.024845535,-0.066598184,-0.018429635,-0.09229983
qdo,0.18902333,0.0071299737,-0.0017995457,0.35610467,-0.034269113,-0.28356695,0.34922665,0.2996738,-0.42401633,-0.4383332,0.21840456,-0.3796418,-0.07147912,0.09182342,0.16769925,-0.27488422,0.023860475,-0.39546424,-0.27641818,-0.46137777,-0.02632016,0.0036128536,-0.03311657,0.09254058,-0.35980356,-0.11610156,-0.41079226,-0.03289263,-0.074632525,0.006806342,0.10525601,0.033827662,0.067168154,-0.19226837,0.023057204,0.14663397,0.076674156,-0.10844939,0.02444406,-0.36918038,0.21379218,-0.3832445,0.24259445,0.2472599,0.1842479,0.095053814,-0.4530069,-0.011240396,0.16399865,0.2799058,-0.14644967,-0.20643263,0.227519,-0.35949105,-0.08064756,-0.04997,-0.024674255,-0.02437906,-0.2901357,0.17120555,0.3158607,0.17612334,-0.07706141,-0.049091846,-0.08364001,0.18128271,0.13221523,0.6099361,-0.26718897,0.005979353,-0.3200404,0.010154926,0.21761048,-0.19331804,0.37022322,-0.19555221,-0.24504615,0.31978428,0.11194092,-0.20714577,0.009256485,0.016031753,-0.49840176,0.5078496,-0.06109423,-0.16764234,0.3437691,0.24650191,0.15791583,0.08027128,0.33897835,-0.16926369,0.017484283,0.2773274,0.12527718,0.114995725,-0.01915182,-0.13373746,0.013682735,-0.12761925
naum,0.07788957,-0.020856727,-0.019108571,0.21626271,-0.039743803,-0.3331777,0.26025388,0.30540937,-0.2914413,-0.4144235,0.20325802,-0.44278002,-0.18878542,0.09685993,0.048509467,-0.12958758,-0.027002128,-0.37566724,-0.26056704,-0.46816838,-0.05039051,0.063851215,0.03970616,0.07965263,-0.34429324,-0.06752623,-0.3071006,0.0101740705,-0.1138321,-0.052020185,0.05903143,0.054518353,0.1276027,-0.25717694,-0.0005713086,0.13642035,0.20149468,-0.15539077,-0.07470533,-0.2505935,0.20529355,-0.3263502,0.14116141,0.11233967,0.28731588,0.11020151,-0.43144757,0.022056159,0.15927784,0.28448865,-0.18191619,-0.1949005,0.2189011,-0.28516805,-0.075371474,-0.049663078,0.036481075,-0.06187902,-0.27915704,0.2431206,0.34556082,0.098826274,-0.052796397,-0.0023825858,-0.054615457,0.07971144,0.08326607,0.59284264,-0.23816171,0.15341374,-0.30750236,0.00250358,0.2595092,-0.17993748,0.34314358,-0.24698538,-0.25062564,0.13996896,0.11851591,-0.21675567,0.053140786,0.029724171,-0.5477887,0.47873127,-0.11942397,-0.21599431,0.2517427,0.27932972,0.1438045,0.08589081,0.32294157,-0.10747228,0.063161984,0.1681389,0.09119141,0.17740484,0.0036931168,-0.12199694,-0.042356208,-0.082450904
msg,0.1895222,-0.04606236,-0.0022840148,0.27313897,-0.073247425,-0.25161302,0.26936513,0.29129437,-0.3090886,-0.39759246,0.13982905,-0.34061754,-0.12618558,0.11981834,0.06632014,-0.2178434,0.0051625897,-0.38343757,-0.19123343,-0.43055,-0.014868525,0.052475505,-0.006809069,0.11341935,-0.34181336,-0.09821267,-0.37639454,0.011119943,-0.11003036,0.04869408,0.11617475,0.03639692,0.09217771,-0.30647978,0.02429191,0.09353099,0.08408353,-0.14567962,-0.0003822251,-0.2948465,0.16113451,-0.3736725,0.18169343,0.17439868,0.26743364,0.10877687,-0.4313468,-0.017559325,0.15336047,0.21878816,-0.15718453,-0.18211907,0.19887559,-0.32209945,-0.03048125,-0.011903646,-0.05278358,-0.052163705,-0.33330855,0.21192631,0.31838384,0.113684826,-0.09836736,0.015387605,-0.040852126,0.12981395,0.16827154,0.5526199,-0.22103736,0.08968447,-0.2994893,-0.029318905,0.21538395,-0.25388113,0.34263566,-0.1988737,-0.2276239,0.2342812,0.14819822,-0.18452218,0.040129684,-0.04455956,-0.52337605,0.49070317,-0.08851089,-0.18278621,0.2906555,0.2592735,0.15068766,0.09939502,0.3116169,-0.17372987,0.06648373,0.15872854,0.05833927,0.101317085,-0.02976923,-0.07011189,-0.017743556,-0.08892713
platafrom,0.22604771,0.01576017,0.0093707945,0.29155207,-0.046332754,-0.24795412,0.28574094,0.29600886,-0.368543,-0.37052077,0.14313966,-0.31476086,-0.059311584,0.113398366,0.14081272,-0.255536,0.025718907,-0.38067558,-0.18571708,-0.37712392,-0.006823875,0.03634739,-0.043255907,0.049329873,-0.30969742,-0.106436536,-0.34019253,0.013791124,-0.09253666,0.033114187,0.14253835,-0.04514589,0.07658903,-0.2548153,0.030550318,0.12045169,0.062300958,-0.09058153,0.0015831515,-0.32559216,0.12347136,-0.3356209,0.16848224,0.304032,0.1709327,0.12345639,-0.440757,-0.013494937,0.17173186,0.2158952,-0.12033245,-0.18343075,0.13850284,-0.3478195,-0.015268148,0.01605232,-0.01597838,0.000354143,-0.28769052,0.14178807,0.21209113,0.15477052,-0.095903516,0.006874902,-0.03654298,0.22180189,0.14437799,0.51756036,-0.19537821,0.024484513,-0.25392807,0.013255407,0.2268654,-0.20066427,0.3564977,-0.18037985,-0.13845123,0.22788414,0.12913278,-0.16622573,-0.059573904,-0.033226717,-0.47398254,0.41616258,-0.056710526,-0.15576576,0.2803067,0.19679397,0.18763436,0.11863894,0.33534232,-0.11046521,0.05652408,0.2219536,0.061321296,0.09100695,-0.03195402,-0.035996098,0.031953797,-0.12668708
